float fc2_weights[5000] = {0.00543348, 0.00668252, 0.0187375, -0.095387, -0.0275692, -0.0343288, -0.11466, -0.0700478, -0.0199115, -0.0403529, -0.0881496, -0.0375752, -0.0810786, 0.0393239, 0.04411, -0.00570916, -0.0434966, -0.129445, -0.0196431, 0.0758071, 0.0195994, -0.0238194, -0.0418293, -0.0594976, -0.109475, 0.107107, 0.0248551, -0.0262683, -0.0812847, -0.0799452, -0.0045129, 0.00200329, 0.00419505, 0.0041886, -0.115313, -0.0128465, 0.020452, 0.0603805, -0.0616775, 0.0185252, -0.0477095, -0.12459, 0.0625866, -0.0276762, -0.0350435, -0.113332, 0.0761208, 0.0399036, -0.00326548, 0.0542421, -0.0170329, -0.0740974, -0.0777375, 0.00998238, 0.00158995, -0.0413246, -0.102933, 0.0212545, 0.0201206, -0.0444536, -0.127608, -0.0395942, -0.00219159, -0.0504777, 0.0510575, -0.0454177, -0.0753238, -0.00874227, 0.00290615, -0.0192556, 0.12425, 0.0348407, -0.0112867, 0.11109, -0.0459481, 0.0239687, 0.016367, -0.0412174, 0.0030789, 0.0166644, 0.0898797, -0.0582304, -0.0141166, 0.0346794, 0.023904, 0.0943176, -0.0364719, -0.0816946, -0.00833013, -0.00420354, -0.0458036, 0.0326778, -0.048264, 0.0218245, -0.0675677, -0.0477208, 0.0801943, -0.0259269, -0.0721512, 0.0384468, 0.00102213, 0.0318297, -0.00115764, 0.0319573, -0.0219244, -0.0754986, 0.00763049, -0.118915, -0.0623132, 0.106443, 0.010729, -0.0227708, 0.111804, 0.067719, -0.0241319, 0.00654325, 0.0870498, -0.0611797, -0.012794, 0.0025032, 0.173111, -0.00112337, -0.00292921, 0.06891, 0.0152385, -0.0783094, 0.0370582, -0.073337, -0.0473199, 0.0387825, 0.0571729, 0.014409, 0.000776507, 0.10509, 0.0212396, -0.0350165, 0.00846669, -0.0575301, -0.0104153, -0.0284509, 0.0420121, 0.0351561, -0.0578082, 0.0607087, 0.0137619, -0.0820417, 0.00745602, 0.139588, 0.114042, 0.0491461, 0.0616827, -0.133715, 0.0741914, 0.0641088, -0.0312123, -0.051758, -0.047449, 0.0400523, 0.0878212, -0.0725513, 0.0100396, -0.0322035, 0.0038493, -0.142452, 0.0557222, 0.105412, -0.122429, -0.0292322, -0.00848933, 0.000122009, 0.0514828, -0.0136236, -0.115201, -0.00820601, 0.0307133, 0.000415769, 0.0796754, 0.0291173, 0.0592105, 0.0506329, -0.0731739, -0.073724, 0.0762873, 0.0218474, -0.0903993, 0.00752715, 0.0303324, 0.0347195, 0.0871969, 0.048942, -0.0113989, -0.0459752, 0.0722512, 0.0420129, 0.133227, 0.056014, -0.0671903, -0.0282162, -0.00785995, 0.00704734, -0.106046, -0.020935, 0.0729132, 0.0385026, 0.0414605, -0.113391, -0.0186206, 0.0882738, 0.0725475, -0.00646572, 0.0822229, 0.120496, -0.0165898, -0.0695275, 0.0536176, -0.0690529, 0.0223866, -0.0826723, 0.09541, -0.0179755, -0.0385394, 0.0246975, -0.100986, -0.069201, 0.154457, -0.0121189, -0.0595555, -0.0561943, -0.0569696, -0.039192, -0.0865194, 0.00358588, 0.0402904, -0.019154, -0.0815631, 0.0332091, -0.0711686, 0.147396, 0.00737983, -0.0158462, -0.0826885, -0.0561114, 0.0975384, -0.025842, 0.00467779, -0.0474071, -0.00847412, 0.0738565, 0.0270406, 0.0892661, -0.0321723, 0.0014616, 0.0869587, -0.0620612, 0.155513, -0.0698478, 0.0320665, 0.000989113, -0.0613775, -0.0289451, 0.0685723, -0.0655498, 0.0939465, 0.00280788, 0.0687425, -0.0598182, 0.0890736, -0.0704749, 0.0243394, -0.0130849, -0.0157176, -0.0833482, -0.00995858, -0.118876, -0.0140399, 0.0399419, -0.0712321, 0.114955, -0.0655056, 0.0629971, -0.0655601, 0.0377691, 0.0860592, 0.0514155, 0.00853592, 0.0306234, 0.0967202, -0.0521192, -0.0185413, 0.0141845, 0.0372629, 0.0728481, 0.0327038, 0.0526227, 0.0115762, -0.0382886, -0.00796717, 0.0209462, -0.0490908, -0.057025, 0.0590394, 0.0408524, 0.0379121, 0.0189766, -0.0337236, 0.0714768, -0.062474, 0.0245083, 0.0331094, -0.129993, 0.0302562, 0.107748, 0.0542637, -0.0869855, -0.0173109, -0.0715024, -0.0212632, -0.108208, -0.056655, -0.0414188, -0.0108954, 0.0170463, 0.0146376, 0.0525243, 0.0400988, 0.0317803, -0.0318192, -0.00849864, -0.0128151, 0.00266843, 0.0343415, -0.025449, 0.0434164, -0.0181153, 0.00584974, 0.0554508, 0.0513621, 0.049267, 0.0120658, -0.0236221, 0.0461997, -0.00841454, -0.0295211, 0.122882, 0.023738, 0.0291145, 0.0266044, -0.0215672, -0.0625304, 0.0159872, -0.00586454, -0.0272045, -0.022665, 0.113107, -0.0709518, -0.00433273, -0.0396204, 0.0712045, 0.0418195, -0.0527511, -0.0355204, -0.026231, -0.143348, -0.15603, 0.0403953, -0.135681, -0.0682861, 0.0029487, -0.0618218, -0.0190107, -0.133523, -0.0840859, 0.0323021, -0.0838979, -0.0808747, -0.0530478, -0.0735016, -0.116418, 0.0169211, 0.0295237, 0.06902, 0.0293041, -0.0389474, -0.00512948, -0.0234119, 0.0586357, 0.0828225, 0.0492885, 0.0294229, 0.13843, 0.12455, -0.00311292, 0.0979147, -0.104018, -0.0979547, -0.00828775, -0.0863353, 0.0158705, 0.095968, 0.0139374, -0.127964, 0.00261114, -0.0435165, 0.0497961, 0.0157692, -0.00516613, -0.0742517, -0.035148, 0.0270041, 0.0133165, 0.11645, -0.0653151, -0.0266856, 0.0127946, -0.00713137, 0.0510736, -0.083583, -0.0384254, 0.0439567, 0.0399777, 0.0434175, 0.0455801, 0.0575645, -0.0265946, 0.0256559, 0.0927396, -0.0821067, 0.0250591, -0.063703, 0.0352289, 0.1168, 0.0574878, 0.0126592, -0.00872153, -0.0501363, 0.00480273, -0.00827144, -0.0550637, 0.0139214, -0.0431845, 0.011732, -0.0409008, 0.0162801, 0.066653, -0.0405309, 0.107658, 0.0259107, -0.0100761, -0.0597, 0.0502587, 0.0496019, 0.0152081, -0.0412209, 0.07477, -0.0440741, -0.00589787, 0.0066529, -0.0462743, -0.0180308, 0.0288584, 0.128569, 0.0409413, -0.0323479, -0.00970046, -0.0105595, -0.0587626, 0.0647892, -0.0442586, 0.0446951, 0.0769262, 0.00611929, -0.0146092, -0.0478853, 0.0310118, 0.0235799, -0.0291834, 0.0360134, -0.0462838, 0.0419511, 0.0922075, -0.0264875, -0.0130359, -0.0864575, -0.0642776, 0.0267782, -0.00874971, -0.0560269, 0.0435001, 0.0270616, 0.0441923, 0.0751803, 0.0746485, -0.088786, 0.0498627, -0.0286384, -0.0433055, -0.0596084, 0.0693539, 0.0309446, 0.0367648, 0.11677, -0.00366989, 0.0567935, 0.0123633, 0.173509, -0.0719002, 0.0242517, -0.0170155, 0.0168922, 0.043533, 0.113268, -0.042442, 0.030509, 0.0286174, 0.0446041, 0.0499218, 0.0660001, 0.126538, -0.018019, -0.0467828, -0.0385964, 0.0426955, 0.0180303, 0.0198076, 0.0449459, -0.0496202, -0.0478658, 0.00888928, -0.0742667, 0.0582737, 0.0469983, -0.154393, 0.0952827, -0.109089, -6.49831e-05, 0.0775499, 0.0150815, -0.0611103, -0.0604794, 0.135625, 0.0186272, 0.115602, -0.0291435, 0.056879, -0.0477391, 0.0308264, 0.0610238, -0.0438057, 0.0211968, 0.085833, 0.0347613, 0.0137241, -0.10189, 0.0129239, 0.0017042, 0.0480432, -0.107498, 0.0552465, -0.104219, 0.0331483, -0.0151233, -0.0516108, -0.0675371, -0.00170394, -0.142322, -0.0471731, -0.0235021, 0.0170719, -0.00124345, -0.0177432, 0.05538, -0.042496, 0.014739, -0.041875, -0.0261836, -0.0277938, -0.00982467, -0.00475171, -0.0471591, 0.084679, -0.0981199, 0.0780842, 0.0596851, 0.036133, 0.0600444, -0.0349511, -0.0165599, 0.0715707, -0.0361538, -0.116914, 4.02462e-05, 0.0508043, 0.139663, -0.066563, -0.00594452, -0.0115047, -0.0296813, -0.0237782, 0.0562688, 0.0857999, 0.0405198, -0.0541445, -0.0415562, 0.095758, -0.0625949, 0.0570593, 0.0597024, -0.0871887, -0.0465077, 0.0393394, 0.0522033, -0.0501801, 0.0334451, 0.00870455, 0.0868959, 0.0645883, 0.053628, -0.0474329, 0.0982645, -0.0248223, 0.0424803, 0.0262537, 0.064237, -0.0659458, -0.0535031, -0.0265693, 0.0877554, 0.00813348, 0.037256, -0.0775324, -0.0558832, -0.0838235, -0.0564654, -0.0751081, -0.0761007, -0.020163, -0.111619, 0.060601, -0.0444484, 0.00566988, -0.0220985, 0.104574, 0.0681461, 0.106589, 0.0701796, -0.0160676, -0.0706174, -0.086849, -0.0229842, 0.0495392, -0.0385192, 0.0205405, 0.11745, -0.0568468, 0.0324436, -0.0177316, 0.171916, -0.0147405, -0.136207, -0.104642, -0.0374723, 0.0653545, -0.0271985, -0.02964, 0.108769, -0.05185, -0.00842301, 0.0212896, 0.113893, -0.0377229, -0.048794, -0.0158052, -0.000628904, -0.141533, 0.121627, -0.00785183, 0.0771094, 0.0356482, 0.010104, 0.0294696, 0.0178931, 0.0463168, -0.0439781, 0.0988908, -0.0754275, 0.0505813, 0.0621039, -0.0711583, 0.0141734, -0.0575304, -0.000427808, -0.0563152, 0.0803787, 0.108303, -0.0328816, -0.0343806, -0.0548821, -0.0625942, 0.146249, 0.130829, -0.0129895, -0.0767597, -0.160145, 0.0003061, -0.0174187, -0.0338341, -0.00859426, -0.0015628, -0.0456547, 0.014017, 0.00509502, -0.0401704, 0.091061, -0.0250738, -0.0245708, -0.043789, 0.0226049, -0.0954576, -0.0716185, -0.0692735, -0.14118, -0.0342026, -0.0714752, -0.0205028, -0.028475, 0.0852016, -0.0170459, -0.037844, -0.0306252, -0.0525379, 0.101074, -0.048089, 0.0611993, 0.0489426, 0.114836, 0.0176668, 0.0698124, 0.131749, -0.0396804, 0.116794, -0.077086, 0.050905, -0.0413459, -0.0344635, 0.0724146, -0.0341601, -0.0188456, 0.0424777, -0.0812792, -0.00285858, -0.0493321, 0.00428275, -0.0661454, -0.0448864, 0.0533977, 0.0491508, 0.0198258, 0.0751859, -0.0276988, -0.0425177, -0.146891, -0.0385837, 0.081456, -0.0545574, -0.0616395, 0.0481662, 0.0380202, 0.0651434, 0.0743808, -0.0834733, -0.0336373, 0.107174, 0.0597922, 0.00887493, -0.039741, 0.0404444, 0.05837, -0.00363374, -0.0114112, 0.00253546, 0.101118, 0.0704298, 0.0132705, 0.0219187, -0.0956689, 0.0544739, -0.0102304, 0.00214716, -0.0185027, -0.0103745, 0.024182, 0.0458003, 0.0401404, 0.0356291, 0.0560007, -0.00993409, 0.00860959, 0.0262444, 0.0287928, 0.0386011, -0.0634033, 0.017544, 0.00694527, 0.0768078, -0.0299118, -0.109857, -0.0283061, 0.0276853, -0.058027, -0.118614, -0.123848, -0.0222586, -0.0149384, -0.021665, -0.00731914, 0.0371403, -0.0803798, -0.0326987, -0.00799963, 0.0340958, 0.0993353, 0.0192937, -0.00496504, -0.0978687, -0.0437442, 0.0131104, -0.082095, -0.0154722, -0.111432, 0.163235, -0.0472278, 0.0604083, 0.0474932, -0.0429052, 0.0305092, 0.12801, -0.0559638, -0.0606306, -0.124512, 0.0755242, 0.0700651, 0.0283455, 0.00154888, 0.0372708, -0.042979, 0.1321, 0.0461335, 0.0364225, 0.0418387, 0.0898567, -0.0671509, -0.0689106, -0.0970311, 0.000632401, -0.0747422, -0.085976, 0.0572323, -0.129015, -0.0156666, 0.0763521, 0.0320517, -0.0437752, 0.0413336, -0.0477783, -0.0888787, 0.190401, -0.0123529, 0.0827171, 0.0620159, 0.0156515, 0.0228437, 0.11083, 0.0696921, 0.0804564, -0.110757, -0.0690888, -0.0322807, 0.0398335, -0.00744372, 0.0300399, 0.0475764, -0.0427642, 0.0326682, -0.0231172, 0.103732, 0.00809123, 0.0447923, -0.0490014, -0.0140061, -0.0586478, 0.112111, -0.0978542, -0.0693568, 0.0577525, 0.0120649, -0.0474035, 0.0155609, 0.0108607, -0.0850259, -0.0421099, -0.0243768, 0.0674335, 0.00450821, 0.0433019, -0.0382849, 0.046232, -0.0453232, 0.0432058, 0.0251908, 0.103071, 0.0534705, 0.0417408, -0.0361355, 0.0322279, 0.0302624, -0.0543228, -0.136654, -0.00161657, 0.00282841, -0.0239183, -0.0163655, -0.0256489, -0.0328191, -0.0015351, -0.0381979, 0.0285487, 0.000950166, 0.102033, 0.0528051, -0.0409041, -0.0294218, -0.0697812, -0.00914894, 0.0655797, 0.00504695, 0.021144, 0.0820365, 0.0454093, -0.0783255, -0.0298096, 0.075617, 0.0223244, 0.00192724, -0.018689, 0.0414535, 0.113147, 0.0128276, 0.0840409, -0.0313065, -0.0176813, 0.0340278, -0.024773, 0.0894395, 0.0761614, 0.0424652, -0.0419038, 0.0257418, 0.0354079, 0.075913, -0.0325511, -0.114165, -0.017523, 0.0411199, -0.0355856, -0.131797, -0.00380597, 0.0677968, 0.0261119, 0.0417051, 0.0343083, -0.0854088, 0.0170877, 0.120453, -0.0181154, -0.0103678, 0.0502789, -0.0376961, 0.0316256, -0.0401561, -0.0604042, -0.0372895, 0.0104455, 0.0880232, 0.00260752, -0.0236124, -0.0690548, 0.0239659, -0.00568766, -0.0442387, -0.00472625, -0.00236777, 0.0113682, -0.0621373, 0.0913147, -0.0230722, 0.00629689, -0.103556, 0.0252043, -0.0265672, 0.0283268, -0.142854, -0.0388884, -0.00527199, -0.0360491, -0.0163706, -0.0463565, 0.0825529, 0.00345155, 0.0790741, 0.109323, 0.0556061, 0.0709562, -0.0681919, 0.14539, 0.0606139, -0.0198331, 0.0600092, -0.0332196, -0.0883707, -0.0311466, 0.054699, 0.136374, -0.00810725, -0.0975317, -0.0424011, 0.0577947, 0.103534, 0.168227, 0.11851, 0.0866512, -0.0945754, 0.0250146, -0.112819, 0.123994, 0.0307488, -0.0476407, 0.015995, -0.0459196, -0.0036425, -0.0679445, 0.014795, 0.0433482, 0.0647842, 0.117911, -0.00924862, -0.0367797, -0.01629, -0.160608, 0.0525634, -0.0445066, -0.0339287, 0.0277378, 0.0483919, 0.0781857, -0.0521587, 0.0289472, -0.0587205, -0.047734, -0.0842495, -0.0768246, 0.0579002, 0.0628527, -0.0286813, 0.0906318, 0.0153026, 0.0608568, 0.0961902, -0.0341535, -0.0831554, 0.051324, -0.0475116, -0.0398751, 0.0248003, 0.141753, 0.0149835, -0.00832052, 0.0736377, 0.0836169, 0.0996056, 0.0809943, 0.154901, -0.137527, 0.0125791, 0.132664, -0.0303643, -0.0870116, -0.0757429, 0.0459775, -0.0209522, -0.0395891, 0.0726132, 0.029005, -0.0600709, 0.00140283, 0.123364, 0.0450824, 0.14742, -0.0100953, -0.0969056, 0.00629653, 0.0688374, 0.0210229, 0.0164566, 0.0635451, -0.0500781, 0.0461342, -0.00880473, -0.108001, -0.146449, 0.0212717, -0.0427914, 0.0301628, 0.0755504, -0.22522, -0.00451314, 0.00344533, -0.0344938, 0.028876, -0.0631118, -0.0287162, -0.116747, -0.0728101, -0.0497088, 0.0239252, 0.00634922, -0.104869, -0.110537, 0.0225744, -0.0504497, -0.0345621, -0.0392363, 0.0403693, -0.0829749, 0.11856, -0.0389042, 0.0963816, -0.0747043, 0.0355314, -0.0116727, 0.0560267, 0.0407754, 0.0690064, -0.0885582, -0.106564, 0.0781116, -0.090701, 0.0676157, -0.112504, 0.139857, -0.0737545, -0.0747971, 0.038959, 0.0244298, 0.0506886, -0.0728739, 0.0431848, 0.090315, -0.0185798, -0.0523129, -0.0612471, -0.0408857, 0.0572123, -0.0069582, -0.0836193, 0.124723, 0.0615174, -0.0421782, -0.0287046, -0.0940629, -0.0444614, 0.0476925, 0.178529, 0.0303727, 0.0655376, 0.0280355, 0.0281896, -0.112288, -0.0102499, -0.0315903, -0.0711157, 0.125391, 0.104322, 0.130676, -0.0992253, 0.0632857, -0.0307062, -0.0187702, 0.231561, 0.0530399, -0.0786476, -0.0606558, 0.0436711, -0.0126717, 0.0342613, 0.0823841, 0.013276, -0.0230991, 0.102368, 0.0397905, 0.0501345, -0.107437, -0.150067, -0.0595097, 0.0805639, 0.0289469, 0.069946, 0.0537064, -0.0944755, 0.0261332, -0.0409664, -0.0767388, 0.187257, 0.0763285, 0.000342112, -0.00259467, -0.0107388, -0.125385, 0.0528334, -0.0598188, -0.0740269, -0.0774736, 0.135665, -0.12109, 0.033947, 0.000725271, 0.0167751, -0.0441781, -0.00642358, 0.0586786, -0.141158, -0.0070573, 0.0949132, -0.10127, 0.103387, -0.00622163, -0.062622, 0.0395942, -0.00862834, -0.120525, -0.055132, 0.0111284, 0.120996, -0.0962081, -0.0111086, 0.105202, -0.0082111, 0.00366117, -0.117352, 0.10155, -0.0016652, 0.0450911, -0.0924154, 0.105097, -0.025464, 0.0468017, -0.0374668, 0.00543275, -7.246e-05, -0.0511012, -0.0700677, -0.126638, -0.0493168, 0.113202, 0.113854, 0.0283264, 0.114476, 0.0662944, -0.00234819, 0.0320502, 0.0322769, 0.00877639, 0.169288, -0.0806535, 0.0506902, -0.0338344, -0.000435642, 0.0427073, -0.011679, 0.0515383, 0.0490239, -0.0897654, 0.0117218, -0.0438379, 0.0371836, 0.0964883, -0.0589866, 0.00395869, -0.0534019, -0.0157903, 0.0607783, -0.0580852, -0.0160316, 0.14541, 0.0154925, 0.00123097, 0.0227702, 0.000117031, -0.00825436, -0.0800388, 0.0881517, -0.042991, 0.0250305, -0.00376907, 0.101838, -0.0554813, -0.0294863, -0.162229, -0.0386953, -0.114973, -0.161526, 0.162477, 0.0865939, -0.0371117, -0.138436, 0.0143131, -0.0523655, 0.0381846, -0.0620735, 0.000247105, -0.0291012, -0.0248172, -0.0891614, 0.0377981, 0.0882137, 0.0132434, -0.0369715, -0.0321257, 0.0406049, -0.0374504, 0.114532, 0.0194067, 0.0201708, -0.106641, -0.106964, -0.0516547, 0.000448267, 0.0384162, -0.00771719, 0.0605405, -0.0340631, -0.102615, -0.158326, -0.039955, 0.0109032, 0.0561887, -0.13223, -0.141423, -0.0336406, 0.092409, 0.0594039, -0.105469, 0.0820018, -0.0776657, -0.0506794, 0.0615846, 0.0764573, -0.0632854, -0.0825268, 0.0767922, 0.054116, 0.0403298, 0.131951, 0.0359853, 0.0629496, -0.0129944, -0.0759744, 0.084018, -0.112155, 0.00795361, -0.00595532, -0.0516089, 0.124488, 0.0417237, -0.0128825, 0.0345539, 0.0591009, 0.0630109, -0.0806878, 0.0699465, 0.185603, 0.0176132, 0.0463368, -0.0741817, 0.156593, -0.0229501, 0.0115236, 0.0629517, -0.0214998, -0.0969874, 0.100715, -0.0756866, -0.0323202, -0.0469555, 0.0742624, -0.000890136, -0.072889, 0.0058732, 0.0336106, 0.00859157, 0.00645068, -0.0974351, 0.158645, -0.00177014, 0.117725, 0.0149959, -0.0772569, 0.0257763, 0.0257887, -0.0472881, 0.075208, -0.110321, -0.113694, -0.0793554, -0.014888, -0.051695, 0.0618282, -0.0928757, -0.0682267, -0.0863575, 0.0988991, -0.013714, -0.0180344, 0.0935426, 0.0626969, -0.0233041, 0.00368519, 0.0991658, -0.049265, 0.0786623, 0.0457263, 0.0693877, 0.0894682, -0.076302, 0.0188806, -0.0464483, -0.00919761, -0.00305097, -0.0379903, 0.0753428, -0.0178994, 0.0304073, -0.0392533, 0.0400569, -0.0773248, -0.158195, -0.0877426, -0.175998, -0.140991, 0.133568, 0.0814523, 0.0650105, 0.0195939, -0.0642085, -0.0538476, 0.0375825, 0.0220158, 0.060865, 0.109077, -0.0338176, -0.0513513, 0.179392, -0.0711039, -0.0422801, -0.0347558, -0.0095229, -0.101848, 0.0172676, -0.0236237, 0.0398543, -0.0594008, -0.0621438, 0.0438458, -0.133387, 0.0486996, 0.064009, 0.0375737, 0.119564, 0.122727, 0.0999837, 0.0573811, 0.0644215, -0.104213, 0.101376, -0.0850119, -0.067083, 0.175838, -0.00604967, 0.0558587, 0.105584, -0.0308217, 0.0127636, 0.0424308, -0.102193, -0.0503416, -0.0359859, 0.00476593, -0.0350085, -0.0606916, -0.0170814, 0.108067, -0.153307, -0.0466097, 0.151479, -0.0584879, -0.0258668, -0.0191293, 0.00612189, 0.143639, -0.105561, 0.0652658, -0.151561, 0.0728106, -0.0304917, -0.0857781, -0.0569848, 0.0208954, -0.0571585, -0.110879, 0.127478, 0.0137874, -0.110655, -0.0524729, -0.0747197, 0.0196588, -0.0856804, 0.0219802, 0.0521822, -0.0414426, 0.0206344, 0.00911356, -0.0789684, -0.0646401, 0.175606, -0.095015, 0.109647, -0.0651236, -0.0559129, -0.0010393, -0.162316, -0.0491232, -0.0833363, -0.0046701, -0.0261056, 0.0239519, 0.0968411, -0.0667709, -0.113624, 0.103796, 0.0509396, -0.153958, 0.148708, -0.0402584, 0.0844287, -0.041258, 0.0486235, -0.0526913, -0.0603214, -0.0045192, 0.072085, 0.120477, -0.0438709, -0.102405, 0.0210183, -0.0521002, 0.0499497, 0.00587076, -0.0348139, 0.0441077, -0.174211, 0.0336757, 0.110155, 0.0845208, 0.121677, -0.0841213, 0.0543519, -0.0216369, -0.037318, -0.0412567, -0.137313, -0.0922854, -0.00855134, -0.0305349, 0.0662086, -0.133741, -0.0137719, 0.0103443, 0.00177507, -0.0445701, 0.112841, -0.00937401, -0.075259, 0.0108902, -0.0394409, -0.00546981, 0.0134499, 0.0743993, -0.0662181, 0.106547, -0.0753714, 0.114887, 0.0533048, 0.00251145, 0.059608, -0.0700111, 0.0298321, -0.00810403, -0.0764809, 0.0265988, 0.150862, -0.0255537, -0.111605, 0.0232408, -0.0180556, -0.0887114, 0.114075, -0.0332527, -0.0181245, 0.0765293, 0.0622275, 0.016869, -0.0402822, -0.00415216, -0.0160526, -0.148201, -0.0188869, 0.0592304, -0.0146944, -0.0641499, 0.0667289, 0.0998488, -0.00105511, 0.141416, 0.078862, 0.121193, -0.112282, -0.00483296, 0.0538217, -0.0410291, 0.0634008, -0.0641414, -0.0509225, 0.0380162, -0.129505, 0.0686866, 0.0610225, 0.171023, -0.069241, -0.0676775, 0.0109119, 0.0295677, -0.0225857, 0.147996, -0.0238033, 0.00920295, 0.027859, -0.0173657, -0.0708682, 0.0795573, 0.0504341, -0.0364495, -0.0498818, 0.00586092, -0.0732358, 0.0795488, -0.0873847, -0.071318, -0.0513468, -0.127797, -0.0298939, -0.0301052, 0.12515, -0.0929878, -0.0351662, -0.00909687, 0.0311584, -0.0235479, 0.0791835, -0.039987, -0.00887883, 0.0503354, 0.0455498, -0.0544783, -0.0298869, -0.103021, -0.0609362, 0.104715, -0.096364, -0.0615037, -0.0516127, -0.0714059, -0.00544035, 0.0897377, 0.0975445, 0.0140328, 0.0114029, 0.0711573, -0.108827, -0.0533497, -0.0381728, -0.100421, 0.10933, 0.110644, 0.117891, 0.0219841, 0.0613156, 0.109665, -0.00319147, 0.00757771, 0.096674, 0.110972, 0.0108326, -0.123313, 0.11717, 0.03403, -0.0394854, -0.131621, 0.0221941, 0.0717739, -0.106719, -0.0059162, 0.0709516, -0.115799, -0.027761, -0.0825856, 0.05449, -0.0576545, 0.00937596, -0.0834853, -0.0327459, -0.0146291, -0.0625261, 0.0969837, -0.0660545, -0.0960935, 0.0127847, 0.0573386, 0.00855306, -0.0779942, -0.0193783, -0.0072779, 0.0627788, 0.0280206, 0.0308289, 0.0774768, 0.0116112, 0.0221353, 0.0801888, -0.0660374, -0.0104377, -0.0996692, -0.0564756, -0.06732, -0.00247387, -0.00521052, -0.106168, -0.0541869, -0.0588107, -0.104784, 0.0655763, 0.119938, -0.0778129, 0.0612354, 0.0592578, -0.0109414, 0.0669788, -0.0404406, -0.0465817, 0.00726693, -0.0547567, -0.0260891, -0.00572057, 0.0341904, 0.0324872, -0.116642, -0.0608436, -0.0547137, -0.0768569, -0.0518984, -0.0076041, 0.0177008, 0.0661233, -0.147557, -0.0326099, 0.00444783, -0.0980532, 0.0318141, -0.0360051, -0.0452, -0.0188735, -0.0987579, -0.057882, 0.0217668, 0.0501484, -0.0580885, -0.0532078, 0.0472744, 0.107131, 0.00414588, -0.067558, -0.0417651, -0.144125, -0.0319201, -0.0090092, 0.135025, -0.037572, 0.0496261, 0.175066, 0.0233886, -0.0270585, 0.0460294, -0.0290762, 0.0316615, 0.00980168, -0.0546461, 0.0724263, -0.0703898, 0.153106, 0.132405, 0.00186363, -0.101423, 0.0826628, -0.0938663, -0.0877081, 0.0606168, 0.00626241, 0.141543, -0.0216399, 0.108238, -0.096956, 0.0837397, -0.0532247, -0.0418193, -0.0472028, -0.0516541, 0.0786983, 0.0904566, -0.0114643, 0.00287136, 0.0774524, -0.0886652, 0.0182682, -0.0647631, -0.0905799, 0.0434021, 0.0742691, -0.0574699, 0.10132, 0.0340742, 0.0317084, 0.0125785, -0.0789761, -0.0660228, 0.0174016, 0.00531776, -0.066703, 0.135255, -0.141495, -0.0790081, 0.0183354, -0.0848123, 0.0324863, 0.0718342, 0.132043, 0.0754499, 0.00772995, 0.107594, -0.0132801, 0.104353, -0.0766623, -0.0423391, 0.189011, -0.0671363, -0.113226, 0.114033, -0.0350269, -0.0600938, 0.0504281, -0.0626898, 0.063487, -0.0661305, 0.020908, 0.13703, 0.0238969, -0.0572361, -0.0284536, -0.172831, 0.0923269, 0.0896358, -0.0849712, 0.0531053, -0.102637, 0.12349, -0.0714431, -0.0171329, -0.00044273, 0.0725669, -0.0334743, 0.0302342, 0.0610114, 0.053509, -0.0194031, -0.0709874, -0.0741652, -0.098135, 0.0413244, 0.089491, 0.183885, 0.116521, 0.0817297, 0.0214859, -0.101811, -0.0204577, 0.0721425, 0.0861932, 0.0453856, 0.0333077, 0.114852, 0.195874, -0.0252224, -0.0284836, 0.0333966, 0.0159193, 0.00222663, 0.0623115, -0.0543514, -0.0653665, -0.086497, 0.00218176, 0.0576412, 0.0203646, -0.122131, 0.025998, 0.00392657, -0.0608373, 0.0332418, -0.0156373, -0.0380747, -0.0726239, -0.0107743, 0.0475742, 0.0282497, 0.0356322, 0.0135377, -0.0620695, -0.207448, 0.0264813, -0.0724576, -0.0494269, -0.0702704, 0.0386888, 0.0720744, -0.0417332, -0.0964374, -0.0929357, -0.0280608, 0.00227101, 0.0805531, 0.0632002, 0.0698545, -0.0420274, -0.109533, -0.0397133, -0.0432613, 0.0390974, -0.0795096, -0.103223, -0.0166611, 0.156107, -0.0393252, -0.0851541, 0.0770447, -0.0730977, 0.0738248, -0.071499, -0.0450657, 0.0641692, -0.00150271, -0.05029, -0.0591265, -0.0030547, 0.0752163, 0.0673762, 0.0878634, 0.0394765, -0.111534, -0.105686, -0.0184386, -0.0686118, -0.117763, -0.055562, 0.0752289, 0.020091, 0.0258691, 0.0102793, -0.104005, -0.0134036, 0.0762815, -0.0652893, -0.0704506, 0.104204, -0.0155327, 0.0150015, -0.0925479, 0.0865396, 0.0667733, -0.0639595, 0.035731, -0.0189763, 0.00350216, -0.123353, 0.0260441, -0.0685244, 0.0654514, -0.0484188, 0.00611159, 0.00221925, -0.0287078, 0.129126, -0.0700055, -0.0387428, 0.0977861, -0.0265632, 0.0572657, -0.00978583, 0.0628247, 0.0416107, 0.0744125, -0.00237655, -0.0835797, -0.0384714, -0.0719241, 0.103664, 0.0282765, -0.0293178, -0.142958, 0.087969, -0.0201929, -0.0567174, 0.206045, 0.0280183, 0.015686, 0.0314253, 0.018923, -0.0313251, -0.152157, -0.00143989, -0.14085, -0.12448, -0.0838252, 0.0459313, -0.0951432, -0.111541, -0.0151627, -0.0164448, -0.00423466, -0.0259732, 0.0597473, -0.0761501, -0.0465504, -0.00680467, 0.0918307, 0.0625852, -0.0403281, -0.0174688, -0.0325435, -0.0388751, -0.12731, -0.00389364, 0.0692862, -0.129418, -0.0503476, -0.102116, -0.0486233, -0.0414963, 0.0630039, 0.0507614, -0.0353243, -0.0258904, -0.033923, 0.0515711, -0.191508, -0.00959927, -0.0385201, 0.0647982, 0.0150233, -0.0948862, 0.0680227, -0.0339258, -0.00260485, 0.107696, -0.0239284, -0.0597813, -0.00789245, -0.106086, 0.0274146, 0.041265, -0.0223026, 3.87295e-05, 0.123986, -0.0891762, 0.00667278, -0.0265641, 0.0174693, -0.133593, 0.00287936, -0.0129805, -0.0210847, -0.0333237, -0.0798075, -0.0547587, -0.038622, -0.00322356, 0.068229, 0.237129, 0.0557878, 0.103421, 0.128923, 0.00262595, 0.0284881, -0.147791, -0.0535979, -0.0127354, 0.0757949, -0.0414716, -0.0354555, -0.00509387, 0.0607878, 0.0500467, 0.0870236, -0.125203, -0.0886308, -0.0112233, -0.0693788, -0.0838154, 0.0864833, 0.118185, -0.0792349, -0.053874, 0.0923357, -0.0122143, -0.004643, -0.0464059, 0.110217, -0.00350866, 0.0574887, -0.0497, -0.0620434, -0.0948611, -0.148458, -0.00686332, 0.0785042, 0.0544012, 0.000728532, -0.00367586, 0.0290126, -0.00906511, 0.0333848, -0.0598088, 0.000641245, -0.0360961, -0.00141451, 0.046793, -0.0178933, 0.114533, 0.0578458, 0.0496174, 0.107605, 0.122844, -0.0546055, -0.093626, -0.0698672, -0.0206494, 0.0111062, -0.0931717, 0.146564, 0.0150821, 0.0289744, 0.0467452, -0.0381795, -0.0188786, 0.00627568, 0.126338, -0.0739326, -0.0065342, 0.148079, -0.00586392, -0.0367497, -0.0213941, -0.0989277, 0.136732, 0.0776086, -0.0565327, -0.0363044, -0.0627511, -0.0989742, 0.0034668, 0.0675524, -0.0759516, -0.0388626, 0.0861568, 0.0650416, -0.0248872, 0.0269308, 0.0390831, 0.0119403, 0.0210703, 0.104448, -0.00504778, 0.0422961, -0.00687469, 0.0269896, -0.0481297, 0.0649181, 0.00465908, 0.0297817, 0.0375351, -0.0980695, -0.0630194, -0.0050086, 0.0677826, 0.0603209, 0.188348, -0.0201862, 0.0571228, -0.153501, -0.00560292, -0.0116004, 0.0343512, -0.0351729, 0.00314716, 0.0952014, -0.0226015, -0.0414734, -0.0623696, 0.00434279, 0.0683051, -0.0430463, 0.116978, 0.0723985, 0.14879, 0.0485166, -0.07987, 0.00427304, 0.0227893, -0.0327848, -0.0177418, 0.150652, 0.0796779, 0.0677013, -0.0194045, -0.0388929, -0.0989342, 0.0163162, -0.0411126, -0.0353955, -0.0821506, 0.00849659, -0.0241838, 0.0112169, -0.121323, -0.0879131, -0.0499406, -0.153708, -0.0220084, 0.0143595, 0.0589104, 0.0318582, -0.00598793, 0.0134905, 0.00149647, 0.0561462, -0.190236, 0.0336295, 0.0367849, -0.077063, -0.000137213, 0.0328293, -0.0035339, 0.0133008, 0.0488288, 0.0165163, 0.158326, -0.0439044, -0.0206496, 0.0495203, -0.00476511, -0.0582765, 0.129035, 0.0143984, -0.0272736, -0.00338979, -0.138082, -0.0730937, -0.0219284, -0.0214124, -0.0532017, 0.00197567, -0.0222705, -0.00265922, 0.0416376, 0.101488, -0.175129, 0.051183, -0.129011, 0.0269733, 0.0759778, 0.0640141, -0.129612, 0.0654502, 0.131605, 0.124173, -0.0791778, 0.0675107, 0.118487, -0.00998757, -0.038609, -0.0119205, 0.0222671, -0.0617599, 0.138509, 0.0541963, 0.0795532, 0.0958028, -0.0546038, 0.0420741, -0.0575889, 0.0721175, -0.0406516, 0.0469845, -0.0801777, 0.029807, -0.0535892, 0.0183357, 0.127976, -0.0278889, -0.155265, 0.0701109, -0.0123249, -0.00774855, -0.00532313, 0.0573412, 0.0031329, -0.0317665, -0.0343366, -0.00772196, 0.00544275, 0.0187444, -0.0131614, 0.104232, 0.0328188, 0.0851966, 0.00164254, 0.0424648, -0.0243356, 0.0492099, -0.0920702, 0.218868, 0.121177, -0.0501863, 0.0598391, -0.0171222, 0.0148107, -0.0962453, 0.0655332, -0.0139706, -0.0751624, -0.00882812, -0.0132984, 0.0228166, 0.0443554, 0.00296246, -0.0336625, 0.0617014, -0.0870157, 0.0155869, 0.129342, 0.0418373, 0.144846, 0.137633, 0.0578785, 0.0837058, 0.0645842, 0.109099, 0.0230109, -0.0573485, -0.0476551, -0.0431613, -0.0558677, -0.0552965, -0.119046, 0.0409859, -0.120159, -0.0180439, -0.015049, -0.0413354, -0.1328, -0.0450598, -0.00742586, -0.135643, -0.093952, 0.149318, -0.0343615, 0.0454435, -0.0728292, 0.0287752, 0.00124391, 0.000960851, -0.0551352, -0.037581, -0.0240664, 0.0103263, 0.0609223, 0.0200249, -0.068518, -0.0806219, -0.0653607, 0.0658295, -0.0571556, -0.0138598, 0.00154294, -0.137719, -0.0264753, -0.0838272, 0.134148, 0.0124548, 0.0690491, -0.044912, -0.0694527, 0.049465, -0.0729304, -0.0501218, 0.135481, -0.0318688, 0.0138355, 0.124301, -0.0225404, -0.00701186, 0.019117, -0.0316126, 0.0826411, -0.00593111, 0.0958131, -0.0230947, 0.00989771, 0.0832553, 0.0777591, -0.00801092, -0.0874794, 0.0582816, -0.0017993, -0.0991865, 0.0755613, 0.024789, -0.0116478, 0.0686587, 0.132759, -0.0323648, -0.0143443, 0.0560729, -0.0439849, -0.0501903, -0.0612609, -0.00811056, 0.0204257, -0.123685, -0.0172277, 0.0426411, -0.144819, -0.121103, 0.0596724, -0.0501898, 0.0759061, -0.0525772, -0.0128789, 0.0168583, -0.0494009, 0.0440458, 0.0195457, -0.0294552, -0.00612454, 0.0334728, 0.0295304, -0.0486525, 0.116595, 0.00194966, -0.0326933, -0.105642, 0.111904, -0.0173693, 0.0124806, 0.0361169, 0.144359, 0.0189993, -0.0654215, 0.0442365, -0.0100441, 0.110864, -0.0144884, 0.00509204, 0.0165388, 0.202787, -0.0637468, -0.0398098, 0.00470056, 0.0732402, 0.169504, -0.106889, -0.140404, -0.0692692, -0.0483647, 0.0741819, 0.0527534, -0.0368265, 0.0116646, 0.00185766, -0.0246334, -0.014533, -0.106784, 0.0907054, -0.0127943, 0.0506615, -0.0672597, 0.104281, 0.077923, 0.0380925, -0.133324, 0.0635192, -0.0996918, 0.0232616, -0.0323037, 0.155388, 0.0814326, -0.0595327, 0.0310547, 0.138685, 0.00134805, -0.0187379, -0.0255378, 0.0429064, 0.00515215, 0.155235, -0.0236231, -0.0661939, 0.00869805, 0.0443866, 0.107331, 0.0223785, 0.00710468, 0.0500211, 0.0603603, 0.0935644, -0.0549513, -0.0694952, -0.0552651, 0.000942905, 0.0161207, 0.175164, -0.0149943, 0.0487404, -0.0348216, -0.0888801, 0.00670516, -0.0229942, 0.00912124, 0.0962004, 0.0477346, 0.065234, -0.0508438, 0.00561029, 0.0946355, 0.0209204, 0.182558, -0.0491858, -0.0819542, -0.0100429, -0.117048, -0.0366834, -0.0460858, 0.119314, -0.0466197, -0.00608855, 0.0160006, 0.0694208, 0.0813688, 0.0221149, 0.0157182, -0.105148, 0.0591189, -0.0324058, 0.0863858, 0.00289496, -0.031676, -0.00644348, -0.0354734, -0.0497597, 0.0932557, -0.0151781, 0.0451819, -0.0362437, 0.152653, -0.0568404, 0.0511806, 0.027115, -0.0310809, -0.00310574, -0.0254555, -0.0940265, 0.180471, 0.14286, 0.031082, 0.0143418, 0.0278555, -0.0621385, 0.000846659, -0.0532619, -0.0706378, -0.0663843, -0.0350977, -0.0473047, 0.00579198, 0.0654154, 0.00390916, 0.0332722, 0.0325, -0.144159, 0.00283599, -0.0268472, 0.0638283, 0.00253246, -0.0130587, -0.0436052, 0.00212617, 0.0842177, -0.0103929, 0.0357071, -0.104228, -0.0237008, 0.0270102, 0.0546489, -0.0800312, 0.0362717, -0.00923195, 0.0764658, -0.047131, -0.179002, 0.12897, -0.0062551, -0.00322371, 0.0728479, 0.0630229, 0.0832082, -0.054292, -0.0948921, -0.0189711, 0.00108742, 0.0311603, -0.0220224, 0.104737, 0.136482, 0.0911829, -0.0186404, -0.103006, 0.00565543, 0.0896342, 0.0361905, 0.00347651, -0.0476815, 0.0325739, 0.153175, -0.0617814, -0.124496, 0.0359073, -0.0325685, 0.0534106, 0.0097479, -0.00733467, -0.0365744, -0.000469665, -0.0180381, 0.0397439, 0.121245, -0.129827, 0.121295, 0.107957, -0.0540656, -0.0121128, -0.0483617, -0.0177498, 0.0442559, 0.031998, 0.0731533, -0.0746441, 0.0211178, 0.0481247, -0.0724954, -0.00206493, 0.00733507, -0.0342748, -0.0208328, 0.0729244, 0.108772, -0.0247185, -0.0348758, 0.0750716, -0.0743753, 0.0753862, -0.127681, 0.0202107, 0.0143397, 0.0977631, -0.0538156, -0.0917633, -0.175364, 0.0553984, -0.056212, 0.00376185, -0.0314678, -0.0251731, 0.0135956, -0.085734, -0.0119786, 0.0674937, 0.0230747, 0.0205296, -0.104707, -0.00368138, -0.00578787, 0.0947376, 0.0419513, -0.030523, 0.00982017, 0.0627981, -0.120315, -0.00820764, 0.0255275, -0.0390168, 0.019918, -0.100372, 0.0222219, 0.0683863, -0.0199783, -0.168841, -0.0492249, -0.200756, 0.0272742, -0.0276724, 0.0444471, -0.0191115, -0.190931, 0.04205, -0.00161133, 0.125919, -0.106101, 0.0714152, -0.0466295, 0.0981418, -0.0767448, 0.0366779, 0.00965889, 0.0142118, 0.117175, 0.0806784, -0.090097, -0.131915, 0.0539971, -0.10899, 0.0204018, -0.0293337, -0.0280639, -0.00473669, 0.00181086, 0.032483, 0.0266481, 0.0206505, 0.101979, 0.0540286, -0.0224792, -0.0020272, 0.0329636, -0.00281921, -0.0161273, 0.0394715, 0.041076, -0.0719119, -0.0713151, -0.045476, 0.0330071, 0.0272009, 0.0647247, -0.0444915, 0.0463713, 0.0401667, -0.037761, -0.0132222, -0.0423762, 0.00807244, 0.103622, 0.0244889, 0.0473325, -0.0532521, 0.00855064, 0.155898, -0.00361829, -0.00274516, -0.041782, -0.0659614, 0.12182, 0.117429, 0.0358601, 0.126372, 0.0601317, -0.0497007, 0.00790847, 0.00634164, 0.0814115, -0.0223137, 0.0605645, 0.0316098, 0.0798762, -0.115532, 0.0374174, 0.0785761, 0.0451499, 0.0189547, 0.161135, -0.00828284, -0.0303183, 0.0520639, 0.0670232, -0.138696, 0.00981951, 0.00335049, -0.000741983, 0.0576835, -0.00784652, -0.110865, 0.0988279, 0.0331226, 0.109402, 0.188406, -0.0513625, -0.00911762, 0.0717164, -0.0854379, -0.0580197, 0.0933294, -0.0221636, 0.0521806, -0.0107412, -0.102773, 0.00832104, -0.0328541, 0.0757797, -0.0454885, -0.0889791, -0.0148472, -0.0162147, -0.0608608, -0.042541, -0.100765, -0.020665, -0.0420625, -0.0934135, 0.160449, 0.0103054, 0.143632, -0.0754218, 0.0999387, -0.0243406, -0.0173743, 0.0517074, 0.0638888, 0.0164581, -0.009003, 0.00776065, 0.121862, -0.116756, 0.108981, -0.150812, -0.047539, 0.0402978, -0.0431192, 0.0874513, -0.067764, -0.0516825, 0.09371, 0.0055111, -0.0131188, -0.00588013, 0.0156334, 0.0714898, -3.42163e-05, -0.0809495, 0.0973629, 0.0181807, 0.0646605, 0.0910145, -0.0392625, 0.137797, -0.0344146, -0.031629, -0.0911695, -0.0434236, -0.0755999, -0.0495331, 0.122145, 0.0138991, 0.069702, 0.0216916, 0.0312575, -0.0545265, -0.0506551, -0.0854661, -0.06481, 0.0243709, 0.0299903, -0.0791749, 0.0759577, -0.0180946, -0.0269973, -0.0273772, 0.031497, 0.0580444, 0.0874721, 0.0471093, 0.03561, -0.00106515, 0.184005, -0.0913547, 0.111323, -0.130254, 0.0209063, 0.00164494, -0.0192729, 0.0863504, 0.0108141, -0.0846208, 0.107188, -0.127518, -0.0545266, 0.0708571, -0.00868555, -0.0114235, -0.00182272, 0.0187473, -0.0839943, 0.00792702, 0.0706853, 0.0408588, 0.0445878, 0.0246026, -0.136166, -0.0316371, -0.01928, -0.126873, 0.0723578, 0.00679883, 0.0663953, -0.0811598, -0.0699022, -0.0163614, -0.040086, -0.0516448, 0.0504436, 0.145745, 0.143156, -0.100266, -0.0814752, -0.000369073, 0.00162797, 0.0159745, -0.131476, -0.0807219, -0.0474358, -0.0162232, -0.0521712, 0.0166369, -0.00880358, -0.0552499, -0.0938376, 0.110259, 0.012864, -0.023461, -0.0988906, -0.0365406, -0.0620528, 0.156108, -0.0366052, 0.0814942, 0.00563964, 0.0407427, -0.0995429, 0.0308325, -0.0751664, -0.0135469, 0.0274187, 0.112144, 0.0738905, 0.0108135, -0.0945217, -0.0434955, 0.100043, -0.0648911, 0.020709, -0.0509143, 0.0614813, -0.0910643, -0.0446175, 0.0694233, -0.0468661, -0.0522879, -0.0340644, 0.0549733, 0.0468644, -0.0294593, 0.0561398, 0.0719687, 0.0447107, -0.107451, 0.0598252, -0.0853541, -0.113414, -0.00668116, -0.105046, 0.0418703, 0.014179, -0.0951012, 0.0421389, 0.060159, 0.00173411, 0.118188, 0.0326539, -0.0733358, 0.0234974, 0.109691, 0.156466, 0.0564693, -0.00642874, -0.140732, -0.0327318, 0.00312188, 0.0336118, 0.0601843, -0.0118056, 0.131108, -0.00870881, 0.00254691, 0.0283786, 0.0299492, 0.0445644, -0.093911, -0.0177696, -0.00372844, 0.170904, 0.123482, -0.0538646, -0.111371, -0.0579315, 0.163479, -0.0113458, 0.0431324, 0.0229413, 0.0123261, -0.0517368, -0.00350742, 0.0225165, 0.088937, -0.00117812, 0.173944, 0.14781, -0.114036, -0.0189179, -0.0532122, 0.0694482, -0.0126206, 0.00475992, 0.0341581, -0.0293846, 0.00119228, -0.11825, 0.0510458, -0.0945979, 0.00841181, -0.024167, -0.0345937, -0.0786112, -0.0311325, -0.0572434, -0.0414806, -0.0551107, -0.0234425, -0.0616009, -0.0503812, -0.110431, -0.0791812, -0.0862699, -0.00317677, -0.00715778, -0.0712884, -0.0643603, -0.0306649, -0.0715273, -0.0628623, -0.0220258, 0.0186694, 0.0958211, 0.0989663, 0.114227, 0.0220434, 0.00130205, -0.0209489, 0.0220011, -0.0278263, 0.0710672, -0.0615976, 0.057938, -0.0532039, -0.133631, 0.0752189, -0.0282848, 0.0412145, 0.0227925, 0.0355484, 0.0875316, -0.0378967, -0.0308053, 0.00337512, 0.00737604, -0.0491393, 0.00718702, -0.0563939, -0.114389, 0.103182, 0.0384575, 0.0356993, -0.0365714, 0.0280789, -0.00913472, -0.0886749, -0.0989892, -0.000980453, -0.0805673, -0.056345, 0.0580859, -0.12885, -0.0634633, -0.106836, -0.0423232, -0.022136, -0.0374407, -0.00280569, -0.163308, -0.0378888, 0.103395, -0.00658041, -0.0119638, 0.0153224, 0.00391207, 0.0805279, 0.0728787, 0.00449137, 0.0626228, -0.0160663, -0.172902, -0.0279308, -0.0121367, -0.102721, -0.0106937, 0.105793, 0.0857116, -0.00664215, -0.0870395, 0.0766561, -0.0140742, -0.0229475, -0.0620154, 0.0427164, 0.0183117, 0.118439, 0.00480489, 0.0128486, 0.0414032, -0.0630114, 0.0176807, 0.0247748, -0.0340858, -0.0731765, 0.0018169, 0.0219746, -0.0615077, 0.0715071, -0.0104859, -0.0401302, 0.00924369, -0.077529, 0.0475779, -0.0475813, -0.0427333, 0.00822917, 0.0756498, -0.0947648, -0.039067, 0.0258857, 0.00760079, -0.0497361, -0.0698094, -0.0593127, -0.0496629, -0.0577188, -0.0320321, 0.126946, -0.0660614, -0.11022, -0.0713586, -0.0127847, 0.0436908, -0.0129015, 0.0730734, -0.0346657, -0.0612352, -0.00279546, -0.0902413, -0.00365908, -0.0838536, -0.0497548, -0.0629511, 0.0612179, 0.0285478, 0.0468776, 0.0492801, 0.0866482, -0.0663027, 0.0493905, -0.0623335, 0.0270699, -0.0457616, 0.165251, -0.0267384, -0.0472351, -0.0572467, -0.0136928, -0.0614448, 0.0681237, 0.0156054, 0.00082873, 0.0617015, -0.0437882, -0.0906755, -0.0586228, -0.0751755, 0.0349823, 0.0643335, -0.0973949, 0.0254516, 0.140223, 0.0161085, 0.0860638, -0.0767518, -0.00222412, -0.0207531, 0.0200587, 0.0233169, -0.0234869, 0.00666902, 0.048644, -0.113945, -0.0978969, -0.079237, -0.0798832, -0.0636911, 0.0163268, 0.0694432, 0.0482624, -0.108789, 0.0989416, -0.0128931, 0.026182, 0.0854281, -0.0467264, 0.0185813, -0.00612174, -0.0310016, 0.0318371, 0.0709318, 0.115624, 0.0569157, 0.0407793, -0.00188903, -0.0456178, 0.00215233, -0.0692652, 0.0527868, -0.0529958, 0.0465517, 0.0255387, 0.0277936, -0.0630568, 0.0381953, 0.190376, 4.00647e-05, -0.0868143, -0.0208936, -0.0533127, -0.109022, -0.0984406, 0.0567157, 0.0564236, -0.0152833, -0.0230812, -0.175852, 0.0352068, 0.0333645, 0.0522, 0.160221, -0.0624721, 0.0715744, -0.108449, -0.13665, 0.0373479, -0.0514352, 0.0453215, 0.0420777, 0.0290285, 0.0579373, -0.0520123, -0.0238619, -0.0228921, 0.039774, 0.177313, -0.00212437, 0.0197576, -0.0267929, 0.0270432, 0.0720698, 0.00606662, 0.0097217, -0.0553337, 0.0754651, 0.116212, -0.0238997, 0.0654655, -0.0656852, 0.0267552, 0.055202, -0.0511331, 0.0413233, -0.0220143, -0.0412886, -0.00680016, -0.0983683, 0.0208084, -0.0116984, -0.0396126, 0.0746097, -0.00769028, 0.0950281, -0.0808376, 0.127109, 0.0509154, -0.0278974, -0.00699263, 0.022589, 0.031426, -0.113784, 0.0624731, -0.11513, 0.0612286, 0.00667371, -0.0140932, 0.0867913, -0.0671197, 0.0959482, -0.076828, -0.054959, -0.0251115, -0.0650276, -0.0651162, -0.0518544, -0.00916447, 0.0205895, 0.00981506, 0.00890188, 0.0538507, 0.0639804, -0.0502578, 0.136585, -0.138487, -0.039799, 0.0209707, -0.0716748, -0.0512983, -0.0478114, 0.00575697, 0.0433016, 0.0955225, 0.0823841, -0.112992, 0.0313063, -0.0119696, -0.0183085, 0.00506311, 0.0241338, -0.0147324, -0.0947527, 0.0773713, -0.0442679, -0.00394113, 0.0868599, 0.106703, -0.0911852, -0.0594761, -0.0425629, 0.000576822, 0.018182, 0.076853, -0.0583702, -0.116046, -0.0706209, -0.0338819, -0.0113029, 0.0540296, 0.0871552, -0.00618135, -0.0239307, -0.0677578, -0.0228867, 0.0211901, -0.0106174, -0.0784128, 0.0237004, -0.0591951, -0.0188593, -0.0130308, 0.0857525, -0.077918, -0.0425165, 0.030735, -0.0689342, -0.0732493, 0.00453872, -0.0428635, 0.0256063, -0.031296, 0.144384, 0.120526, -0.0735556, 0.155541, 0.0311944, -0.0765978, -0.0591601, -0.132479, -0.00462337, -0.0331503, -0.0372888, -0.000219443, -0.0112147, 0.0884001, 0.058043, 0.0937253, 0.0567513, -0.0686085, 0.00913779, 0.076774, -0.0582935, -0.013146, 0.0941986, -0.05121, -0.0272926, 0.0954259, -0.01932, -0.0608957, -0.0211631, -0.0266796, -0.0851669, -0.0439375, 0.0791961, 0.030117, 0.118858, -0.0538233, -0.0518683, -0.00747325, -0.0807282, 0.0545667, 0.0128768, -0.0391086, 0.0413131, -0.0166453, -0.105676, -0.0183224, -0.0342332, -0.114741, 0.0184468, 0.0125788, 0.00700066, -0.0880662, 0.00215648, 0.0783281, 0.0117531, -0.107838, 0.0334553, -0.044452, 0.113812, 0.0212851, 0.0395022, -0.00889471, 0.102799, 0.0058345, 0.0837992, 0.0603189, -0.0853001, 0.136081, 0.0124731, 0.173499, 0.0390782, -0.0360547, 0.103442, 0.0160352, 0.12163, -0.0484279, 0.0709296, -0.0173937, 0.0528259, 0.0892977, -0.108005, -0.0839029, -0.0360112, -0.0324047, -0.0125262, -0.022432, 0.00597258, -0.0763761, -0.0913594, 0.0894783, 0.0394148, -0.0116913, -0.0769721, 0.0405217, 0.0433724, 0.14431, 0.0963688, 0.0571969, -0.0360385, -0.107073, 0.0804344, -0.0469316, -0.0490723, 0.144146, 0.0321588, -0.051744, -0.0067253, -0.0528897, 0.084606, 0.0214551, 0.0301791, -0.0340365, -0.0614684, -0.0198546, -0.020862, -0.00201971, -0.104192, 0.0150519, 0.0917654, 0.081379, 0.0572072, -0.100901, 0.0399432, 0.0685326, -0.0409983, -0.121375, -0.149599, -0.0137884, -0.0281931, -0.00981759, 0.0282256, 0.030102, 0.0226179, 0.0650495, 0.143285, 0.00394245, 0.0785903, -0.116332, 0.0911211, -0.0139296, 0.00981206, 0.00614925, 0.0332966, -0.0619217, -0.0190568, -0.0489388, -0.0794503, 0.00450831, -0.00897682, 0.0672279, 0.109632, 0.215243, -0.124788, -0.0163575, -0.0424601, -0.043408, -0.0574915, 0.0215004, 0.0973529, -0.081966, 0.108553, 0.0623284, -0.0429364, -0.058677, -0.0103027, -0.115547, 0.0772874, 0.00956074, 0.0536916, -0.0488635, -0.0270186, -0.00497589, 0.0250057, -0.0652981, -0.00141967, -0.0901837, 0.109966, -0.0546434, 0.0690482, 0.0740931, -0.0508281, 0.0445694, 0.026321, 0.00981074, 0.0312115, 0.00882253, -0.165344, 0.184927, -0.0501729, 0.0661414, 0.0491757, 0.1218, -0.12731, 0.0656391, 0.0563118, 0.0198941, -0.0511978, 0.0024078, -0.0865091, -0.00529821, -0.0448966, 0.0372304, 0.00688999, 0.0876886, 0.207648, -0.090077, 0.0809917, -0.136863, 0.066654, 0.0107626, -0.0909785, 0.00941062, -0.0376218, 0.0861878, -0.134602, -0.155682, 0.0465191, 0.0646281, -0.0648542, -0.128137, -0.0767785, -0.115091, -0.0577568, -0.0261506, 0.0188176, 0.0083027, 0.0533021, 0.0886535, -0.0606925, 0.125685, -0.0181876, -0.0735338, -0.0301445, 0.0251901, -0.0133528, 0.0144192, -0.0481492, -0.0586026, -0.024191, -0.113796, 0.0946826, -0.0308407, 0.0299981, -0.0113385, -0.0708236, 0.0771762, -0.0972477, -0.0321267, 0.02818, 0.0822034, 0.00866032, 0.0380347, -0.0429183, 0.00153395, -0.0417321, -0.0380461, -0.0714605, 0.0118136, -0.0669121, -0.120149, -0.0753055, 0.103107, 0.106578, 0.0536739, 0.113989, -0.0618274, -0.107806, -0.0204246, 0.0782796, 0.0876896, -0.0637974, 0.0285363, -0.000294557, 0.064197, -0.0553839, 0.0677796, 0.210775, -0.0207694, 0.0172146, 0.0171317, -0.0615874, -0.0109666, -0.0537294, 0.045925, 0.015078, -0.0336287, 0.0495507, -0.186171, -0.0208926, -0.0940946, -0.0331612, 0.0105583, -0.0723857, -0.0226097, 0.0215759, -0.109382, -0.0377345, 0.0872761, 0.0182743, 0.0819476, -0.0503956, 0.0378802, -0.00237163, -0.0396323, 0.0470579, 0.0518348, -0.0672822, 0.14643, 0.0129645, 0.0266041, 0.138363, 0.0431019, 0.0561728, 0.0709524, 0.0236448, 0.0470553, 0.0424616, -0.0602988, -0.0191422, -0.0784837, 0.0547257, -0.0931461, 0.0436447, -0.0251586, 0.0416731, 0.0809892, -0.0545146, 0.00982655, -0.149083, -0.00936272, -0.000255727, 0.0240098, 0.127723, -0.155305, -0.027943, -0.00495676, -0.0596338, 0.109784, -0.0412905, -0.0373685, -0.03144, -0.10242, -0.0322215, -0.0831147, -0.136382, 0.0385564, -0.0382866, 0.0189274, 0.129528, -0.036385, -0.0430167, 0.0433582, 0.0795297, 0.0649948, 0.0863543, -0.0841571, 0.113619, 0.0499703, 0.0496973, 0.0839018, 0.106727, 0.0939526, -0.134203, -0.0176481, -0.00721209, -0.0398194, 0.0691271, -0.0512355, 0.0802849, -0.0645612, 0.0645416, -0.054372, -0.0135641, -0.138477, 0.0686663, -0.0351463, 0.132313, 0.0285135, 0.0430837, 0.0463372, -0.140062, -0.0249426, -0.00617189, -0.107233, 0.000212918, -0.0248463, -0.00997122, 0.0427492, 0.0090918, 0.0238279, 0.0366789, -0.00263147, 0.0866102, 0.0127243, -0.0912978, 0.050595, -0.0733181, 0.0699169, 0.0857639, 0.00922309, 0.0835023, 0.0442571, -0.0576576, 0.0225464, 0.0596402, 0.0244307, 0.0782044, 0.0570549, -0.0776321, -0.0361647, 0.147065, 0.0405087, -0.128802, 0.0917208, -0.051651, -0.0848812, -0.0133506, -0.0223926, 0.0068185, 0.129489, 0.0337176, -0.14015, 0.042267, -0.0171911, -0.0263918, -0.109248, 0.0603028, -0.000936948, -0.0474017, -0.00879201, 0.142651, -0.0777659, -0.0563861, 0.0454883, 0.0400137, 0.0597456, -0.0263479, -0.0910778, 0.0420508, -0.0579554, -0.0396825, 0.0578574, 0.0410616, -0.0546927, 0.0215383, 0.0337631, 0.0276386, 0.133306, -0.0887439, 0.0063283, 0.00729217, 0.0737487, 0.0823595, 0.0253965, -0.00878894, -0.0281397, 0.0624075, 0.0366124, -0.0826765, 0.0808587, -0.0103, 0.0128042, -0.0171607, 0.00845336, -0.118257, -0.0480672, 0.112686, 0.0798935, 0.0693306, -0.022467, 0.12945, -0.00674526, 0.0189546, 0.00202018, 0.137296, -0.0831794, -0.100023, -0.110361, -0.161475, 0.0313783, 0.0284549, -0.039275, -0.00731416, 0.0367523, -0.0802924, -0.0955939, -0.0498138, 0.0666969, -0.016139, -0.0578283, 0.0182193, 0.0573893, 0.0352124, 0.0729975, 0.010713, 0.0963224, 0.0589997, 0.0586942, 0.057545, -0.101655, -0.003474, -0.120889, -0.0477711, -0.0852046, 0.0175592, -0.0282383, 0.00024094, 0.0598192, -0.00441484, -0.0691993, 0.0593838, 0.0421545, 0.00432409, -0.0502628, 0.142867, 0.000187715, 0.183163, -0.0157861, 0.0103473, 0.111765, 0.0337766, -0.03517, 0.139664, 0.027563, 0.110989, -0.0714051, 0.0200754, 0.018934, 0.0236426, 0.00721414, 0.0331105, -0.0403529, -0.106821, 0.0089063, -0.0671955, -0.0416577, -0.0401437, 0.0899695, 0.101463, -0.0448732, -0.0142815, 0.102282, 0.100648, 0.0143077, 0.0593814, -0.0605068, -0.0767612, 0.119142, -0.0517217, -0.0326709, 0.0118026, 0.0556493, 0.0707345, 0.00905598, 0.00943415, 0.130789, 0.0435211, -0.0485184, 0.0248114, 0.0741792, 0.133747, 0.0406291, 0.0654918, 0.0921749, 0.0875661, -0.0559032, -0.0403519, -0.0258917, 0.191207, -0.0589492, -0.0945397, -0.0139472, -0.00804417, 0.0387391, -0.009981, 0.00511001, 0.0087346, -0.00866842, 0.139845, -0.141135, 0.197872, 0.0663144, 0.0706589, -0.0494656, 0.0116553, -0.103958, -0.0564581, -0.0823247, 0.000530944, -0.0359251, -0.00148179, -0.0523383, 0.0281417, 0.0555087, -0.00847513, -0.0562896, -0.118429, 0.0432025, 0.0787185, -0.0556214, -0.0702018, 0.101662, 0.110725, 0.0430267, 0.0217373, 0.0624112, -0.0463128, -0.0798677, -0.0116989, 0.0567734, 0.0514764, 0.0159629, 0.0916608, 0.127764, 0.0432011, 0.107747, 0.0974763, -0.0448236, -0.0512492, -0.019245, 0.0968096, -0.0661876, -0.0151576, 0.0453283, 0.058029, 0.0712114, 0.079974, 0.0221635, 0.00146044, -0.0567722, 0.00621812, -0.0114577, -0.014731, -0.0810519, -0.111847, -0.0682087, -0.0284749, 0.0870273, -0.00375371, -0.0172978, 0.0606266, -0.0063896, -0.058136, -0.0423903, -0.0162942, 0.086382, -0.0990564, 0.100675, 0.0388313, -0.0712651, 0.0569232, 0.0158922, -0.0872967, 0.038802, 0.00481587, 0.0400928, -0.0162193, 0.0498769, -0.0108577, 0.0578085, 0.0103766, -0.0700191, 0.0442819, -0.102063, 0.0220647, -0.000104728, -0.0732139, -0.0543071, -0.0777174, -0.0841177, -0.0960488, -0.194269, 0.0478373, 0.0122141, 0.131054, 0.101028, 0.0770818, -0.106133, -0.0252599, -0.0185813, 0.123752, 0.0149492, -0.113134, -0.103636, 0.0422564, -0.0376969, 0.026204, 0.0596801, 0.0324102, 0.0264557, -0.12187, -0.167685, 0.0170223, 0.0377922, -0.0770315, -0.112679, 0.104277, -0.0856925, -0.10036, 0.0499097, -0.0771862, 0.0719662, -0.162337, 0.0537172, -0.108859, 0.108598, -0.128635, 0.130426, 0.141112, -0.0557119, -0.059155, -0.0676651, 0.000228524, -0.213112, 0.0178823, 0.10433, 0.164215, 0.0630006, 0.042755, 0.093204, 0.171166, 0.00871455, -0.0788491, 0.093713, -0.014132, -0.0547186, -0.0364473, 0.0405506, -0.00325758, 0.00442501, 0.0845032, -0.0447295, 0.069706, -0.0878057, -0.106488, 0.0933666, -0.0623194, -0.0294383, 0.0212372, -0.107679, -0.0751643, -0.06408, 0.0140061, 0.0276053, -0.0730596, 0.00483102, 0.10901, -0.0687333, 0.0498278, -0.100082, 0.0212494, 0.0484848, -0.0717074, 0.0479965, 0.139305, -0.064138, -0.116809, -0.0402135, 0.117616, 0.0729838, -0.0162657, 0.0689729, -0.167309, -0.0079632, -0.0356648, -0.0792573, -0.0535597, -0.041447, 0.00460708, 0.0287282, 0.00437287, -0.0238618, 0.0868333, -0.00376878, 0.122165, 0.140009, -0.0462664, 0.140026, -0.0865273, 0.0527633, 0.0144172, 0.0527217, -0.0867681, 0.00610314, 0.0585745, 0.0895182, 0.0360424, -0.177376, -0.0211958, 0.148238, -0.0122119, -0.111615, 0.0206401, -0.0263737, -0.0553071, 0.0591301, -0.0978148, 0.0938324, 0.0415049, -0.0800468, 0.103867, -0.140814, 0.055925, -0.097132, 0.140246, 0.02791, 0.118074, -0.0296944, -0.00592842, 0.102446, 0.0279802, -0.118546, 0.0210532, -0.057191, 0.029644, 0.0669207, 0.00714114, 0.0471567, -0.0184609, 0.0849521, -0.0316001, -0.0296409, 0.0343142, 0.0440992, -0.0420751, 0.0228288, 0.060135, 0.0664088, -0.0559256, 0.11527, 0.0269817, 0.0689836, -0.0162379, 0.104333, -0.075645, -0.0117583, -0.0820239, -0.11485, -0.0909666, -0.0689326, 0.045077, 0.151255, 0.0448779, 0.0127894, 0.0341062, -0.0338916, -0.0651805, 0.0687651, -0.0595296, -0.0371828, 0.0433238, 0.0695861, -0.0536017, 0.0887398, 0.0210604, -0.0286685, -0.0886838, 0.0876061, 0.0271956, -0.0628703, -0.0874197, 0.0916147, 0.119388, 0.0186483, 0.0121304, 0.0927794, -0.0593035, -0.192623, 0.0377607, -0.0638088, 0.0124764, -0.117076, 0.0817729, 0.128455, -0.0261668, 0.0589475, -0.0817181, -0.11112, -0.0976435, -0.0620542, 0.0211589, -0.0655103, -0.122279, 0.184897, -0.0149385, 0.0167699, -0.117053, -0.0774996, -0.0116636, 0.0385224, 0.0615212, -0.0442849, 0.0331551, 0.060718, -0.00344791, -0.0115278, -0.0337917, -0.075408, 0.0151411, 0.0847757, -0.0356151, 0.060631, -0.14224, -0.0487239, 0.0235376, -0.0443545, 0.0301874, -0.064969, -0.0116747, -0.0657932, -0.0141925, 0.0342113, 0.0237253, -0.183881, -0.0241305, 0.0148312, 0.0137922, -0.100072, -0.0644141, 0.0204554, -0.0277113, 0.12166, -0.0628741, -0.0130364, -0.0795846, 0.0125182, 0.0590408, 0.0408225, -0.0930907, -0.110118, 0.0280282, 0.112215, -0.0922461, -0.0136954, 0.00190611, -0.118754, 0.014691, -0.0272964, 0.0158086, -0.0353393, 0.0449272, -0.0794367, 0.0233324, -0.0286397, 0.0687069, 0.113413, 0.0168297, -0.0548131, 0.0316762, -0.041863, -0.12357, -0.0128706, 0.072903, 0.089792, -0.00863456, -0.000622357, 0.00776181, 0.013288, 0.0686734, 0.0190376, 0.0652899, -0.102942, -0.11966, -0.143579, 0.0577903, -7.22492e-05, -0.0119484, -0.0773235, 0.119976, -0.00699637, -0.0821922, -0.0207231, -0.095242, 0.0830355, -0.0442274, -0.0446129, -0.153299, 0.111152, 0.0115191, -0.0281846, -0.0409288, -0.0860612, -0.0158744, 0.0368606, -0.0168846, 0.0587036, -0.113534, 0.107419, -0.146724, 0.0216337, 0.0589807, -0.179578, -0.0265206, -0.0787316, -0.0372952, -0.00984641, -0.0225343, 0.0132574, -0.0820044, -0.018222, 0.0268663, 0.174001, -0.0031992, -0.0335949, 0.0303073, 0.0181158, -0.00465467, -0.0931396, -0.0275708, -0.0751926, 0.00116547, 0.0641809, -0.0783671, -0.0623102, -0.102666, 0.0346259, 0.0193329, 0.048393, -0.0292812, -0.0438674, -0.0313474, 0.128541, -0.0334589, 0.0702547, -0.125759, 0.163249, 0.0290449, 0.0339697, 0.0671883, -0.126473, 0.0961654, 0.0750423, 0.209515, -0.0300936, -0.0255782, 0.122331, -0.0580831, -0.0335609, -0.121617, -0.0317131, 0.00150496, -0.0194704, -0.0710082, -0.121635, 0.107445, -0.0532595, 0.0857778, -0.105655, 0.0162655, -0.0189909, -0.0223919, 0.102385, 0.087213, -0.012585, -0.0684238, 0.059272, 0.0667666, -0.0655877, -0.00999669, -0.0415134, 0.0110336, -0.124386, -0.107839, -0.00572836, 0.0870919, -0.0767877, 0.0364437, -0.0743274, -0.0746259, -0.115515, -0.0995502, 0.0046408, -0.0545198, 0.0258756, -0.122044, 0.110607, -0.0436713, 0.0637368, -0.111475, 0.117686, -0.0871742, -0.112468, 0.0377861, -0.0936989, -0.16487, -0.0280409, 0.091681, 0.0056498, 0.0846926, 0.10881, -0.0807346, -0.11022, -0.209618, -0.0488506, 0.0308196, 0.132318, -0.119544, -0.0299925, -0.150746, 0.0867877, -0.0733123, -0.0383856, -0.0842116, -0.0569496, 0.151017, -0.0669177, 0.106843, 0.0557109, 0.0300435, -0.0465816, -0.14334, -0.0179993, 0.0204103, 0.194851, 0.00667487, -0.0404087, -0.0174106, 0.0575002, -0.0284424, -0.0819354, 0.00225772, 0.126338, 0.0595377, -0.0680701, -0.0341828, 0.0227564, 0.0190773, -0.0881518, 0.0593894, 0.053412, 0.037945, -0.0376792, 0.0298585, -0.0114665, -0.0189571, 0.0648322, 0.0833897, 0.0333266, 0.0719764, -0.0739376, -0.0510794, -0.00251551, 0.130186, 0.0474551, -0.121951, -0.121084, 0.168957, -0.0966299, -0.100949, -0.0603238, 0.0337943, -0.131812, 0.139258, -0.135565, -0.130508, 0.110477, -0.0487281, -0.0656377, 0.0168171, -0.031745, -0.0786152, 0.0852026, -0.0253569, 0.0860993, 0.0199126, -0.0685539, -0.0753039, 0.00338382, 0.0805677, -0.050115, 0.0487089, -0.0655158, -0.107107, 0.0644209, -0.0280528, 0.00834909, 0.0486393, 0.044978, -0.0155446, -0.131214, 0.0459366, 0.0730518, 0.1055, 0.0943062, -0.0284362, -0.104446, 0.104573, 0.0200149, 0.0741179, -0.142627, -0.0266482, 0.0608065, 0.104531, -0.0380388, 0.0549723, 0.053678, 0.129031, -0.0177777, 0.0498169, -0.00312497, -0.0259896, 0.108997, 0.104743, 0.0751251, 0.0110083, -0.0634812, 0.0332613, 0.0918398, 0.0325052, 0.0534696, -0.0169691, -0.00207043, 0.0467942, -0.0383023, -0.0784217, 0.0272805, -0.0301839, -0.000904063, -0.0203588, 0.140005, 0.0217375, -0.175245, -0.0315163, 0.126212, 0.0682079, -0.0778283, 0.117442, -0.0390238, -0.0204477, -0.0819939, 0.0950187, 0.0277654, -0.0599842, -0.0076413, 0.0846391, -0.22713, 0.0162198, -0.119834, -0.0673491, 0.0321356, -0.0640963, -0.0767953, -0.0412339, 0.0612871, -0.0265328, 0.0153439, 0.00509308, -0.0785067, 0.0185982, -0.0208941, -0.127373, -0.0674031, 0.0806206, 0.0362752, 0.0874211, 0.089594, 0.0230776, 0.0709243, 0.128339, 0.0801243, -0.0600388, -0.0282784, 0.0463091, 0.0936473, -0.0213417, -0.0965583, -0.0382614, -0.00344987, -0.0114813, -0.037509, 0.180424, -0.011823, 0.117172, 0.0577118, 0.0421324, 0.0769678, -0.0470748, 0.0276706, -0.00041479, 0.0166614, 0.0137319, 0.0787802, -0.0502645, -0.0896906, -0.100404, -0.0893706, 0.138393, 0.0848109, -0.123854, 0.105072, 0.126327, 0.00956117, 0.0346821, -0.00753935, -0.0308378, 0.124936, -0.0601683, -0.13716, 0.0667285, 0.0496029, 0.083396, -0.071415, -0.0499212, -0.118967, -0.0143549, 0.100969, -0.0433608, -0.0134171, 0.00525064, 0.0505125, -0.0234877, -0.171139, -0.0784803, 0.118195, -0.0871854, 0.0119311, 0.00908239, 0.064395, 0.0563051, -0.0646083, -0.0276524, 0.0450242, 0.0270727, -0.0251854, 0.0948448, 0.047331, 0.120987, -0.0750011, -0.0332385, -0.0315258, 0.136452, -0.0811732, -0.0653293, -0.0405018, 0.0196415, -0.0257717, 0.0163474, 0.0209376, 0.0764722, 0.0216502, 0.0201521, -0.0473586, -0.066603, 0.00773673, 0.0439124, -0.0971987, 0.00075437, 0.115169, -0.045762, 0.0303351, -0.0683073, -0.0705803, -0.0535702, -0.0177611, -0.0679967, -0.0872625, -0.0542235, -0.0755044, -0.0447384, 0.0278127, 0.00779039, 0.123444, -0.0623324, -0.103206, 0.0436245, -0.101798, 0.175353, 0.0571061, -0.146484, 0.0164793, -0.060173, 0.0629199, -0.0253555, -0.0661466, 0.0537597, 0.109811, 0.0984515, -0.0480881, -0.0446915, -0.00503234, 0.0877335, -0.0577581, -0.0310831, 0.0417412, -0.0297889, -0.133778, -0.116427, -0.0729513, 0.0965393, -0.0862173, -0.0648786, 0.0991079, -0.0544597, -0.0845934, 0.113575, -0.0737767, -0.0261424, 0.0230051, 0.0891196, 0.00980837, -0.0939227, -0.0868988, 0.0895338, -0.0631883, -0.0594008, -0.0801625, -0.00145347, 0.0983821, 0.0544637, 0.129865, -0.126799, 0.00287115, -0.00141492, 0.141884, 0.0143747, 0.0109493, -0.0534326, 0.0782248, -0.0979306, -0.158267, -0.124337, 0.0589281, 0.0652898, -0.0522907, -0.100814, 0.100535, -0.0735352, -0.0526421, -0.0972607, 0.0679669, -0.158659, 0.131121, -0.022834, 0.0317129, -0.0233306, -0.0984018, -0.153606, -0.118216, -0.0307495, -0.0686801, -0.126541, 0.0332771, 0.0711837, 0.0786355, 0.0619302, -0.0646919, -0.0217784, -0.115395, 0.0365679, 0.0245145, 0.0346002, -0.16335, -0.116307, 0.10907, 0.0563851, -0.0448049, 0.0661225, -0.0114718, -0.0634476, -0.0575142, -0.0010153, -0.0231535, 0.114518, 0.046869, -0.129211, -0.104385, -0.0581484, 0.0127059, 0.0118895, -0.00301589, 0.0397818, -0.0426143, 0.0408135, 0.12241, 0.0260733, 0.122411, -0.047173, -0.0830278, 0.0348598, 0.0777204, -0.0326802, 0.10065, -0.0474098, -0.0782781, -0.0535451, -0.0437341, -0.0249066, 0.0316325, 0.129482, 0.0183099, -0.0544321, 0.108991, 0.00683488, 0.0777278, 0.0249723, 0.0944054, 0.0641298, 0.0288914, -0.0723953, -0.0354975, -0.0715681, 0.0966076, -0.0593085, 0.211288, 0.135942, -0.0655591, -0.0261609, -0.0668338, 0.103584, 0.031862, 0.0146774, -0.0580298, -0.162767, -0.0140048, -0.128537, -0.0491609, -0.036506, -0.0275643, 0.00425626, 0.00458339, 0.0402774, 0.0578796, -0.121013, -0.0648505, 0.126785, -0.0461826, -0.0152713, -0.0354328, 0.115144, 0.218796, 0.0343685, -0.00116761, -0.141537, 0.00889903, -0.232612, -0.0150524, 0.0390095, -0.11176, -0.033179, -0.0926721, -0.103315, 0.0105732, -0.115986, 0.0334695, -0.040826, 0.059915, -0.0246966, -0.0958364, -0.149352, 0.0751869, 0.0851037, -0.0254946, 0.0114178, -0.11377, -0.00181377, -0.071869, -0.106518};
float fc2_bias[10] = {-0.0172285, 0.00598543, -0.0183462, -0.00592163, -0.0210509, 0.0125804, -0.0336397, -0.0240661, 0.109172, -0.00749462};

