float conv1_weights[500] = {-0.325334, -0.304769, 0.0945377, 0.268637, 0.377989, -0.248182, 0.00290159, 0.0300429, 0.436047, 0.222428, -0.131086, 0.140757, 0.15489, 0.316543, 0.254451, -0.0609999, 0.159924, -0.11241, 0.281528, 0.208974, -0.144606, 0.0362757, -0.0710516, 0.333289, 0.0718467, 0.178417, 0.0659665, 0.294819, 0.27111, 0.081215, 0.160713, 0.463884, 0.0113083, -0.122116, -0.123816, 0.188551, 0.228839, 0.157188, 0.026878, -0.388328, 0.372179, 0.132172, 0.0398172, -0.146171, -0.120645, 0.152283, 0.10775, -0.0851724, -0.126366, -0.27279, -0.267807, 0.217652, 0.211229, 0.0730585, -0.152764, -0.230127, 0.128843, 0.168681, 0.109749, -0.264539, -0.0794348, 0.152654, 0.244872, -0.125455, -0.227591, 0.0231258, 0.232199, -0.151278, -0.180649, 0.116373, -0.0149245, -0.258641, -0.283671, 0.228896, 0.218615, -0.0801765, -0.116059, -0.27436, -0.183055, -0.185479, -0.089327, -0.111594, -0.175109, -0.336333, -0.184937, -0.305808, -0.127572, 0.0345321, 0.105947, 0.240155, 0.208963, -0.230873, -0.131505, -0.142134, 0.324672, -0.185843, 0.184293, 0.0972363, 0.34351, 0.396395, -0.191402, -0.381171, -0.387007, -0.281999, -0.267354, -0.391898, -0.534521, -0.409485, -0.314293, -0.409704, 0.0546416, -0.0395237, -0.194548, -0.00250068, 0.0695874, 0.255419, 0.452568, 0.0905503, 0.227329, 0.357953, 0.496918, 0.511483, 0.60996, 0.479819, 0.140708, 0.0714976, -0.0309693, -0.0893949, 0.372824, 0.105026, -0.147652, -0.115943, -0.140478, 0.21732, 0.393918, -0.310205, -0.167483, -0.0307833, 0.292183, 0.106968, -0.102423, -0.313536, 0.25318, 0.267427, -0.154396, 0.00710558, -0.111685, 0.147665, -0.0824985, 0.00372008, 0.148249, -0.110494, 0.250946, 0.176286, -0.278386, 0.248844, -0.0851995, 0.282801, 0.0414256, -0.0896335, 0.285214, 0.123897, 0.405543, 0.204115, -0.183889, -0.233332, 0.240192, 0.405135, 0.212443, 0.279884, -0.242051, 0.178041, 0.303238, 0.138183, 0.320627, 0.0419223, 0.119919, 0.0298805, -0.149509, -0.273933, -0.334495, -0.266503, -0.333856, -0.280315, -0.221671, -0.306498, 0.0649542, -0.309425, -0.150369, -0.0530495, -0.188104, 0.13997, 0.00418852, 0.282964, 0.254523, 0.215956, 0.0112029, -0.0800942, 0.311063, 0.329035, 0.150744, 0.237652, 0.265927, -0.255525, -0.136054, 0.111987, 0.305659, 0.212687, -0.2618, -0.352512, 0.289398, 0.375133, -0.0977172, -0.340532, -0.212811, 0.383154, 0.0733465, -0.331042, -0.0519703, -0.233462, 0.305377, -0.0430589, -0.233303, -0.103055, -0.120051, 0.105975, -0.22765, -0.0251048, -0.195108, -0.0476075, -0.195947, 0.107159, 0.254053, 0.228904, 0.150609, 0.0201376, 0.192021, -0.238592, -0.108467, -0.0253475, 0.151554, -0.281847, -0.111217, 0.0770703, -0.263869, -0.00122199, 0.0933261, 0.0631945, -0.0491525, -0.0307346, 0.091682, 0.0581583, 0.0808399, -0.24825, -0.244028, 0.127693, 0.327684, 0.174773, 0.195441, -0.224966, 0.0187985, 0.403185, 0.253434, -0.0545147, 0.148613, -0.374744, 0.0281855, 0.0872027, 0.346909, -0.023297, -0.340949, -0.0739772, -0.195335, -0.0083015, 0.255747, 0.144121, -0.0453451, 0.228099, 0.128342, 0.397608, 0.483069, 0.45465, 0.437571, 0.36898, 0.122519, -0.213075, -0.0658481, -0.0432834, -0.0568715, 0.042863, -0.173827, -0.204463, -0.11766, -0.250804, -0.346249, -0.398683, -0.228046, -0.437203, -0.25092, 0.0306729, -0.0158578, -0.241229, -0.004813, 0.0498445, 0.314032, 0.15795, 0.379082, 0.478102, 0.355116, 0.217548, 0.109169, 0.185061, 0.360189, 0.0185236, 0.171721, 0.218753, 0.0673053, -0.369521, -0.303804, 0.0173928, -0.129544, -0.404091, -0.219351, -0.30803, -0.298672, -0.0972878, 0.0852152, -0.213833, -0.174251, 0.0613201, 0.0375651, -0.223996, -0.106328, -0.245148, -0.110662, 0.0229348, 0.0948103, -0.0344627, 0.00317373, -0.0563012, -0.0838522, 0.283945, -0.124452, 0.171299, 0.249341, 0.307874, 0.139126, 0.414542, 0.332688, 0.0930929, -0.0315384, 0.173638, 0.23514, 0.230549, 0.182982, -0.0495435, -0.00375226, 0.353183, 0.33294, 0.416918, 0.154717, 0.0268402, -0.114273, 0.287725, 0.0670986, -0.120799, -0.254658, -0.128356, 0.0409659, -0.203177, -0.0403382, 0.138209, -0.0396739, -0.275997, -0.195334, 0.151653, 0.0426585, 0.103572, -0.365973, -0.396694, 0.203199, 0.217632, 0.27471, 0.0831326, 0.143087, 0.0413171, -0.149292, 0.034486, 0.36509, 0.208142, 0.264825, 0.00694604, 0.0775929, 0.237399, 0.0028267, 0.244614, 0.423401, 0.229644, 0.350943, -0.0123947, 0.195018, 0.0178566, -0.272363, 0.151198, -0.114927, -0.0586543, -0.293098, -0.3352, 0.0745508, -0.31426, -0.144851, 0.144307, -0.10343, -0.0501661, 0.280404, 0.232311, 0.221244, 0.179462, 0.37006, -0.0523267, 0.19337, -0.0174221, 0.0736775, 0.182201, 0.196199, -0.0315709, -0.0730885, -0.168823, -0.0172922, -0.103194, 0.262108, -0.0773358, -0.227881, -0.391406, -0.222931, 0.179301, 0.00894846, -0.0182244, -0.360825, -0.163742, 0.329046, -0.000643771, -0.219852, 0.018528, 0.169962, 0.10963, 0.341721, 0.184914, -0.112532, -0.205298, 0.0410033, -0.192454, 0.125391, -0.0318917, 0.26825, 0.226142, -0.254253, -0.0136333, 0.00167832, 0.218916, 0.0859195, -0.27053, -0.197067, -0.0541321, 0.347348, -0.265277, -0.12331, -0.203372, 0.039715, 0.296162, 0.0225981, 0.0627344, -0.25465, 0.236306, 0.240953, 0.20112, -0.0962311, 0.242363, -0.133904, 0.0146439, -0.0458833, 0.328656, 0.271136, -0.328093, -0.332398, 0.159557, 0.104445, 0.102811, -0.349194, -0.206782, 0.0449283, 0.135797, 0.00296553, -0.253725, 0.156466, -0.163718, 0.0576119, -0.120173, 0.0306078, -0.00155004};
float conv1_bias[20] = {-0.104813, -0.158095, -0.0371469, -0.0888876, -0.0467792, 0.131902, -0.14256, 0.229269, 0.0877443, -0.146451, -0.0412003, -0.0725856, -0.224648, -0.130656, -0.221614, -0.246957, -0.198546, 0.0143827, -0.117064, 0.0251745};

