float conv2_weights[25000] = {-0.00893534, 0.0393064, 0.0532727, 0.0367731, -0.00503429, -0.0537959, -0.0668323, -0.0634512, -0.0733537, 0.0222865, -0.0840585, -0.0503789, -0.062858, -0.0557666, 0.00720322, -0.0896566, -0.00273263, 0.0355478, -0.0168776, 0.0195362, -0.0591935, 0.0584723, 0.0603499, -0.00951743, -0.00904223, 0.0276644, -0.0122159, -0.0491846, -0.0441256, -0.0304936, -0.00325045, -0.0115551, -0.0319569, -0.00689107, -0.0625215, 0.0163861, -0.00172643, 0.0276035, 0.0112775, -0.000693093, 0.0252719, -0.0510421, -0.00606555, 0.0336226, -0.0289247, -0.0360772, -0.0200038, -0.0217559, 0.0843086, 0.0030748, -0.0433932, -0.0249515, 0.00966254, -0.0240129, 0.0178407, 0.00658612, -0.00251321, -0.0130821, 0.0564442, -0.0491025, 0.0126569, -0.01272, 0.0614503, 0.0329375, -0.0256426, -0.0207946, 0.0154455, 0.0541308, 0.00636502, -0.0405904, -0.0511952, 0.0358037, -0.0148247, -0.00319975, -0.0157205, -0.0446747, -0.0701563, 0.0372535, -0.0369983, -0.0230085, -0.0756102, 0.0266317, -0.0683038, 0.0181791, -0.0341481, 0.0558301, 0.0636699, 0.0847554, 0.0194422, 0.0334844, 0.00964, 0.0398151, -0.0208622, 0.0457311, -0.0610427, -0.00379638, 0.0824259, -0.0065249, -0.0160757, 0.0283929, -0.0440566, -0.0558632, 0.0624331, -0.0149927, -0.077129, -0.0699649, -0.0266902, -0.0854478, -0.0664231, -0.0626104, 0.0227327, 0.0676666, 0.14656, 0.137151, 0.106278, -0.0244146, -0.0408303, -0.013971, 0.0181547, -0.0552077, -0.059019, 0.0292401, -0.0471045, -0.0125273, 0.0444579, -0.0425181, -0.0498538, 0.00691733, -0.0221816, -0.00538939, -0.00244355, 0.00875743, 0.00230747, 0.0447529, -0.00811519, -0.0808801, -0.0581233, -0.04523, 0.0024907, -0.044207, -0.0524929, 0.019514, 0.0207767, -0.0195172, -0.00108884, -0.0482107, 0.0635548, 0.00912199, -0.0618389, 0.0562295, 0.0392853, -0.0369886, 0.0207828, 0.0301096, -0.043639, -0.0319285, -0.108847, -0.0196214, -0.0153434, -0.0095897, -0.0219834, 0.0163155, 0.0217926, -0.0130218, -0.0863066, -0.0824943, 0.0168272, -0.00477701, -0.0297453, -0.0259168, -0.0511453, 0.0544048, 0.04552, -0.0112478, -0.0744194, 0.0175049, -0.0382451, 0.0320312, -0.049992, -0.0389115, 0.00290785, -0.00426641, 0.00534348, -0.00225598, -0.0178242, 0.0471099, 0.052106, 0.0953442, 0.0373038, 0.0872079, -0.0267675, 0.00736775, 0.0158712, -0.0487361, -0.0399194, 0.00146648, 0.0226398, 0.0349965, 0.00430861, -0.0403231, -0.0386769, -0.00228899, -0.033253, -0.0688672, -0.0435401, -0.00489347, 0.0204875, -0.00980998, 0.0208734, -0.0561332, 0.0520271, 0.00613401, -0.0526166, -0.0229073, 0.00402745, 0.0247478, -0.0577142, -0.00217707, -0.00100677, -0.00665224, 0.0618642, -0.0101725, 0.0108367, 0.0397092, 0.0662275, 0.00682934, -0.0452496, -0.0381802, 0.0418934, -0.0203101, 0.0336791, 0.043228, 0.0177105, 0.0167922, 0.0433695, -0.0251145, -0.048689, -0.0189502, -0.0227714, -0.0067736, -0.0300276, 0.0185417, 0.0544041, -0.0199032, -0.0110785, -0.0385619, -0.0068671, 0.0295199, -0.00599389, 0.00416456, -0.0253437, 0.0700576, -0.00113769, 0.0223216, 0.00418321, -0.0229701, 0.0207038, -0.00937397, -0.00930779, 0.0212749, 0.0110674, -0.0366924, 0.0243664, -0.0754523, -0.0828623, 0.0251909, 0.0332868, 0.0136494, -0.0612077, 0.0329298, -0.040354, -0.0480071, -0.0201707, 0.00952221, 0.0200862, 0.051987, 0.0612112, 0.0353015, 0.0256729, 0.00724568, 0.104678, 0.0879334, 0.128475, 0.0358401, 0.045997, 0.00866728, -0.0767571, -0.0900777, -0.0251409, 0.0116808, -0.0310358, -0.0074243, 0.00355048, -0.0262785, 0.0453253, 0.0175582, -0.0630169, -0.021133, -0.00928866, -0.0246701, 0.0222865, 0.0219731, 0.102416, 0.0155196, 0.0147177, 0.0568392, 0.0665792, 0.0706673, 0.0478733, 0.0253527, -0.0475404, -0.0525462, -0.00917873, -0.0667463, 0.0365524, -0.0636108, -0.0539043, 0.00361996, 0.0945897, 0.0760759, 0.0097593, -0.0849496, -0.0943932, -0.0268331, -0.0183208, 0.0105205, -0.0447046, -0.0200283, -0.016059, 0.0274547, -0.0154515, 0.0113008, 0.0193013, -0.0476686, 0.0153783, 0.0418182, 0.010788, 0.0631174, 0.0652628, -0.00122112, -0.0229111, -0.0430231, -0.0526382, -0.0422252, 0.00883633, -0.015703, 0.0153143, -0.0201676, 0.00346881, -0.0340891, 0.0817505, 0.00395732, 0.0284299, 0.0508602, 0.0260719, 0.0692925, 0.00424603, 0.00224719, -0.00405317, -0.00584339, -0.0776234, -0.0428881, -0.00307027, -0.0348205, -0.0537766, -0.0701052, -0.0119943, -0.000880359, 0.00894592, 0.000594048, -0.0573341, -0.0245611, -0.0224611, -0.00812955, -0.017415, -0.0219811, -0.0586696, -0.0341935, -0.044701, -0.0723985, -0.0487942, -0.071465, -0.0296507, 0.0108858, 0.0330995, -0.0589933, -0.0599368, -0.0459947, -0.0211273, 0.0199479, 0.0415476, -0.0737659, 0.0473897, 0.0555379, 0.0132681, -0.0232968, -0.0342678, -0.0413396, 0.0128904, 0.0351153, 0.0499734, -0.00265287, 0.0229785, -0.0174617, -0.0267042, 0.0221619, -0.0812335, -0.0377802, 0.0119253, 0.0265135, 0.00295289, -0.0134726, 0.0726241, 0.00786635, 0.0617953, 0.0200127, -0.00977209, -0.013453, -0.0318066, -0.060716, 0.0100098, 0.00385584, 0.0143126, -0.0139487, 0.00470365, -0.00328117, -0.0289821, 0.000332343, -0.0687437, -0.0685, 0.0511524, -0.0472583, 0.0266154, 0.0225005, -0.0585252, -0.00105152, 0.0210213, -0.0291573, 0.0431328, 0.0347788, 0.0572891, -0.0481084, 0.0270696, 0.0323737, -0.0251026, 0.0229974, 0.0149549, -0.0295674, 0.0452741, 0.0400896, -0.0449607, -0.0758942, 0.0399104, 0.0136937, 0.00931844, 0.00280566, -0.0182009, -0.00966624, 0.0201092, 0.0244232, 0.0090089, -0.0476769, -0.0179191, -0.0221853, -0.0197669, 0.0263588, 0.00315023, 0.0248262, 0.00937062, 0.00191802, -0.028701, 0.00498278, -0.0218831, -0.00348757, 0.0126129, -0.0410179, -0.0228915, -0.00517788, 0.0298854, -0.00273369, -0.0663168, 0.0328633, 0.0378689, -0.0138588, 0.00557415, 0.0288172, 0.0147227, -0.0133721, -0.00938672, 0.00793334, -0.0432388, -0.0417393, 0.0376266, 0.0258655, -0.0179005, 0.0191233, -0.0029952, -0.00255282, -0.00613665, -0.0603857, -0.0322549, -0.0273917, 0.0274287, -0.0540566, 0.00704382, -0.0420974, 0.0194942, -0.0225388, -0.050706, 0.0336854, -0.0423204, 0.0716368, -0.013563, -0.0790809, 0.00522918, 0.0457928, 0.0998361, -0.0749734, -0.101882, -0.0611756, 0.0497304, 0.0368581, 0.0284486, -0.0467011, -0.0590622, 0.0305011, -0.0137274, 0.0332439, -0.0110567, -0.0678115, -0.0607287, -0.00483037, 0.0315725, 0.0504225, -0.0235553, -0.0449322, -0.0502458, 0.0659442, 0.0639357, -0.0833776, -0.0283906, -0.0207859, -0.0278024, 0.035703, 0.011514, 0.039783, 0.0309145, -0.0180058, -0.025908, -0.020423, 0.0503957, 0.0501805, -0.00663591, 0.00595736, -0.0303352, 0.00493168, 0.0175826, -0.00892003, 0.0149812, 0.0504345, -0.062379, 0.000976167, 0.0899253, -0.0438308, 0.0120616, -0.0372882, 0.014093, 0.0661255, -0.0620353, 0.00788203, 0.0102908, -0.0243368, -0.00363148, 0.0395933, -0.0206521, -0.0246383, 0.0590578, 0.0360795, -0.00303358, 0.0700698, 0.00633591, 0.0751928, -0.0167405, -0.0111026, 0.00328889, 0.0112084, 0.0558685, -0.0877748, 0.0368599, 0.0349659, -0.014012, -0.0207485, -0.0309946, 0.0190146, -0.0102108, -0.0118387, -0.0272601, -0.0546348, 0.0156758, 0.014453, 0.0418177, -0.017725, 0.00978002, -0.0470987, -0.0194575, 0.0115768, 0.0344739, -0.0367745, -0.0262991, -0.0633675, 0.0163161, -0.0771884, -0.0544481, 0.0468333, -0.021727, -0.0167909, 0.0120508, -0.0543646, 0.12264, 0.0853455, 0.0121458, -0.0669182, -0.0875415, -0.0375592, 0.0639923, -0.0711958, -0.012715, -0.0200476, -0.0140662, 0.0187336, -0.0497827, 0.0400732, 0.0638314, -0.0667183, 0.0471238, -0.0344066, 0.0375722, 0.0369288, -0.0622223, 0.0430748, 0.0459262, 0.0460908, 0.00539904, -0.0701819, 0.0232188, -0.0346069, 0.044939, 0.0245415, -0.0501093, -0.092083, -0.0854599, -0.0893799, -0.0452777, -0.0624399, 0.0250622, -0.00934635, -0.0209144, 0.024114, -0.0705442, 0.0161691, -0.0283523, 0.0583729, 0.0792011, -0.0270362, -0.0183568, -0.000250117, 0.0301972, 0.0426714, 0.048068, -0.11193, 0.00382328, -0.0232859, 0.0390485, -0.0361068, 0.000218147, 0.0485324, 0.0210282, 0.000209385, 0.0204894, -0.0201113, -0.0336561, -0.0146628, -0.0171473, 0.00434912, -0.0231912, 0.0106468, -0.0188726, -0.0616021, 0.0432703, -0.0333185, 0.0171787, -0.0211749, -0.0370345, 0.00538229, -0.00868477, 0.0149889, -0.0137508, -0.0899268, -0.0671667, 0.00449162, 0.00689173, 0.0193317, 0.0316299, 0.0597341, -0.0528942, 0.0486156, -0.0544163, 0.0764266, 0.100014, -0.00961693, -0.00186716, -0.0707334, 0.0766223, 0.0542494, -0.0677989, 0.0230133, -0.0638388, -0.00531137, -0.0294925, -0.00169938, 0.0439404, 0.0410109, 0.0255799, -0.0175153, -0.0259211, 0.0543129, 0.0223329, 0.0375381, -0.039655, 0.0188338, 0.0166175, -0.00914811, -0.0324294, 0.0474175, 0.0556664, 0.0445039, -0.0524478, 0.0449632, 0.0365667, 0.0452209, -0.0456438, 0.0333096, -0.0630426, -0.0015283, 0.053557, 0.0484867, 0.048313, -0.0348465, -0.0126057, 0.0213571, 0.0282561, -0.0479192, -0.0405319, 0.0224785, -0.033823, 0.0315863, 0.0155021, 0.00988315, -0.0272847, 0.0533382, -0.0356051, -0.0306154, 0.0572, -0.0771001, 0.0105898, -0.00233177, 0.00170967, 0.0824579, -0.0327143, -0.0290503, 0.0201961, -0.0092448, 0.00793975, 0.102615, 0.0577421, -0.0593811, -0.0235823, -0.0441105, -0.029541, -0.0223749, 0.0346237, -0.0277254, -0.0480903, -0.0308265, -0.0289041, -0.00144997, -0.0440692, -0.00329423, -0.0593519, -0.0436728, -0.0670459, 0.00629764, -0.0569477, -0.0803176, 0.0347166, -0.003867, 0.0553306, 0.0296607, 0.0481795, 0.0205325, 0.0372836, -0.021831, -0.0672466, -0.00400273, 0.00942544, -0.0732925, -0.039649, -0.0681722, 6.97713e-05, -0.0443332, -0.010976, -0.0949737, -0.0699163, 0.0293855, 0.0262705, -0.0340444, 0.0266767, -0.0010249, -0.067731, -0.022258, -0.0148189, 0.0785076, 0.0183173, 0.0695769, 0.017566, 0.0261092, 0.0235124, -0.0554063, 0.0374016, 0.00453237, -0.0698275, 0.0236549, -0.0542392, 0.0102799, 0.00702429, -0.0403824, 0.0373411, 0.0345315, 0.00609478, -0.00619402, 0.00537751, -0.00209939, 0.0176425, 0.0585188, -0.0431354, -0.0239745, 0.0213562, 0.016964, -0.0290048, 0.00723071, -0.0154796, -0.0657138, 0.00713196, -0.0117094, -0.0505304, -0.00262864, -0.00303541, -0.0500737, 0.0204356, -0.0158341, -0.0127869, -0.0332476, -0.0314142, 0.0173003, -0.0106184, -0.0095979, -0.0172763, -0.0367381, -0.0393736, -0.0263223, -0.0256499, 0.0627475, 0.0732712, 0.016875, -0.0764847, -0.0902221, -0.0626714, 0.0108015, -0.0569525, 0.0194235, -0.0682711, -0.0539493, 0.0216901, -0.00415283, -0.0522579, -0.00927937, -0.0451641, 0.0184675, -0.0211432, -0.0112272, -0.0758514, -0.0204159, 0.0301684, 0.0217898, 0.0132539, -0.00524073, 0.0319258, 0.0562629, -0.00340347, -0.0223527, 0.0152325, 0.0352806, -0.0365699, -0.028576, 0.0156335, -0.00677256, -0.0391162, -0.0469539, -0.0606673, 0.0307897, 0.01217, -0.00497174, -0.040299, -0.0230812, -0.0219113, 0.0110574, -0.0338455, 0.0466493, 0.0243242, 0.0511149, -0.0101583, -0.0229581, -0.0241869, -0.000103965, 0.0244942, 0.0445306, -0.0445113, -0.0270204, 0.0259876, -0.00166076, 0.0613287, -0.0101461, -0.000627284, 0.0758308, -0.0137473, 0.0520829, 0.000168809, 0.0228827, 0.100036, 0.0332885, 0.0555733, -0.035635, 0.0653249, 0.111146, 0.0259938, -0.0197819, 0.0358304, -0.0279199, 0.0233591, 0.0686356, -0.0560727, 0.0597087, -0.0458999, 0.00637794, 0.0289803, 0.0583639, 0.113391, -0.0472553, 0.0204652, 0.0619527, 0.0513855, 0.0995282, -0.0755027, -0.0331388, 0.0765948, -0.0266692, 0.0882156, -0.00456367, -0.0639738, 0.0442183, -0.0357165, 0.0370595, 0.0406816, -0.03833, -0.0201291, 0.0568267, -0.0534188, 0.000193731, 0.0463075, -0.033005, 0.0289974, 0.0221653, 0.0404337, 0.0692653, 0.00816116, 0.0234883, -0.0469587, 0.0471609, 0.0451346, 0.0247399, -0.0645964, 0.024734, 0.0445431, 0.0512536, -0.00364161, -0.0444327, -0.0595008, -0.00122703, 0.0137429, 0.0437584, -0.0427971, -0.0322663, 0.0361533, 0.030493, 0.0167161, -0.0625234, 0.0188714, -0.0154592, 0.00509903, 0.0174021, 0.0117265, 0.0395973, -0.0731552, -0.0662012, 0.0228189, 0.0472972, 0.00222842, -0.0585611, -0.0592292, -0.0476456, 0.0268341, -0.00117875, -0.040635, 0.0448193, -0.0600807, -0.0211201, 0.0436519, -0.0618235, 0.0189826, 0.0627971, -0.0367224, -0.0506575, 0.0328284, 0.0590457, -0.0396391, -0.0158329, -0.0682955, 0.0469911, -0.056804, -0.0379353, -0.0594329, -0.0496896, -0.0564479, -0.0858248, -0.0640216, 0.0362729, -0.0519823, 0.0153665, -0.01736, 0.053304, 0.0412932, 0.0597244, -0.0130745, 0.0524228, 0.0535372, 0.0681657, -0.00381695, 0.00375675, -0.00423044, -0.0284515, -0.0183796, -0.0200724, 0.0240981, 0.0159021, -0.0584438, 0.0222262, -0.000378506, 0.0127988, -0.0162736, -0.069429, -0.0254163, 0.0266474, -0.00186564, -0.0292162, -0.0324931, -0.0801373, -0.0337775, -0.0326686, -0.041729, -0.0281834, 0.0245221, 0.0129696, -0.0622654, -0.048122, -0.0374067, 0.0652541, -0.0283986, 0.00496093, -0.0283753, 0.044663, 0.0318851, 0.0632508, 0.0514156, 0.0623901, 0.043329, 0.0358914, 0.0287459, 0.0134387, 0.00384042, 0.0265814, -0.0692204, 0.00881406, -0.0693728, -0.0581834, -0.0263403, -0.00607067, -0.0106078, -0.0494474, -0.0565547, -0.0766249, 0.0843387, -0.0287641, -0.0239953, -0.044946, -0.0412471, 0.106823, 0.0397072, 0.0699223, 0.101635, 0.122249, 0.113441, 0.116939, 0.14761, 0.163286, 0.101395, -0.0355356, 0.0286017, 0.0773032, -0.0141503, 0.0340916, -0.0203326, 0.0730221, 0.0842475, 0.01994, -0.0328268, -0.0163504, 0.0590119, 0.0278064, 0.0332899, 0.0136303, -0.0498927, -0.0236625, -0.0421076, -0.0695933, -0.0600288, -0.0513183, -0.0349395, -0.0171548, 0.0372633, -0.0338463, -0.0361667, -0.0390603, -0.016594, -0.0200406, 0.0528302, -0.0564968, -0.0427232, -0.0229479, -0.0740756, 0.00671245, -0.0263318, -0.0706248, -0.0775121, -0.0426706, -0.0700501, -0.0105777, -0.0294771, -0.0637526, 0.0232138, -0.0791793, 0.0874905, 0.0332214, 0.092878, 0.0777306, 0.0287312, 0.0214925, 0.0286691, 0.00392927, 0.0329767, -0.0182868, -0.0139737, -0.0058487, -0.05005, -0.0256648, -0.0264742, -0.0171836, -0.0390592, 0.0401541, -0.0211866, -0.0393556, -0.036843, 0.0578255, 0.0242079, 0.0642305, 0.0301312, 0.0579564, 0.0781462, 0.00310532, 0.0685907, 0.0451985, 0.0474598, 0.0615043, 0.0270651, 0.0585056, 0.0157192, 0.0545558, -0.0493609, 0.0130395, 0.0734351, -0.000567713, 0.00536791, 0.023944, 0.0546504, -0.00653312, -0.0200661, -0.0188738, -0.0147418, -0.0387373, -0.0755759, 0.0269997, 0.0267956, 0.033814, -0.0835206, -0.00854914, -0.0352214, -0.0497424, -0.0212182, 0.00900649, 0.00526022, -0.0400458, 0.00946307, 0.0179083, 0.0127781, -0.0381485, -0.0582431, -0.0123841, -0.0348778, 0.0200007, 0.0530806, 0.0135441, 0.0249724, -0.0333287, 0.0400897, -0.0255699, 0.0289023, -0.0290041, 0.029064, -0.0182373, -0.0385112, 0.0466326, 0.0595618, 0.0426849, -0.0310088, -0.0056859, 0.0512618, 0.048582, -0.0136009, -0.0273219, 0.00263291, -0.0326084, -0.0530968, -0.041791, 0.0035394, -0.0594328, -0.00372544, -0.0341096, -0.0542615, 0.0454954, 0.0253074, -0.00943942, -0.0507514, 0.00112005, 0.0629823, -0.0204917, -0.0352445, 0.0253389, 0.038489, -0.0407332, -0.0155488, 0.0464153, 0.0434591, -0.0251044, -0.0355821, 0.0513304, 0.00847385, -0.0200145, -0.0505417, 0.00440638, 0.00620437, 0.0154256, 0.0150403, 0.023593, -0.060652, -0.0856707, -0.063803, 0.0384342, -0.0217296, -0.0844505, 0.000175571, -0.0261874, 0.0709594, 0.00780363, 0.0240319, 0.0532761, -0.0110663, -0.0660233, -0.0188328, -0.0153711, 0.00413934, -0.039123, -0.0053167, 0.0311484, -0.0239331, -0.0490232, -0.0465805, 0.0137635, -0.0228351, -0.0278635, -0.0800803, -0.0304797, 0.0267615, -0.00614867, -0.0120802, -0.0382385, 0.0147013, -0.0868865, -0.0371737, -0.0343683, 0.0116685, 0.00636787, -0.0439129, 0.000341553, 0.0389116, -0.0785419, -0.031981, -0.00176962, 0.0405327, -0.0394758, -0.0552538, -0.0409142, 0.0211216, 0.00259027, 0.0835229, 0.0199494, 0.0646957, 0.0540151, 0.0329013, 0.00631021, 0.0299306, 0.0503812, 0.0186719, 0.0176455, 0.0165573, -0.0111634, -0.0470845, -0.0438312, 0.0414609, 0.0235348, -0.0127229, -0.0311461, -0.0110566, -0.034894, 0.0163089, -0.0160527, 0.0223779, -0.00557128, -0.0408056, -0.0209995, -0.0897704, -0.00427527, -0.0127196, -0.0658447, -0.0636373, -0.0189811, 0.0162107, -0.0658869, -0.0485359, -0.0354177, 0.0324167, -0.0366414, -0.0339755, 0.0070343, -0.00102689, -0.0515583, -0.0167151, 0.0158639, -0.0566364, -0.0425787, -0.0624901, -0.115313, 0.0545003, -0.0022116, 0.0631771, -0.0331125, -0.0587747, 0.066906, 0.0963628, 0.0659901, 0.0566612, 0.0323737, -0.03995, -0.0228187, -0.0574353, -0.0465717, 0.0475002, 0.0328832, 0.0061504, 0.0278126, -0.016617, -0.0261372, -0.0392682, 0.0359147, -0.0185989, -0.0137907, -0.0502625, 0.0297889, 0.0578697, 0.0422176, -0.0300735, 0.03021, 0.058554, 0.0378415, 0.0901541, 0.00120369, -0.0125784, 0.0038228, -0.0158703, 0.00319067, -0.0239643, -0.0287248, 0.0178864, -0.0334809, -0.0308648, 0.0214442, 0.0251249, 0.0309983, 0.0436473, 0.0358807, 0.0563279, -0.0609994, 0.00157689, -0.0288657, -0.00900406, -0.0235879, 0.0692202, -0.0359317, -0.0221377, 0.0391776, 0.0311142, 0.00379584, 0.00727105, 0.00929874, 0.0824479, -0.0289284, 0.0535117, -0.00670704, 0.0422654, 0.0358202, 0.0343666, -0.00300198, 0.0255252, -0.0335726, -0.0096593, -0.0583728, -0.0311488, -0.00185606, -0.0644232, -0.0248074, -0.046932, -0.00182091, -0.00233669, -0.0255372, -0.0556131, -0.0199038, -0.0380187, 0.0274923, 0.0776436, 0.0209662, -0.0312271, -0.026745, 0.0451123, 0.00721131, 0.0133161, 8.64882e-05, -0.0277762, 0.0146418, 0.0544855, 0.0455305, 0.0467791, -0.0530175, -0.0238454, -0.0400862, -0.0150429, 0.0107286, -0.060813, -0.0200128, 0.0192913, -0.0499694, -0.0189247, 0.0170273, -0.0111906, 0.0326261, 0.0290325, 0.0149628, -0.0533361, 0.0579478, 0.00664106, 0.0221467, -0.0300077, -0.031131, 0.0161488, 0.000885644, -0.0290574, -0.083928, 0.0665, -0.0187307, -0.0788409, 0.00428706, -0.0303525, 0.065587, -0.0275705, 0.0112855, -0.0597448, 0.038032, 0.039831, -0.0377007, -0.0758798, -0.0371069, 0.0299422, 0.0564402, -0.0520316, -0.0246916, 0.0667315, 0.0851606, -0.00944782, -0.0041713, 0.0161947, 0.0312571, -0.0248461, -0.0386772, -0.0373404, 0.0195319, 0.0250868, -0.0229691, -0.0652854, -0.0311433, -0.0577544, -0.0300008, 0.00165146, 0.0315773, 0.0414541, -0.0210807, -0.00298771, -0.00260957, -0.0122251, -0.0161198, 0.00463452, 0.0290919, 0.0691104, 0.0297084, 0.00503362, -0.0365307, 0.0412952, -0.0211615, 0.0265414, 0.0164386, -0.00991036, -0.0285091, -0.050436, 0.0300209, -0.0387819, -0.0238523, -0.0247499, 0.0392001, 0.0183352, 0.0710755, 0.101538, -0.00471165, -0.0171015, -0.0180082, 0.00473739, 0.053364, -0.00460648, 0.020308, 0.0745356, -0.0394485, -0.0409953, -0.00597993, 0.0188178, 0.0463534, -0.02611, 0.0325234, -0.0162918, 0.0282011, -0.00888232, 0.0113575, -0.034829, 0.0687418, -0.0483369, 0.017171, 0.0701073, 0.112637, 0.0501821, 0.0731789, 0.0451265, 0.0115054, 0.0626695, -0.0135729, -0.020164, -0.033212, 0.0300719, -0.0853687, -0.009597, -0.00921926, -0.0003602, -0.0353161, -0.0411068, 0.0264338, 0.0528462, -0.0501885, -0.0546287, -0.0549224, -0.007789, 0.0015606, -0.0349807, -0.0471821, -0.0292672, -0.00884841, -0.0260742, 0.0167056, -0.0110535, 0.0306047, 0.0426949, -0.0382168, 0.0464972, 0.0440139, 0.0162989, -0.0208969, 0.034439, 0.0424357, -0.0145042, 0.00972135, -0.0270466, -0.0577, -0.0167807, -0.0650767, -0.0185657, -0.0265757, 0.0135707, 0.0213721, 0.0519108, -0.0136271, -0.0134965, -0.0133435, -0.0493256, -0.00516444, 0.0175144, -0.0139571, -0.0756108, 0.0309437, -0.0537918, -0.0621172, -0.065059, -0.0172511, -0.0394773, -0.00930384, -0.0214482, -0.0783619, -0.0452428, 0.0475051, -0.0859381, -0.0291493, -0.0680964, -0.0674163, 0.0611181, 0.0292524, 0.0843979, -0.0196968, -0.0362775, 0.0503745, 0.046445, 0.0454788, -0.0072152, -0.0424835, -0.0109913, 0.0190435, -0.00144083, -0.0161589, -0.0225622, -0.0342432, 0.0227636, 0.0315447, -0.0301936, 0.0414507, 0.019461, 0.00195771, -0.0427395, -0.00766472, -0.00563697, -0.0608146, -0.0432891, 0.0139428, -0.0147491, 0.0159343, 0.0175359, 0.00606255, -0.0675579, 0.0340928, 0.10766, -0.0093692, -0.0362898, 0.019946, 0.018827, 0.0496832, -0.0701136, 0.00413506, 0.0196552, -0.00194078, 0.0322382, -0.0271129, -0.0669621, 0.0207278, -0.0890188, -0.026776, -0.00766809, -0.0391758, 0.0505262, -0.000296072, -0.0139542, -0.0462187, 0.036613, -0.0202588, 0.0167022, -0.0297938, 0.0266843, 0.0216787, -0.0161308, -0.0450515, 0.00380055, 0.031004, 0.0516642, -0.00217769, 0.00338785, -0.0368361, -0.00324943, 0.0375449, 0.0544237, 0.0341123, 0.0125323, -0.035218, -0.0409228, -0.00228942, -0.0427348, -0.0462985, -0.0569932, 0.0111172, -0.0515853, -0.0138673, 0.0410868, -0.0279285, -0.00985864, -0.00911531, -0.0156327, -0.0169941, 0.00286342, -0.0206575, 0.00364174, 0.029367, 0.02764, -0.0804499, -0.0445639, -0.0124723, 0.0333022, 0.0375205, -0.0445501, 0.0254357, -0.0378308, -0.03482, 0.0211303, 0.0279029, -0.0178139, 0.0698399, 0.0838032, 0.0415107, 0.0453428, 0.039676, 0.129321, 0.0960256, -0.0104242, 0.0445699, -0.00298987, -0.0284074, -0.0129966, -0.0183367, -0.0488396, -0.0444692, 0.0385587, -0.000390491, -0.0419444, 0.00229553, -0.0441723, -0.0187069, 0.0858476, 0.103106, 0.0725827, 0.00316912, 0.0922717, 0.0545249, 0.0265595, -0.0362229, 0.00328599, 0.0377801, 0.083652, -0.0674488, -0.00821736, -0.0537448, -0.00167454, 0.0228571, -0.0413739, 0.024501, -0.0124104, -0.0368084, -0.000908749, -0.020149, -0.0602699, -0.0170322, 0.0048052, 0.0965712, 0.0293756, -0.0375984, 0.0623316, 0.0216723, -0.018233, -0.062479, 0.0439964, 0.034944, -0.0425178, -0.062562, 0.00750029, 0.0430489, 0.0242531, -0.0321895, -0.0445679, -0.0403672, -0.00352996, 0.0233859, -0.0722878, 0.0097703, 0.0470494, -0.033759, -0.0463861, 0.0264258, 0.0204471, 0.0526124, 0.0106579, 0.0138101, 0.0489523, 0.10261, 0.0638865, -0.0460054, 0.00573771, 0.0697873, -0.0237421, -0.0771062, 0.0374379, 0.00149877, -0.0216034, 0.0028201, -0.0389058, 0.0195928, -0.0193911, -0.0477291, -0.0062462, -0.00171825, 0.0297329, -0.0616281, 0.0957845, 0.080698, -0.0211975, 0.0281807, 0.0793328, -0.0347015, 0.00836447, -0.0166425, -0.043183, 0.00616587, -0.0734151, -0.0603198, -0.0154416, -0.0506812, -0.0392065, -0.0380105, -0.0552001, -0.0867487, -0.0417556, -0.0362514, -0.0310418, -0.0890688, 0.0161081, -0.0507128, -0.0205792, 0.0482445, 0.0339238, -0.00418243, 0.0552415, 0.0863973, 0.0101669, 0.0263442, -0.0276591, 0.00916082, 0.0224138, 0.0196696, 0.013622, -0.0436563, -0.0281429, -0.0173352, -0.00374641, -0.0273742, -0.0187686, -0.0634471, -0.0141211, 0.00520712, -0.0286951, -0.047173, 0.0276958, 0.00153933, -0.0143103, -0.0326763, 0.0159248, 0.0141799, 0.00565741, 0.0075989, -0.0779317, -0.0391116, -0.0526455, -0.0396687, -0.00116047, 0.0113708, 0.0262414, -0.0264136, -0.0233831, 0.0313305, -0.0254944, -0.0341824, -0.0223803, -0.019948, 0.00149099, 0.00542096, -0.0123421, -0.0280978, -0.0263969, 0.00436426, -0.0366513, -0.0612363, 0.00455065, 0.0424, -0.0625381, 0.00912284, -0.000189891, 0.0189247, -0.0420007, -0.0609243, -0.0741706, -0.0352448, -0.0133067, -0.0326221, 0.0255192, 0.0208535, 0.0411533, 0.0393998, 0.0063087, 0.0163345, -0.0318511, -0.0102757, -0.0434088, -0.0309258, 0.0404484, 0.0273602, -0.0090887, -0.00877057, -0.0526748, 0.006265, -0.0232666, 0.0467507, -0.05032, -0.0510976, -0.045031, 0.030263, 0.0256923, -0.0267488, 0.0400328, -0.0362573, -0.0109022, 0.0261917, -0.0677717, 0.0317835, 0.0467701, -0.0241604, 0.0318496, -0.0132732, -0.0450977, -0.0223757, 0.0770963, -0.0114932, -0.0160407, -0.0167252, 0.0846937, 0.139557, -0.0285229, -0.0923124, -0.0916111, 0.0950591, 0.0923294, 0.000848638, -0.0969135, -0.0190664, 0.0563638, 0.130344, -0.00776776, -0.0870608, -0.0230537, 0.0700828, -0.00641755, -0.117299, -0.0973283, -0.0409, -0.0773013, -0.0649754, 0.01934, 0.0431612, -0.0317329, -0.101998, 0.003382, 0.141141, 0.127112, -0.0734197, -0.0583819, -0.0140725, 0.0667604, 0.0891726, -0.0705552, 0.0379629, 0.0519025, 0.12564, -0.0526534, -0.0840541, 0.0142198, 0.0568291, -0.000683393, -0.00896781, -0.0516954, -0.0279732, -0.0419821, -0.0469822, -0.0113129, -0.0492403, -0.0367406, -0.02418, -0.0505279, -0.035731, 0.0118809, 0.0129889, -0.0268838, -0.0124073, -0.00469093, 0.0346718, -0.0734381, 0.0778668, 0.0618144, -0.0186694, -0.0645323, 0.0242071, 0.0131074, -0.0633493, -0.0344458, -0.0414992, 0.0576934, 0.0879041, 0.0181734, -0.0719101, 0.0437176, 0.0844691, 0.0315388, -0.0904614, 0.00542392, -0.035786, 0.0373522, -0.0710129, -0.0652434, -0.00140336, 0.0653053, 0.0134252, -0.0400932, -0.0354008, 0.0124576, 0.0665655, -0.0572636, 0.0110441, -0.053525, 0.010185, -0.0411015, -0.0625644, 0.00817195, 0.0380781, -0.0421763, 0.0653065, -0.0265558, -0.0417599, -0.104433, -0.119154, 0.0408253, -0.072892, -0.102144, -0.153408, -0.113208, -0.0738602, -0.00648945, -0.161755, -0.133046, -0.0520131, -0.0111041, -0.0128617, -0.0818822, -0.0432491, 0.0125991, 0.0134303, -0.0671133, 0.048312, -0.0299829, -0.0619826, -0.012326, -0.0280711, 0.00641884, -0.0478129, -0.0881421, -0.012674, 0.047265, 0.103054, -0.0338284, -0.0996054, -0.0378801, 0.0647278, 0.0552758, -0.0931632, -0.0263708, -0.0356443, 0.0471632, -0.00811071, -0.0845733, 0.0144574, -0.100448, -0.0181612, 0.0456804, 0.0349181, -0.00878952, -0.0709973, -0.0605497, 0.0916065, 0.0560503, -0.103808, -0.0982187, -0.0771285, 0.0634182, -0.0207813, -0.0414659, -0.0953373, 0.02152, 0.0629814, 0.0337618, -0.0783054, -0.059188, -0.0384168, 0.0648798, -0.00727861, -0.0689119, 0.0302257, 0.00169988, 0.0435977, 0.000621351, -0.101879, 0.0228753, 0.015853, 0.00577116, -0.0515784, -0.108573, 0.0097489, -0.0204441, -0.12405, -0.09451, 0.0248223, -0.0144564, -0.026034, -0.123242, -0.0362622, 0.0165096, -0.00440686, -0.0451188, -0.0346481, -0.0609008, -0.0652757, 0.00957427, -0.032499, -0.119504, 0.00934315, 0.101172, -0.00704988, -0.0466489, -0.0150008, 0.0251736, 0.0708341, 0.0644947, -0.116454, 0.00547305, 0.120763, 0.1084, 0.0127721, -0.0658263, 0.0686299, 0.123131, -0.0238761, -0.0242141, 0.042277, -0.00175024, -0.0355045, 0.0559905, 0.0282477, 0.0436276, -0.0375915, -0.0254669, -0.0370138, 0.0167034, 0.0256916, -0.0255894, -0.00375108, -0.0338443, 0.00659879, 0.0176295, -0.00617218, 0.00664741, 0.041416, -0.049348, -0.0687384, -0.0565197, -0.0189218, 0.0262039, 0.0541949, -0.0598942, -0.0667767, -0.000941073, 0.0390115, -0.0614738, -0.0650802, -0.0651128, -0.084502, -0.0291963, 0.0200046, 0.00991434, -0.0653642, -0.0792768, -0.0412755, 0.00933334, -0.0382622, -0.0556731, -0.0509989, -0.00988888, -0.0102834, -0.0723619, -0.0482027, 0.0162629, -0.0341959, -0.0960522, 0.00503125, 0.0283764, -0.00996795, -0.0156866, 0.00728726, -0.0789892, -0.105162, -0.0974782, -0.082408, -0.0430769, -0.061327, -0.0484893, 0.0174602, -0.0697952, 0.00945362, -0.0228102, -0.0087594, -0.0264006, -0.0987498, -0.0489057, -0.0315215, -0.00522815, -0.0825055, -0.0739404, -0.0681295, -0.0708996, -0.0721127, -0.0254399, -0.0429368, -0.0295759, -0.0186892, -0.0267382, -0.0757693, 0.0595574, -0.0648374, -0.0574749, -0.0462784, -0.00947991, 0.0170828, -0.0171428, -0.0354846, -0.070107, 0.0370002, -0.0696306, 0.00216391, -0.0432706, -0.0469631, 0.0460944, 0.0335469, -0.0170837, 0.0326599, -0.00941002, -0.0647552, 0.0438223, 0.000662209, -0.00640472, -0.000698779, -0.0237801, -0.0772309, 0.00511044, -0.00342973, -0.0292275, -0.0555376, -0.0847277, -0.0485503, 0.000184368, -0.0165539, -0.0510888, -0.0646567, 0.0365279, -0.00673968, -0.0448271, -0.0481378, 0.0130342, 0.028416, -0.00784158, -0.0460263, 0.0124057, 0.0292998, -0.080918, -0.113904, -0.0115446, 0.0183342, 0.0390499, -0.0103662, -0.0304395, 0.0106265, 0.0585281, -0.0422322, -0.110267, -0.00197109, 0.00564677, 0.0210766, -0.0183372, 0.0050035, 0.0122608, -0.0195039, -0.0387869, -0.0333559, 0.0308765, -0.0224169, 0.0543217, 0.00845133, 0.0310132, -0.105796, -0.0857076, -0.045644, 0.0369862, -0.0212517, -0.107853, -0.0765497, 0.0223437, 0.0322449, 0.0289282, -0.032757, -0.0893497, 0.0364045, -0.046614, 0.0106507, -0.0162518, -0.0192669, 7.63608e-05, -0.0255084, -0.0460882, 0.0216536, -0.071684, 0.0371882, 0.067455, 0.0327287, -0.0069772, 0.0083693, -0.0145129, 0.0605448, 0.0277273, -0.0274147, -0.00506462, 0.0186275, 0.020362, -0.00282229, 0.0299164, -0.0425316, -0.00975582, -0.0976158, 0.0254918, 0.00369859, -0.0062295, 0.0105652, 0.00250621, 0.0220139, 0.0364739, 0.0266183, 0.00308111, -0.0184478, 0.0445675, 0.00374995, 0.0183969, -0.0833523, -0.00338928, -0.0126508, 0.0778791, -0.0280517, -0.0661972, -0.0549599, 0.0484887, 0.00180805, -0.0111543, -0.0498426, -0.000248372, 0.0394405, 0.0114098, -0.0725307, -0.0186193, 0.0186962, 0.0196849, -0.0439256, -0.0271227, -0.0111837, 0.000592671, 0.0555921, -0.0421595, 0.0847667, 0.022755, 0.0108704, 0.00662439, -0.0406121, 0.0951314, -0.0165491, -0.0889186, 0.0134508, 0.0438246, 0.100023, -0.000386321, -0.0608738, 0.00895723, -9.87022e-05, 0.112089, 0.0273308, -0.0194947, -0.0177247, 0.0215937, 0.0509159, 0.0200336, 0.000768743, 0.0127589, -0.0315916, -0.0229667, -0.0327905, -0.0206491, -0.0416409, -0.021587, -0.0298478, -0.0599523, -0.00674007, 0.0795808, 0.0324162, -0.066469, -0.0213314, 0.0583064, 0.0767418, -0.0390737, -0.00198382, -0.0186862, 0.0623766, -0.00931489, -0.00471354, -0.00551571, 0.0164751, 0.0156503, 0.0502742, -0.00492317, -0.0489385, 0.057449, -0.00203419, 0.0340729, -0.0607415, 0.0507216, 0.0115089, 0.0155785, -0.0503377, 0.00852827, -0.0321528, -0.0160141, -0.000357629, -0.0778498, -0.051933, -0.0740761, -0.0452338, -0.0064472, -0.0157313, -0.0348437, 0.04149, 0.00821492, 0.0351533, -0.0341043, -0.0239617, 0.00575854, -0.0191454, 0.0070473, -0.0264872, -0.0628231, -0.00577101, 0.0390377, 0.0745987, 0.0607525, 0.0255931, -0.0175963, 0.0298559, 0.0317877, -0.0123592, -0.0740163, -0.0725755, -0.0741392, 0.0471717, -0.0185256, -0.0195146, 0.0315455, 0.0605094, -0.00168882, 0.0385688, 0.0406232, 0.0482392, -0.00463357, -0.00853469, 0.020885, 0.00696908, -0.0413586, 0.00640099, -0.0391436, 0.00494693, 0.0357679, -0.0306011, 0.0351623, 0.0762732, 0.0515933, -0.0432776, 0.0307405, 0.0490494, 0.0132678, 0.00341845, 0.000436961, 0.054815, -0.0307379, -0.0373123, -0.0516254, -0.0089501, 0.0702666, 0.0713584, 0.0566697, 0.0114424, 0.0342685, -0.0424731, 0.00199852, -0.0617911, -0.0506243, 0.0421409, 0.0367236, 0.00435139, 0.0280815, -0.0374364, -0.00849834, 0.0486999, 0.0100786, 0.00234642, 0.0123316, 0.0078128, 0.0613315, 0.0310845, -0.0658031, -0.0547122, 0.00432828, 0.0883518, 0.0935327, 0.112507, 0.0539553, 0.0023372, -0.0869344, -0.0798794, -0.00782913, -0.015991, 0.0526013, 0.0299796, 0.0184792, -0.0287759, -0.0610131, -0.00740492, 0.00303288, 0.0952663, -0.0181505, -0.0098636, 3.53358e-05, 0.0709766, 0.0667494, -0.00950712, -0.0904386, -0.00599244, 0.0362344, -0.0148822, 0.00493602, -0.0589515, 0.0213176, 0.0519537, -0.0216632, 0.0468089, -0.0134224, 0.024235, -0.0397632, 0.0167034, -0.0362359, 0.0152175, -0.0737213, -0.0506979, -0.0306554, -0.0301831, -5.43921e-05, 0.00838386, -0.0202699, -0.013668, 0.00859975, -0.0574353, 0.0057474, -0.0312935, -0.00102591, 0.0225892, -0.0104628, -0.00144105, 0.0212382, -0.0359966, -0.0434797, -0.0252094, -0.030149, -0.0286335, -0.0772814, -0.00135933, -0.000868126, 0.02398, 0.011033, -0.0566948, -0.0445552, -0.0277758, -0.0484053, 0.0226523, -0.0464937, -0.0732868, -0.0355279, 0.0296801, 0.106385, 0.107527, 0.0277033, 0.0294304, -0.0477004, 0.0197548, -0.0470584, -0.0534365, -0.0653234, -0.0190604, -0.00875644, 0.0611979, 0.0531954, -0.0394214, -0.00731615, 0.0130878, 0.0180534, 0.0570486, 0.0145072, 0.00573578, 0.068249, -0.00207304, -0.0333954, -0.059521, 0.0178492, 0.011214, -0.0324792, 0.0342732, -0.0326082, 0.0166142, -0.0585391, -0.043271, -0.0429323, 0.00785455, 0.0422012, -0.0677562, 0.0123636, -0.0517393, 0.00357516, -0.0400542, -0.00580924, -0.0448406, 0.0414665, -0.0227595, -0.0391248, 0.0391761, 0.0157065, -0.00144701, -0.0221684, -0.00592422, -0.0512732, 0.0441125, 0.017511, -0.0479997, 0.0298083, 0.0530693, -0.00787684, -0.0362598, -0.0393646, -0.00268296, 0.009035, 0.0141639, -0.0471462, 0.00940555, 0.0262286, 0.0561989, -0.0410232, 0.0315414, 0.0297121, -0.0350149, 0.0213414, -0.0151588, -0.0403988, 0.00828131, -0.00250107, 0.0240487, 0.0231151, 0.017671, -0.0582665, 0.0121382, 0.0610603, 0.00116976, -0.0329464, 0.0276736, 0.0265295, -0.0232222, -0.0010857, -0.0253012, 0.0150189, 0.0309111, 0.0605749, -0.00611667, -0.0579702, -0.0242284, -0.0184289, 0.0105171, -0.0516004, -0.042136, -0.00684141, -0.0413466, -0.0349833, -0.00791607, -0.0369782, -0.00444014, 0.0358545, 0.0662967, 0.0384832, 0.0526964, -0.0038601, 0.0331371, 0.0364964, 0.0802471, 0.05282, -0.0101496, 0.025945, -0.0069734, -0.00410846, -0.0639141, -0.061507, 0.0194179, 0.015985, 0.0255172, 0.0407604, -0.0324265, 0.0236704, 0.00513024, 0.0327545, 0.0403225, 0.0268743, 0.000443971, 0.0618401, 0.0942234, 0.000939624, 0.0637273, 0.0373532, 0.0310774, 0.0579804, 0.00702852, 0.0218589, -0.00670396, -0.00364082, -0.00127052, 0.0194637, -0.0128718, 0.0135275, 0.0170743, -0.0180203, 0.0506361, -0.0118176, 0.0338968, 0.0865016, 0.064868, 0.0546052, -0.0297782, -0.035343, -0.0575095, -0.0240217, 0.00102262, -0.014735, 0.000239398, -0.0345229, 0.00541784, -0.0519857, -0.0258553, 0.00713421, 0.015229, -0.0359097, 0.0102082, 0.00553969, 0.0162351, -0.0488612, -0.0394562, -0.0258096, -0.000348404, 0.0116799, -0.0824609, -0.0828058, -0.0159004, -0.0591223, 0.0220286, 0.00716713, 0.0716785, 0.0577285, 0.0157892, -0.0466357, -0.00427265, 0.0274229, -0.0329811, -0.0721321, -0.0621665, -0.0631223, -0.0336392, -0.0241845, 0.00715364, 0.0230967, -0.0520827, 0.033214, -0.00862322, -0.0441637, -0.077251, 0.0290581, 0.0613148, 0.0693761, 0.0413711, 0.0082902, -0.05027, 0.0288722, 0.0472164, 0.00647904, -0.0547418, -0.0162923, -0.0230651, -0.0277007, -0.0189763, -0.0506107, -0.0289813, -0.013596, -0.0717706, 0.0263288, -0.00864085, 0.023216, 0.00927953, -0.00157562, -0.0450665, -0.0472595, 0.0838804, 0.0859994, 0.0602916, -0.0074071, 0.0340784, 0.00496411, -0.0240854, -0.0652304, -0.0483832, 0.0127596, -0.0142321, 0.0108118, -0.0540887, 0.0151442, -0.0393492, -0.0323479, -0.0311686, -0.04253, -0.0532604, 0.0175476, -0.0447125, -0.0488649, -0.0502865, -0.0140463, 0.0158046, 0.0527487, 0.0097118, -0.00603764, -0.0250116, -0.0076912, -0.0357621, -0.0299996, -0.0699894, -0.0585907, -0.0367216, 0.0164733, -0.00126901, 0.0142856, -0.0154485, 0.0463389, 0.0789844, 0.0347089, 0.0172358, -0.0583543, 0.0402388, -0.0221011, 0.0222477, 0.0248476, -0.025936, -0.0500647, 0.0319357, -0.0251778, -0.00665634, -0.0637595, -0.0429256, -0.048035, 0.0099546, -0.0462341, -0.0547293, -0.0464675, -0.0142478, 0.017625, -0.0168302, -0.0438462, -0.0543249, 0.0134654, 0.00763223, -0.033667, -0.0418884, 0.054025, 0.0579224, -0.00667728, -0.0334826, 0.0399267, 0.00856738, -0.0348398, -0.0555474, -0.0706129, -0.0678865, -0.0388024, -0.038607, 0.0158533, -0.0379854, -0.0494428, -0.0471593, -0.00385305, -0.0448249, 0.0670817, 0.0538126, -0.0282529, -0.0435351, -0.00671553, -0.0413494, -0.00528932, 0.0150834, 0.0471653, 0.0367878, -0.000257231, 0.0442633, 0.0148351, -0.0370951, 0.0416902, -0.00331953, 0.0377673, -0.0158094, -0.00529212, 0.0281132, -0.0690163, -0.0327366, 0.10783, 0.0831668, -0.0264053, -0.0657101, -0.0407567, 0.0157395, 0.0224639, -0.0760404, -0.0766918, -0.0193228, 0.0334451, -0.0204814, -0.0552123, -0.00847321, -0.00522012, -0.0717052, -0.0239687, 0.0499142, -0.0275749, -0.00908073, -0.0641398, 0.0336086, -0.0204105, 0.0448889, -0.0651966, -0.104139, 0.0248494, 0.0493225, -0.0520286, -0.0200035, -0.0135262, 0.0216126, 0.00378862, -0.00836544, -0.0101031, -0.0378899, -0.0299776, -0.00854533, -0.0377865, -0.075718, 0.0246982, -0.0147415, -0.0177473, -0.0532474, -0.0285479, -0.0437358, -0.0673494, -0.0384522, -0.0189207, -0.00978306, -0.057115, 0.0143404, 0.00290858, -0.0236774, -0.037204, -0.0765111, -0.0137519, -0.060086, 0.015508, -0.0170086, -0.00324246, 0.0143912, 0.0403306, 0.0381939, 0.0193873, 0.0432043, -0.0458811, -0.0333251, -0.0724118, 0.0125532, 0.0142856, -0.0509318, -0.0375657, -0.0378158, 0.00367514, 0.0386072, -0.0388309, -0.0434446, 0.0342551, 0.0406125, -0.0284976, -0.0139207, 0.0333693, -0.0747142, 0.0241087, 0.0403968, 0.00863935, -0.0420127, -0.0323909, 0.0302266, -0.0647453, -0.0623958, -0.0574842, -0.0538063, -0.0478569, -0.00591046, 0.0612285, -0.0176277, -0.0330167, 0.0485351, -0.084064, -0.0336112, -0.0373673, -0.0512922, -0.0458639, -0.0293883, -0.0753696, -0.0247822, -0.0731824, -0.0171999, 0.00837754, -0.0520143, 0.000143428, 0.0438348, -0.0126613, -0.0345714, 0.00419402, 0.0267115, 0.00761651, -0.0411181, 0.0380704, -0.060996, -0.0573279, 0.00734294, -0.00908588, 0.0448678, 0.00781895, 0.0185705, 4.48951e-05, 0.0145878, -0.0215713, 0.0316836, -0.00957991, 0.0148195, 0.0259908, 0.0419006, -0.0172205, -0.01694, -0.0324192, -0.0210835, 0.0235057, 0.0449279, -0.0417185, -0.0746716, -0.0721786, 0.0267912, 0.0921928, 0.0369068, 0.0157252, 0.016504, -0.00707325, 0.0811092, 0.0627428, -0.00452869, -0.023937, 0.0207749, -0.0301771, -0.00314233, -0.0272289, -0.0529865, -0.0932299, -0.0701791, 0.0338896, -0.0524167, -0.0768438, 0.0293213, 0.00415464, 0.0223728, 0.00892018, -0.0071333, 0.034234, 0.0144891, -0.0267496, -0.0211332, -0.0324323, -0.0300209, -0.0186138, -0.00545999, -0.0593914, 0.002236, -0.0257188, -0.0523751, -0.035454, -0.043577, 0.00802044, -0.0433914, -0.0464213, -0.0390762, -0.000951096, -0.0263141, -0.0688349, -0.0328788, -0.0172279, -0.0184469, 0.0490616, -0.0981764, -0.0335284, -0.0426743, 0.0117048, 0.0030722, -0.0942061, -0.0498857, -0.0391255, 0.0587307, -0.0137327, -0.0780581, 0.0392478, -0.0130474, 0.0157643, -0.0272582, -0.0467305, 0.0102283, 0.00697513, -0.0336079, -0.0592015, -0.0456606, -0.0111595, -0.0138386, -0.0176743, -0.0463994, -0.0142243, -0.0381208, -0.0475033, -0.0371094, 0.0337407, 0.0142334, 0.0430563, -0.0209166, -0.00220995, -0.0396512, -0.0322137, 0.0194997, -0.0257729, -0.00283098, 0.0105076, -0.00161362, 0.0204663, 0.0172179, -0.0268703, 0.00860211, 0.0423129, -0.00280228, 0.00819853, -0.0290793, -0.00952878, -0.0418524, 0.0489253, -0.00885498, 0.00648803, -0.0480676, -0.00538942, 0.046237, -0.0199423, 0.0415643, 0.0221884, -0.0643216, -0.00314243, -0.00146136, 0.0136448, 0.0123882, -0.0454816, 0.0131142, 0.0403048, -0.0439637, -0.059556, -0.0246599, -0.046928, 0.0297978, 0.00439932, 0.0183629, -0.0427725, -0.0867836, -0.0732849, -0.0620191, -0.0261533, 0.0332956, 0.0425404, -0.05091, 0.0403034, -0.0308046, 0.0632321, 0.0746955, 0.0583357, 0.032578, -0.010055, -0.00454356, 0.0184941, -0.00778402, -0.0288455, -0.00103369, 0.00814186, 0.0357068, -0.0543207, 0.00676354, 0.0292391, -0.0211845, -0.0692073, -0.0979554, -0.0840191, -0.0323873, 0.0208637, 0.043229, 0.0349017, -0.00427582, 0.00480139, -0.0527263, -0.052423, 0.0508929, 0.0435608, -0.013334, -0.0516495, 0.0253384, -0.0377488, -0.0828771, 0.00029649, -0.0519348, 0.0145431, -0.0185533, 0.0100625, -0.0439763, -0.00935876, 0.0350232, 0.0147389, 0.0541222, 0.0569619, -0.0573704, -0.0421372, -0.0059722, 0.0236015, 0.0206044, -0.0476787, 0.0409195, -0.0213483, -0.00770954, -0.0177478, -0.0425466, -0.00906196, 0.0214781, -0.0336649, -0.00321172, -0.0395871, -0.029794, -0.0105785, 0.0276065, -0.0305746, -0.00324684, -0.0329706, -0.0497652, -0.0696295, 0.0128843, 0.0168954, 0.0606225, -0.00713695, -0.0567139, -0.0690452, 0.0306411, 0.0265502, -0.0244788, -0.0298284, -0.0284588, -0.0272136, 0.0252629, -0.0172079, -0.0487241, -0.078253, -0.0257765, -0.0498277, -0.0361313, -0.0249305, -0.0528375, -0.0390915, 0.0456638, 0.00494813, 0.00377726, 0.0208035, -0.0162162, 0.0570867, 0.0491058, -0.00873989, 0.0165452, -0.00908933, -0.0398032, -0.0187536, -0.0344107, -0.0820561, -0.0747969, -0.0632001, 0.0125322, -0.00289462, -0.0341465, -0.0215827, -0.0547122, -0.0452517, -0.0810976, 0.00043769, -0.0285036, 0.0557041, 0.00740005, -0.0359915, 0.0448251, -0.00982443, -0.0294057, -0.0336304, 0.00795874, 0.0244257, 0.00576029, 0.0162827, 0.0184305, -0.0271545, -0.077684, 0.029867, -0.0914916, 0.0327968, -0.0639125, 0.0204796, -0.0401358, -0.0524474, -0.0439625, 0.0517022, -0.0275855, -0.00967255, 0.00323203, -0.00481401, 0.03788, -0.0534013, -0.0702119, -0.00483391, 0.0369935, 0.0150685, -0.041573, -0.0361519, 0.0329147, -0.0341529, 0.0169068, -0.0300996, -0.0134449, 0.0118793, -0.00591744, -0.0106768, -0.0393347, 0.0159568, 0.0061587, -0.0435293, -0.0581078, -0.0187352, -0.0132437, -0.00464895, 0.0129174, -0.00411159, -0.0461853, 0.0537143, -0.0586653, -0.0541498, -0.0298785, -0.0135707, 0.00998869, 0.0299456, -0.0131654, -0.0419141, 0.00752861, 0.0182112, 0.00252176, -0.00278038, -0.0614524, -0.0512105, -0.0370664, 0.0288084, 0.0197623, -0.0326645, -0.0517873, -0.0273707, -0.00286008, -0.00825273, 0.0539051, -0.00602956, -0.0340379, 0.0227908, 0.00669408, 0.036097, 0.00664977, -0.00492378, -0.0150032, -0.0048897, 0.0171094, -0.0565652, -0.00572977, 0.00753135, -0.0088859, -0.0379408, -0.022316, -0.0326265, -0.028618, -0.0459154, -0.0477255, -0.0238492, -0.0277841, -0.0842237, -0.0659046, -0.0602579, -0.0460057, -0.0600241, -0.0528854, -0.000499583, -0.0388894, -0.0214521, -0.00740216, -0.00617805, -0.0531802, -0.0570123, -0.0233591, -0.019574, -0.0744087, 0.00768544, 0.0438637, -0.0328335, -0.0577789, 0.00936662, -0.0762435, -0.0468579, 0.0104966, 0.0130455, -0.0611894, -0.0197499, 0.00704716, -0.0562044, 0.0178332, -0.0557482, -0.0423433, -0.0481077, -0.056095, 0.031512, 0.0222874, 0.0244697, -0.0320855, 0.0117011, -0.0278266, -0.056105, 0.015088, -0.0150633, 0.0724624, -0.0175343, -0.0483212, 0.0107314, -0.0299478, -0.0462245, -0.00590537, 0.0241202, -0.0399382, -0.00365463, -0.00227616, -0.0295804, -0.0133812, 0.0340049, 0.028019, -0.0140545, 0.00432422, 0.00589117, 0.0564533, -0.0450251, 0.0192532, 0.0117138, 0.0419723, 0.0346972, -0.0145024, 0.0581846, 0.051111, -0.00835656, -0.0666256, 0.00847854, 0.0445228, -0.0290996, 0.0505854, 0.060099, 0.0143779, -0.00817757, -0.0349864, -0.0413159, -0.0129558, -0.0307636, 9.68538e-05, 0.0163886, 0.0163068, -0.000218425, -0.0110728, 0.026075, 0.0208031, -0.0333893, 0.0413593, 0.0137444, -0.047944, 0.0603233, 0.0134641, 0.00388241, -0.0715349, -0.00389898, 0.0673775, 0.128638, 0.123397, 0.026355, 0.0600022, -0.0882623, -0.0443493, 0.0455476, 0.0845703, 0.0326154, 0.0112593, -0.0171412, -0.0943691, -0.0394197, 0.0434892, -0.0412472, -0.0550835, -0.0649722, -0.0260176, -0.0575278, -0.0587454, 0.0032434, 0.00556494, 0.015501, 0.0300961, -0.0576068, 0.0110319, -0.0956417, -0.0474138, -0.0536895, 0.016629, 0.0175771, 0.00710785, -0.0602458, 0.008543, -0.0274665, 0.0619699, -0.0124911, 0.0513319, -0.0773187, 0.0267259, 0.00402823, -0.0085862, -0.0227994, -0.0414054, 0.0314151, 0.000773794, -0.0746863, -0.100437, -0.0296809, 0.0437098, 0.0896591, 0.0444473, -0.0498234, -0.0310959, 0.0173591, -0.00806628, 0.0723125, 0.0476176, 0.00943255, -0.0249043, 0.00285725, 0.0449678, 0.0692205, -0.0244595, -0.0454316, 0.00038938, -0.0291961, 0.0434057, -0.0342795, 0.0227706, -0.00143035, -0.0388828, 0.0316318, -0.0234884, 0.0334627, 0.0809607, 0.0389607, 0.0292366, -0.0161203, -0.049432, -0.0956332, -0.0567364, 0.0148074, 0.0194991, -0.02036, -0.0393192, -0.0304402, -0.0286228, -0.00539824, 0.044922, -0.0415916, 0.0292485, -0.0502186, 0.00818747, 0.00725786, -0.010016, 0.00762877, -0.0236213, -0.0169074, -0.0429363, -0.0936939, -0.0410921, 0.00441376, -0.0112952, -0.081141, -0.00801973, -0.0171329, -0.0254154, 0.019172, -0.0546671, -0.0505072, -0.0340971, 0.00698537, 0.0203217, -0.0523606, -0.018551, 0.0271401, -0.0109424, 0.0171751, 0.00701129, 0.0379974, 0.0309328, 0.0260235, 0.0368198, -0.0228306, 0.0296245, 0.00554543, -0.0334601, -0.0322107, 0.0437622, 0.0416913, -0.0129157, -0.0245747, 0.0582418, -0.0284086, -0.0336778, -0.0225239, 0.0590605, -0.00080657, 0.0245488, 0.0357941, -0.0259876, 0.0343908, 0.0550661, 0.0218771, -0.0605904, -0.0175032, 0.0206986, 0.00963583, 0.0928911, 0.0064834, 0.0548586, -0.0331114, -0.0585834, 0.0624604, 0.0957833, 0.104972, 0.0713543, 0.0329344, -0.0471764, 0.0564422, 0.0351784, 0.0794134, -0.0291549, -0.0184324, -0.0179141, -0.0628809, 0.0502897, 0.0434338, -0.0429708, -0.0210276, 0.0233491, 0.00887961, -0.011925, -0.0612826, -0.0571075, -0.0779469, -0.0661439, 0.0123464, 0.0580125, 0.0815028, 0.062014, -0.022037, -0.063859, 0.00809693, 0.0664917, 0.0325796, 0.0746524, 0.0372388, -0.0433302, -0.0439282, -0.0185945, 0.0203864, -0.00127325, -0.0263373, 0.00325804, -0.0175445, 0.0256993, 0.0141313, 0.0080274, -0.0379489, -0.0950128, -0.0565059, -0.0602515, 0.0330501, 0.048412, 0.0610124, -0.0534487, 0.0283976, 0.0125884, -0.0101136, 0.0578155, -0.0257296, 0.0445757, -0.0529494, 0.0154055, -0.0317484, 0.00223188, 0.010702, 0.0631397, 0.0242848, 0.0198752, -0.0774631, -0.0675248, 0.0489017, 0.0749054, 0.0935915, 0.00683958, -0.0139082, -0.00268109, 0.0151237, -0.0385249, 0.0655015, -0.0426171, -0.0593806, -0.00969744, -0.0365041, -0.0364729, 0.0291204, 0.0338047, -0.00998684, -0.0119783, -0.045249, -0.013713, -0.0220712, -0.0202898, -0.0205142, -0.0171411, 0.047462, -0.0151757, -0.0498462, 0.00245323, 0.0198804, -0.0139299, 0.0322413, 0.0921759, -0.052319, 0.000151074, -0.00565248, 0.031125, 0.0337801, 0.074485, 0.0227145, -0.0183658, -0.0239899, -0.0593284, -0.0141762, 0.048854, -0.0645309, 0.053917, 0.0169172, -0.0427961, -0.101135, -0.0661968, 0.0325115, -0.00177908, -0.0472301, -0.0289169, -0.0602319, 0.0693407, 0.0481346, -0.00651148, 8.41482e-06, 0.0311663, 0.00569724, -0.0335231, 0.0170151, 0.0366938, -0.0198294, 0.0126785, -0.0145205, -0.0625806, 0.00461675, -0.0389694, 0.0322983, 0.03199, -0.000791253, 0.0134541, 0.0262732, 0.0616248, 0.0526852, 0.0364795, 0.0531835, -0.0412726, 0.0203339, -0.0185499, 0.0498647, 0.0585686, -0.0355942, 0.0258895, -0.01298, -0.0110614, -0.00496946, -0.01105, -0.000220185, 0.0385587, -0.047765, 0.0180432, -0.000122608, 0.0672082, -0.0293799, -0.0395426, -0.019164, -0.0122814, 0.0321804, 0.0732161, 0.069602, 0.0766032, -0.0334459, -0.0643398, 0.00668102, -0.00911854, 0.0732032, 0.0225231, -0.018793, 0.00939807, -0.0597613, 0.00429641, 0.0631493, 0.0355338, -0.0355741, 0.0119395, 0.00964448, 0.00918655, 0.0225078, -0.0354367, -0.00805487, -0.0496469, 0.010166, -0.027025, 0.013067, 0.0148632, 0.0236115, -0.000244106, 0.0450931, -0.0248561, -0.0471116, -0.0435881, -0.0389729, 0.00504858, 0.0557375, -0.00893276, -0.0429004, 0.0264279, -0.00193704, 0.0357375, -0.0190801, -0.00740257, 0.0164806, -0.0493141, -0.0172984, -0.00715073, -0.0581864, -0.0401171, -0.0160048, -0.0204898, 0.00800251, 0.0164693, 0.0101504, 0.0236281, -0.0107104, -0.0550036, 0.013396, -0.0133597, -0.0297882, 0.00775799, 0.0165941, -0.0304011, 0.00535384, 0.0232256, 0.0372702, -0.00844251, -0.0341097, 0.0256224, -0.0521324, 0.00145587, 0.0457483, 0.0465725, 0.00263453, 0.00916085, 0.0147514, -0.0159698, -0.0234371, 0.0490953, 0.0125376, -0.0387496, -0.0142547, 0.0475695, -0.00454365, 0.036711, -0.0606671, -0.0433422, 0.0347186, 0.0637837, 0.0138138, -0.0486612, 0.0320295, 0.0879131, -0.061369, -0.0117834, 0.00900676, -0.0261918, 0.0119921, -0.0243404, 0.0399934, 0.0598472, -0.000224725, -0.0647937, -0.0747454, -0.0109719, 0.0373575, 0.0095977, -0.0165718, 0.0551357, 0.0505061, -0.0126056, -0.0574862, -0.0509582, 0.0866849, 0.0285066, 0.0339175, -0.0129791, 0.0324252, 0.0622397, -0.0411542, -0.0491548, -0.0224918, 0.0272216, 0.0215671, -0.0163205, 0.0400695, -0.0109851, 0.00698352, 0.0528634, 0.00300517, -0.00189109, -0.0308574, 0.0414953, 0.0526888, -0.0138315, -0.00206413, -0.0469915, 0.00138621, 0.0766001, 0.0798003, 0.00716052, -0.0618405, 0.0223525, 0.059382, 0.0628561, -0.0132978, 0.0428223, 0.0180769, 0.0252316, 0.0256599, -0.0536879, -0.0138404, 0.0773696, 0.0672917, 0.0459221, -0.0287827, -0.0138458, 0.0898841, -0.0361897, -0.0177465, 0.0172579, 0.0714716, 0.0113232, -0.0764408, -0.0436457, 0.0590575, 0.0729996, -0.00744978, 0.0119027, 0.0417193, 0.000396715, 0.0712809, -0.0641942, -0.0550185, 0.0120721, 0.0352046, 0.000325339, 0.00576689, 0.0258959, -0.0295462, -0.00397987, -0.0546855, 0.0011008, -0.0492409, -0.0767313, -0.0713195, 0.0130918, -0.00952909, -0.0701616, -0.0411124, 0.0521918, 0.0571765, -0.00920873, -0.060647, -0.0374429, 0.000854944, 0.018291, -0.0535519, -0.0554775, 0.0544879, 0.0137285, 0.0201976, 0.0205126, 0.0612158, -0.00224891, -0.0602214, -0.0244457, 0.0598765, 0.037208, -0.000451571, -0.0601247, -0.027499, 0.0797736, 0.0226287, 0.0342106, 0.0327433, 0.0501257, -0.0187534, -0.0968048, -0.0504459, 0.014992, -0.00375364, 0.00977907, -0.00187921, 0.0127364, -0.00703179, -0.00926299, -0.033491, 0.0055739, 0.0626163, -0.0664983, -0.0457833, 0.0159837, 0.0571036, 0.0251564, -0.00562386, -0.040372, -0.000706995, 0.00283027, 0.015635, 0.0260917, -0.00840773, -0.0332444, -0.00646163, 0.0350551, -0.0419827, -0.055582, -0.0266153, -0.0355725, -0.0242341, -0.0103082, 0.0215962, -0.00624096, 0.0477824, -0.00433258, 0.00754999, -0.0257342, 0.0132604, -0.0789685, 0.0165064, -0.00957061, 0.0150786, 0.023643, -0.0635026, 0.00440137, 0.0271562, 0.0245288, -0.0300444, -0.0189332, -0.0509825, 0.0333481, -0.0387383, -0.0542056, -0.0599276, -0.0415542, -0.00714696, -0.00907406, -0.0422197, -0.0633163, 0.00692603, 0.0450361, -0.019723, -0.0352933, -0.0336566, -0.0189162, -0.000246127, -0.0162238, -0.0191296, 0.0918917, 0.0581843, 0.013705, -0.03761, 0.00209587, 0.0443094, 0.0496774, 0.00463969, 0.0458836, -0.00249609, 0.00987221, 0.0174082, -0.0245554, 0.0235196, -0.0291911, -0.0370435, 0.00446504, -0.0323081, 0.0217403, -0.00996065, 0.0431473, 0.0407833, -0.0266426, -0.0303306, -0.0481981, 0.0116935, -0.0326804, -0.00539801, 0.00326994, -0.0474855, 0.0326427, 0.0164224, 0.0486944, -0.00616638, 0.00071502, 0.0402927, 0.0188888, 0.0246205, -0.0148303, -0.0219149, -0.0211611, 0.0422246, 0.0448712, 0.0116875, -0.0244464, 0.0202541, 0.0305357, -0.0350469, -0.0211502, 0.00182348, -0.0691183, 0.0529892, 0.0100967, -0.0624201, -0.0611419, 0.0417964, -0.0401072, 0.00957666, 0.0395726, 0.0133491, -0.0206492, -0.00523952, -0.0671443, 0.0368585, 0.0195064, -0.0229386, -0.0287156, -0.0379708, 0.0393275, -0.0782076, -0.0118065, 0.00708976, -0.0141551, -0.0553822, -0.0929983, -0.0566988, 0.0152198, -0.0557689, -0.0266964, -0.0393003, -0.0487015, -0.00444135, -0.0598734, 0.00913533, -0.0664358, -0.0834744, -0.00789818, 0.0181879, -0.00840145, -0.0176502, -0.0662327, -0.0287799, -0.0228365, 0.00906264, -0.0866157, -0.0409144, -0.0164922, -0.0369552, -0.0892804, 0.022704, 0.098646, -0.00766045, -0.0174029, 0.00920016, 0.057521, 0.0643496, -0.0331519, -0.022242, 0.00389453, -0.0127741, 0.0081831, -0.024826, 0.00355059, -0.0523153, -0.0130469, -0.0483631, 0.0109361, -0.00197652, -0.0696914, 0.0548536, -0.00395805, -0.0135027, -0.0705262, 0.0500829, 0.0320605, -0.0626028, -0.0281139, 0.0421522, 0.0477864, 0.0339088, -0.0240102, -0.025788, 0.00260837, -0.0421601, -0.00920292, -0.0621358, 0.0410234, -0.0469704, 0.0191994, -0.0185115, 0.0344215, 0.0422253, 0.0402459, 0.0188353, 0.0257975, -0.0207772, 0.00328882, -0.0528134, -0.0289179, -0.0358482, 0.0369543, 0.0269919, -0.00815254, 0.0400971, 0.0532316, 0.0114974, 0.0276873, -0.0254194, -0.0275236, -0.0821359, -0.0114877, 0.00683841, -0.0303808, -0.0258341, -0.0830246, 0.0495519, -0.0117488, 0.0038922, -0.115672, -0.0136661, -0.00782473, 0.00499719, -0.0371579, -0.0587202, 0.0347219, -0.00640242, -0.0331122, 0.0231049, 0.0480047, -0.0337808, 0.0406362, 0.0388325, 0.00646221, -0.0556293, -0.0351004, -0.0232009, 0.0481206, -0.0365118, -0.0417899, -0.0213314, -0.023802, 0.0280816, -0.00383345, -0.0392839, -0.0261363, -0.00965501, -0.0132077, -0.0243191, 0.0549861, 0.0107186, -0.0617778, -0.0162144, 0.00656332, -0.00414401, -0.0359162, -0.0438285, -0.00907347, 0.0522353, 0.00396661, -0.0415252, 0.0362934, 0.0592415, 0.0543823, -0.0181502, -0.0581114, -0.00515307, 0.0212559, 0.00287165, -0.043692, -0.0584558, -0.0663596, -0.0396807, -0.00304122, -0.0630014, -0.061502, 0.0407993, -0.0388697, -0.0568789, -0.0359433, 0.0292928, -0.00286659, -0.0292094, -0.00920828, 0.0318951, 0.0492564, 0.0423103, 0.0416943, 0.00628323, -0.0536507, -0.00909728, -0.0170259, 0.0430134, -0.0589976, 7.08026e-06, 0.0899162, -0.0323241, 0.00477323, 0.0148519, 0.0276543, 0.0765309, 0.00460961, -0.0457247, 0.0569733, 0.0589155, 0.00856951, -0.0474964, 0.0189669, 0.0135706, -0.0453375, -0.027785, 0.000968211, 0.0323276, 0.0447628, -0.0340338, 0.00681249, 0.0333176, -0.0579648, 0.0292077, -0.0125662, -0.0523448, 0.0427472, -0.0022779, 0.0595037, -0.0467053, -0.00840025, 0.0459295, -0.00128928, -0.00246614, -0.046572, 0.0038826, 0.021381, -0.0406241, -0.0577885, 0.016805, -0.0543415, -0.0687441, 0.0372865, -0.0206754, -0.00502918, 0.0365608, -0.00385829, -0.0682647, -0.0207164, 0.0119711, -0.033333, 0.0394209, -0.0356286, 0.0176721, -0.0281253, -1.4402e-05, -0.00502768, -0.0575777, -0.111518, -0.0657996, -0.0156008, -0.0161998, -0.0408886, 0.0336378, -0.0428159, -0.0631002, -0.0645913, 0.0457306, 0.0432898, 0.0454334, 0.0247715, 0.0181263, 0.00581315, -0.0595681, 0.0432104, 0.0435884, 0.0384523, -0.0214579, -0.0613451, -0.0212112, 0.0341514, -0.0657525, -0.0172382, -0.0694453, 0.0235438, -0.035543, -0.0445761, 0.0463824, -0.024595, -0.0651369, -0.0135927, -0.00496787, -0.0326841, 0.0199665, -0.0105057, -0.0289552, -0.0360986, -0.0317839, -0.0539925, 0.0209067, 0.0415427, -0.0110595, -0.0386137, -0.0513143, -0.0550611, -0.0396081, 0.00784666, -0.0215951, -0.0242484, 0.0247818, 0.0106692, -0.0254604, 0.0132703, -0.0534607, 0.0644909, -0.0248427, 0.0205524, -0.0662095, 0.024542, -0.0385401, 0.00196532, -0.0279734, -0.0375196, 0.0337784, 0.0205825, -0.0155872, 0.0217586, -0.0483864, -0.0746407, 0.0227993, -0.0632791, -0.00515508, 0.0549785, 0.0125237, -0.0382503, 0.00181048, 0.0468679, 0.0191303, 0.0607506, 0.109465, -0.00685968, 0.0186103, -0.104839, -0.0319968, 0.0070062, -0.0109777, -0.0350264, -0.0712061, -0.0322765, 0.0277637, 0.0464155, 0.0540669, -0.0501842, -0.0731843, -0.0494201, -0.0875737, -0.00568847, 0.0631526, 0.0199267, 0.0297953, 0.029241, -0.0147491, -0.00725274, 0.0174671, -0.036042, 0.00354575, -0.0257702, -0.00709904, -0.045887, -0.0193514, 0.0125412, -0.0199049, 0.0301515, 0.063922, -0.00372842, -0.0143315, -0.0525125, -0.0468093, -0.0417605, -0.00566657, -0.00592726, -0.0623047, -0.00888557, -0.0356176, 0.0324842, 0.0210774, -0.00152269, -0.0135096, 0.0770635, -0.0304747, -0.0514546, 0.046039, -0.0271062, 0.0740922, 0.074968, -0.0122144, 0.0293228, -0.031448, -0.0431248, 0.0503304, 0.0753098, -0.0281385, -0.0913209, -0.0270534, -0.085414, -0.0100668, -0.00693475, -0.0490841, -0.0689213, -0.120688, -0.0637389, -0.059631, -0.0546765, 0.0282949, 0.0319509, 0.043016, 0.0729097, -0.0810197, -0.0494519, -0.0439174, 0.0154886, 0.0411773, -0.0207264, -0.03284, -0.0313308, 0.00189461, -0.0428341, -0.0382314, -0.0893018, -0.0411312, 0.00751774, -0.0269005, 0.0189365, 0.0166253, 0.0163431, -0.0115935, 0.0443821, -0.0294677, 0.0480719, -0.0415815, -0.0389275, -0.0301232, -0.0262268, -0.0543064, -0.0247055, -0.0142207, -0.0185713, 0.0473725, -0.0113426, 0.011665, 0.0098362, 0.00618283, 0.0362831, 0.0365672, 0.00278181, -0.064288, 0.0038007, -0.0443726, -0.0121227, -0.0453701, -0.0759191, -0.0536908, 0.0208179, -0.0462028, -0.00368452, -0.0372841, 0.0515789, -0.015034, 0.0480188, 0.0092926, 0.0352094, -0.0165243, 0.0394222, -0.012959, -0.00744543, -0.0164475, -0.0348218, 0.0454633, -0.000595325, 0.0368454, -0.0180946, 0.0265386, 0.0340222, 0.0378188, 0.0309105, -0.0141078, 0.0542953, -0.0037549, -0.0152823, -0.020411, 0.0483467, 0.0510665, 0.0569307, 0.0570657, 0.0495386, 0.00186337, -0.0454573, 0.00174086, 0.0217812, 0.049403, 0.0245981, -0.0257464, -0.0299798, -0.0212089, -0.0209926, 0.0581798, 0.033128, -0.0028937, -0.0488271, -0.0832416, -0.0637162, 0.02608, 0.0139332, 0.0129462, 0.00748956, -0.0473101, 0.0310988, 0.00102804, 0.0237157, -0.0215273, -0.0495462, -0.0430649, 0.0539412, 0.00885863, 0.0337826, 0.0152878, 0.0580323, 0.0331942, 0.0255995, 0.110481, 0.0730818, 0.0068891, -0.00992952, -0.0590878, 0.0012201, 0.00935629, 0.0447432, 0.0164407, -0.0248269, -0.058487, 0.00270675, 0.0290822, 0.00326576, 0.0131952, -0.00859172, 0.0668417, 0.0368928, -0.00544831, 0.0232647, 0.0268258, 0.0580205, 0.0464058, -0.0335211, 0.075291, 0.0265289, 0.0779122, 0.0504105, -0.0438111, -0.0785197, 0.00189099, -0.03046, -0.00196617, 0.0431154, 0.0652682, 0.0438316, 0.0570069, 0.0460556, -0.0653263, 0.0249961, -0.0183999, -0.0248664, -0.0313836, -0.00944573, -0.0048108, 0.0431321, 0.0083354, 0.0654111, -0.0771497, -0.0367697, -0.016153, 0.00277652, -0.000604636, 0.0456117, -0.0263466, 0.0340909, -0.0334376, 0.00455624, -0.0333718, -0.0869662, 0.012208, -0.0643549, 0.00889994, 0.077499, 0.0610201, -0.0342159, -0.0102412, -0.00775086, 0.00853897, 0.0439448, 0.00192007, -0.0122373, -0.00897281, -0.00806053, 0.00610508, 0.0863038, 0.019668, 0.0337685, -0.0240832, -0.0871611, -0.0482512, -0.00703565, 0.0375264, 0.0635865, 0.0328167, 0.0516292, 0.00920163, 0.0558982, 0.0178175, 0.0853611, 0.000518193, 0.0865779, 0.0766301, -0.0729434, 0.0245004, 0.0467399, 0.0254526, 0.0604288, -0.0265445, -0.0111134, 0.00419307, -0.0524023, 0.00068354, -0.0521167, -0.00761381, -0.101237, -0.0731368, -0.0919695, -0.00906585, -0.00849517, 0.0174756, 0.00564587, -0.00662647, -0.0257113, 0.00219207, 0.0157834, -0.0120847, 0.0237388, -0.0723263, -0.00512785, 0.0646118, 0.0229547, -0.00803424, -0.0516604, 0.000663316, -0.044598, -0.00509447, -0.0189831, -0.0304273, -0.0450307, -0.0273164, -0.0134861, -0.0693725, 0.0118775, 0.0350424, 0.0460137, -0.0414699, 0.0352257, -0.045153, -0.0264458, 0.00628057, -0.0120012, -0.0347942, 0.0464123, -0.0507007, 0.00781316, 0.0170969, -0.0372393, 0.048031, -0.00274895, -0.0382825, -0.0447184, 0.0102518, 0.0468759, -0.0339863, 0.0315325, -0.0171884, -0.0705262, -0.0161275, -0.0275233, -0.0222282, -0.0038905, -0.0333583, 0.0116792, -0.00634426, 0.0328099, 0.00207056, 0.0324463, 0.0207681, -0.00664517, 0.00423166, -0.042324, 0.0433788, -0.0412263, 0.013142, -0.0361824, 0.0306927, 0.0173095, -0.0562027, -0.0271684, -0.0195529, -0.0231742, -0.0388977, 0.0165615, -0.0229302, -0.0386923, -0.0459108, 0.00810069, -0.064319, 0.0418239, -0.0251789, -0.0162455, 0.0544551, -0.0395537, -0.00521678, -0.0381387, -0.00136064, 0.0352293, 0.0121708, -0.0458119, -0.0597939, -0.0338436, 0.033642, -0.0110182, 0.0229136, -0.0758659, -0.0705151, 0.0336739, -0.00176469, 0.0521053, 0.0074759, -0.0381303, -0.00550203, -0.0374358, -0.0534312, 0.0296613, -0.017426, -0.0469574, -0.080957, -0.0660557, 0.0256364, -0.049418, -0.0185965, 0.0161604, -0.0349751, -0.06409, -0.00984296, 0.0123043, 0.0376212, -0.00302905, 0.0243908, -0.0192605, 0.00432799, -0.0104643, -0.0117946, -0.0379717, -0.0143183, -0.0416574, -0.00634173, 0.00847798, -0.0132891, -0.0389951, -0.0113016, 0.0346666, 0.00584608, -0.0150619, -0.0410998, -0.071121, -0.009752, 0.00919173, -0.0836879, -0.0133881, 0.00517284, 0.0267355, -0.0215875, -0.0367692, 0.0266318, -0.0233519, 0.0368152, 0.0294992, -0.0278346, 0.0207414, -0.0415185, -0.0344327, 0.0139615, -0.0500328, -0.0456352, -0.0388909, 0.00605233, 0.0204475, -0.0613004, -0.00160309, -0.00921196, -0.0365935, 0.0376342, 0.0640516, 0.0131051, -0.0262945, -0.0464695, 0.0464367, 0.0155146, -0.0672044, 0.0103784, 0.0330963, -0.0285903, -0.0490439, -0.0203342, 0.0409709, 0.0149707, -0.0468778, -0.0425822, -0.0319622, -0.0948281, 0.0537331, -0.020853, -0.0163881, -0.0175303, -0.00900424, 0.0208831, 0.00110705, 0.0279136, 0.0873852, -0.000544228, 0.00657554, -0.0120759, 0.0782669, 0.0660859, -0.0220527, 0.031927, -0.0174091, -0.0399625, 0.0240128, 0.0226941, -0.0311462, -0.0400542, -0.069789, -0.0336143, -0.0438162, 0.0194984, 0.020562, 0.0052977, 0.0188528, 0.0200171, 0.0358982, 0.022262, 0.0545758, 0.146176, 0.108686, -0.0527872, 0.00407152, 0.0499014, 0.0431079, -0.0171965, -0.0337616, -0.0283804, 0.0341771, -0.0524901, -0.0147712, -0.0264947, 0.0261171, 0.00623977, 0.0511006, -0.0276315, -0.0718685, 0.0252882, 0.0173129, -0.0305567, -0.0270736, 0.000270486, -0.0103814, 0.0180204, -0.0566644, -0.023737, 0.0116741, 0.0327157, 0.033461, 0.0220824, -0.0134637, 0.00664977, 0.0210794, -0.00793948, 0.0328047, -0.0329186, -0.0219151, -0.0182288, 0.0142864, 0.00799231, -0.0488888, -0.0360852, 0.0269557, 0.00276913, -0.0544584, -0.0381915, -0.0242814, -0.0249264, -0.0382528, -0.019291, -0.0193093, -0.0482626, -0.00105106, 0.0112545, 0.0207346, -0.0182634, 0.00287958, 0.00594012, 0.0330799, 0.0833524, 0.0310298, -0.0620488, -0.0299323, 0.0122849, 0.000761553, -0.0492219, 0.0188546, 0.0506651, 0.00331607, 0.0229495, 0.00159336, 0.0269336, -0.00747035, 0.0536331, 0.0607726, 0.0612527, 0.0174847, -0.0073354, -0.028194, 0.0397297, -0.0644481, 0.0299265, 0.0227254, 0.0622997, -0.0537731, -0.060887, 0.0050965, 0.0114722, 0.0219489, -0.078833, 0.0232885, -0.0280973, -0.00148198, -0.0419122, -0.0593357, -0.00173029, -0.032938, -0.0330681, 0.0406712, -0.0732655, 0.0101923, 0.0517647, -0.040874, -0.0105057, 0.00492172, -0.0225346, -0.0266189, -0.0256283, -0.0231651, -0.0208075, 0.00134186, 0.0390135, 0.00868186, -0.0450937, 0.000731049, 0.0214979, -0.00118759, 0.0112929, 0.0112405, -0.0393461, -0.0563269, 0.0180459, 0.0271067, 0.0378224, -0.0322442, -0.0493361, -0.029912, -0.0142042, -0.0286765, 0.0293229, 0.0196186, -0.0365918, -0.0355734, 0.0526542, 0.0503487, -0.0480814, -0.0158586, 0.0204963, 0.00984685, 0.0328587, 0.027412, 0.00725657, -0.0365768, -0.0630928, 0.00844664, -0.0430182, 0.0187995, -0.0445012, 0.052213, 0.0217977, -0.00978913, -0.0227695, -0.0510479, -0.0342235, -0.0298, -0.0339862, -0.0326796, -0.0383722, -0.0169212, -0.0147299, -0.0127918, -0.00924364, 0.0597754, 0.0652975, 0.0720169, 0.0960961, -0.0531539, -0.0231887, 0.00751925, 0.0958882, -0.00638207, 0.018669, 0.0300872, -0.0378482, -0.0676017, -0.0584583, 0.0498564, 0.0447225, 0.0107118, -0.0253818, -0.0179948, -0.0354993, -0.0159521, -0.0122284, -0.005634, -0.0352898, 0.0242603, 0.0105161, -0.0183797, 0.0834907, 0.0886672, 0.00536003, -0.00506115, -0.0254421, 0.0298796, -0.0496238, -0.0437946, -0.0334977, -0.063366, -0.0333574, -0.0258699, -0.0272994, -0.00569557, 0.0167171, -0.0244137, -0.0284329, -0.0425024, -0.0683245, 0.0160646, 0.0577223, -0.0125699, -0.0746515, 0.0169473, -0.0504901, -0.0370652, -0.0417707, 0.0273359, -0.0114535, 0.0284597, -0.0156227, -0.0137124, -0.0168008, 0.044454, 0.0100495, 0.0425421, 0.0372893, -0.0132922, 0.0477226, -0.00871308, 0.0551678, 0.0411196, -0.0294176, -0.049135, -0.0116203, -0.0292186, -0.0184851, 0.00493771, 0.0332071, 0.0121925, 0.0412257, 0.00535362, -0.0332941, 0.00470035, 0.0548901, 0.0095074, -0.00450057, -0.0526844, -0.0673409, -0.0523719, -0.0232446, -0.077996, -0.00553117, 0.0015418, 0.0201779, 0.0252824, 0.0218573, -0.0569147, 0.00828199, -0.0480674, 0.068165, 0.083754, -0.00862841, -0.0821837, -0.0660822, -0.0286424, -0.0374111, -0.0671499, -0.0241079, -0.0828915, -0.0592107, -0.0547582, -0.0224829, 0.00497651, -0.0378178, 0.0410558, 0.016872, -0.0364679, 0.05592, 0.0450175, 0.0555142, 0.0342294, -0.0544535, -0.0372287, -0.0483348, 0.0638201, 0.00778726, 0.0201916, -0.077379, -0.0312181, -0.0473559, -0.0524269, 0.0260159, -0.0370927, -0.00764668, -0.0101725, -0.0638851, -0.00693717, 0.00161702, 0.0453187, 0.0282109, 0.0663325, -0.00238662, -0.0470688, -0.0209975, 0.00843059, 0.00246648, -0.0491167, -0.0218273, -0.00796647, 0.0623245, 0.0324623, 0.0235461, 0.0503548, -0.0427042, -0.0111707, -0.0372298, 0.0234128, 0.0584929, -0.023259, 0.0315628, -0.0378128, -0.0146285, -0.0180421, 0.0491517, 0.0682454, -0.00850832, 0.0365809, -0.0525503, -0.0214962, -0.043448, 0.029117, -0.0370247, -0.00648375, -0.024333, 0.0353878, -0.00771064, -0.00221704, 0.00421686, 0.024753, -0.0452997, -0.0240161, -0.0243406, -0.0748156, -0.00684037, -0.0381745, 0.00495058, 0.0237132, 0.0113906, -0.0629013, 0.0161456, -0.0827916, 0.0118864, -0.0321981, 0.060584, -0.011533, 0.0258154, -0.0549188, -0.0193365, 0.0497282, -0.0235066, 0.0191398, -0.00688355, -0.0282374, -0.0564046, -0.0760011, 0.0145188, -0.0478645, -0.0630055, -0.0113719, 0.0363855, -0.0377936, 0.0234065, -0.033217, -0.0509883, -0.0120667, -0.0209789, 0.0259062, 0.0172493, 0.00026896, -0.0647519, -0.0313366, -0.00896114, 0.00084314, 0.0031992, -0.0378693, -0.0160201, -0.0119287, -0.0311653, 0.0375902, -0.0503619, -0.0646655, 0.0152557, 0.0356239, 0.000886693, -0.0475391, -0.053928, -0.0318745, -0.0766822, 0.0253444, 0.0295603, -0.0389034, -0.0503866, -0.0241093, -0.0338089, 0.0120913, 0.0295899, 0.00320616, -0.0416872, 0.0224997, -0.0132671, 0.0515929, -0.00409663, 0.0286089, 0.0398275, -0.0461543, -0.0201016, 0.00751306, 0.0132405, -0.000367789, -0.0274525, 0.0402726, 0.00508415, -0.0513618, 0.0298019, -0.0124391, 0.00604652, 0.00601108, -0.0493508, 0.030776, -0.0167806, -0.0138399, 0.0172586, -0.0308472, -0.0491196, 0.0159367, -0.00305644, -0.0262711, -0.00429009, -0.0148671, -0.036064, 0.001888, -0.00822536, -0.0353771, -0.0409245, -0.0541636, -0.0644538, 0.0231897, -0.00373714, -0.0252446, -0.031145, -0.0110322, 0.00177456, 0.0368528, -0.0389678, 0.022035, 0.0223512, 0.0144042, 0.0219395, -0.0406565, 0.030732, 0.0310393, -0.00504819, -0.016463, 0.0605453, -0.0356137, -0.052637, -0.0381243, -0.000875105, 0.0337624, 0.0369964, 0.0431778, -0.0590991, -0.042848, -0.0616141, -0.0124715, -0.0413618, 0.0541785, -0.00568558, 0.00982391, 0.000689534, 0.00797309, -0.0175996, -0.0305497, 0.0255069, -0.0163867, -0.0480078, -0.0236456, 0.0224451, 0.0673877, -0.00332244, 0.0688084, 0.0255591, -0.0490731, 0.014809, 0.0426576, 0.0164251, -0.0377763, -0.0142707, -0.00987856, -0.0847779, 0.0673496, -0.054222, -0.031239, 0.035594, 0.0203332, -0.081731, -0.0562006, 0.0433765, 0.00733307, -0.0419466, 0.0457201, -0.0650806, -0.0471575, -0.000765977, -0.0700297, 0.0270362, -0.0100713, 0.0156916, 0.0442577, 0.0180124, -0.0221303, 0.0363086, 0.0374817, 0.0497444, 0.00423683, -0.0284845, 0.0311368, 0.0241271, -0.0428667, 0.013038, 0.064221, -0.000901153, -0.071725, 0.0142837, -0.0739976, -0.00255023, 0.0142166, 0.00270068, -0.0338915, -0.0505251, -0.0686767, -0.00819273, 0.0135655, -0.00284061, 0.0289851, 0.0441403, -0.0570553, -0.0360265, -0.0647681, -0.00601394, 0.0720247, 0.0264206, 0.00969946, -0.0546683, 0.0323581, 0.0195163, -0.0457798, 0.00188649, -0.0406545, -0.0575838, -0.0213302, 0.0124693, 0.0478549, -0.016316, 0.00392325, 0.0143236, -0.0649484, -0.00552815, 0.0224059, 0.00330526, -0.0192821, -0.0501284, -0.0710757, 0.00253767, 0.0370529, 0.0455652, 0.0443573, 0.0260328, -0.0560795, 0.0287756, -0.0600804, -0.0512347, -0.0507316, -0.0402248, 0.0247162, 0.0378583, 0.00949649, 0.0297961, 0.0334402, 0.00744631, -0.0459841, 0.0677241, -0.0220675, -0.0112792, 0.0167369, -0.0433922, 0.0678747, -0.0329596, -0.0286271, -0.0169462, -0.0101058, -0.0643423, -0.0482749, -0.0478354, 0.0165259, 0.0160265, 0.0315451, -0.0156813, -0.0287887, -0.0453008, -0.0135989, 0.018853, -0.0326883, 0.0619147, 0.00265555, 0.0190766, 0.0375412, 0.0333741, 0.0285174, 0.00616519, 0.0505776, 0.00019228, -0.039629, -0.0110569, -0.0234409, -0.0073146, -0.0332817, 0.00150987, 0.00912898, 0.0343422, 0.00152192, 0.00740602, -0.0142932, -0.0169089, 0.0246717, -0.0203821, -0.0362518, -0.0569577, 0.0337316, 0.0340806, -0.00866251, -0.0533677, -0.0258463, 0.0743344, -0.00573601, 0.019235, -0.0339681, -0.0571598, -0.0213233, 0.00230576, 0.077074, -0.0257952, 0.013474, 0.00940999, -0.0175001, 0.0649601, -0.0586718, -0.0384165, -0.0315613, 0.0512818, -0.00743691, -0.0515992, -0.00919469, -0.0177204, 0.0255306, -0.00212708, 0.0672476, -0.022623, 0.0702594, 0.0420542, -0.0111448, 0.0723488, 0.00736537, 0.000747129, 0.037828, -0.0163191, 0.0175458, 0.0218783, -0.00323247, -0.0427176, 0.0487639, 0.00957495, -0.0154162, 0.0500036, 0.0273393, 0.00720461, 0.0115031, 0.033883, 0.00218481, -0.0449492, -0.0576195, 0.0388328, 0.0237047, 0.0178447, 0.0266038, -0.0231024, 0.011816, 0.00777426, 0.0667801, 0.00841832, 0.0389829, 0.0134439, -0.0430861, 0.00991499, -0.0321941, 0.0429995, 0.0565784, 0.0177248, -0.0447348, -0.032247, -0.032631, 0.053423, 0.0584329, 0.0554975, 0.0614363, 0.0400115, -0.0270812, -0.00382601, 0.0628638, -0.00179185, -0.00405377, -0.0222533, -0.0548749, -0.0709848, 0.025204, 0.015654, -0.00932965, 0.0133671, -0.0230247, -0.0451758, 0.0153384, 0.0196531, 0.0250967, 0.0311715, 0.0318531, -0.0152074, 0.0361496, -0.00395429, -0.0459751, 0.0200183, -0.0623071, 0.0519729, 0.045541, -0.000253826, -0.0548236, 0.0167639, -0.0462816, 0.00591811, 0.04729, -0.00839423, -0.068964, 0.0322134, 0.0143981, -0.0137437, 0.0417372, 0.0470248, -0.0105722, -0.00129935, -0.0693174, -0.0605283, -0.0420553, 0.068201, 0.0128476, 0.023806, 0.0192412, 0.00119978, 0.0253553, -0.0219069, 0.0267946, -0.0292176, 0.00598321, 0.0182082, -0.00147562, 0.0313731, -0.00692898, 0.0142855, -0.0344018, 0.000805855, -0.0274284, -0.0432373, -0.0299674, 0.0400096, 0.0165637, -0.0227357, -0.0482817, -0.0248737, 0.0514765, -0.0136703, 0.063957, 0.0260133, -0.0469028, 0.0404827, -0.0194553, 0.0346594, 0.0588184, 0.0331098, 0.0457744, 0.0281337, -0.0507702, -0.0574513, 0.00819485, 0.000561743, -0.0335311, -0.03643, 0.00652661, 0.0177902, 0.0214695, -0.0393426, -0.0314407, -0.0356985, -0.00643983, -0.0445491, -0.0267822, 0.00779821, -0.0104949, 0.0274206, 0.0396478, 0.0481376, -0.0116642, 0.0104294, 0.0449456, -0.0172337, 0.0384539, 0.0274102, 0.00427957, 0.0695012, -0.0208596, -0.0146516, 0.0600176, -0.0504794, -0.000245325, 0.0214756, -0.0126904, -0.0354947, -0.0175333, 0.0407681, -0.0243423, -0.0568809, -0.0321926, 0.0181828, -0.04448, -0.0397532, -0.0241328, 0.0449229, -0.0212668, -0.0558574, -0.0590676, 0.0043883, 0.0492401, -0.00283645, -0.0483194, -0.0100699, -0.0144765, 0.00399292, 0.039481, -0.030265, 0.00568267, -0.0198627, -0.0135135, -0.013219, 0.0158851, 0.017457, 0.034088, -0.00486493, -0.034469, -0.000229597, 0.00338262, -0.0029424, -0.0213167, -0.00218523, 0.0580104, 0.00926739, 0.0192703, 0.0250321, 0.0492866, 0.0799475, 0.00521558, -0.0375619, -0.0387968, -0.0316886, -0.0110506, -0.0252197, -0.0079749, 0.0433219, 0.0324288, 0.00156633, -0.0261022, 0.0292623, 0.0670527, 0.00746743, -0.0167712, -0.0539232, 7.87769e-05, 0.0101936, 0.0045213, 0.032885, -0.0195388, -0.0114937, 0.0241995, -0.0273499, -0.0294438, -0.042291, 0.0290924, 0.00374455, 0.000599605, -0.0376638, -0.0655668, -0.0407271, -0.052767, 0.0347733, -0.0320789, 0.0266655, 0.0254277, 0.0544085, 0.0465016, 0.0389101, 0.00747362, 0.0572201, 0.0127352, 0.0199066, 0.0265253, -0.0515561, -0.0192812, -0.00284447, 0.0263389, -0.0438847, -0.040733, 0.0434556, 0.0609801, -0.0552254, 0.0553278, 0.04621, 0.0377794, 0.0208983, 0.00125207, -0.0145703, -0.00489165, -0.0637296, 0.0288021, 0.00874314, 0.023885, 0.0627184, 0.03718, -0.0219424, 0.0560084, 0.0469109, -0.0233393, 0.0560455, -0.0224007, 0.0246113, 0.0226715, 0.0209725, 0.0278526, 0.00790998, -0.0328392, -0.0399709, 0.0184192, 0.0152452, 0.0466278, -0.0347818, 0.00144266, 0.0445799, -0.0292135, -0.048221, -0.0078093, 0.0102756, -0.00501919, 0.0274422, 0.0544826, -0.032306, -0.0196907, 0.0538689, -0.0351767, -0.0164105, -0.0386515, -0.0452036, 0.0532426, 0.0451819, 0.000284141, -0.00282912, -0.0160705, 0.0191794, 0.0866656, 0.0695251, 0.0637901, 0.0639194, -0.0443125, -0.0562921, -0.0350891, -0.0779745, -0.0402208, -0.0489014, 0.0732307, -0.0129732, 0.0356279, -0.0315448, -0.0733866, -0.0631152, -0.06645, -0.0206962, -0.00932387, -0.0607495, -0.0870023, -0.00658019, -0.0505463, -0.0693857, 0.0100283, -0.0481814, -0.0203935, 0.0181051, -0.0763175, 0.0475859, 0.0411954, 0.000148975, 0.0161402, -0.0223528, 0.0123287, 0.010915, 0.0625059, -0.0296483, -0.0138448, -0.0410176, -0.058412, 0.0311288, -0.0219823, 0.00708761, -0.0334769, -0.0509325, 0.0235057, -0.034744, -0.0478495, -0.0116933, -0.0439916, -0.0437942, -0.0225767, 0.00442719, 0.0119879, -0.00514546, -0.0143584, 0.017728, -0.0204031, 0.0334783, 0.0398728, -0.0572841, 0.0543732, -0.0279931, 0.0285618, -0.0404999, -0.0315838, -0.00293487, 0.0130782, -0.06826, 0.00711544, -0.00653979, -0.048824, -0.0726245, -0.0106603, 0.0318939, 0.0237455, 0.0460583, -0.0468756, -0.0288959, -0.0727377, -0.0411656, -0.0175792, 0.0406395, 0.00721804, 0.0585318, 0.035615, -0.00163987, -0.0299224, -0.0428951, 0.0134003, -0.0466482, -0.0311859, 0.0203686, -0.0112412, -0.0461087, -0.008173, 0.0340004, -0.0621308, -0.0257809, 0.0118113, -0.0635268, -0.00934574, -0.0415453, -0.0056388, 0.00407016, 0.0217935, -0.0389864, 0.0638209, -0.0535969, -0.0547502, 0.00403103, -0.00668454, -0.0119006, -0.00926386, 0.0309472, -0.0162162, 0.0563845, 0.0480679, -0.0395503, 0.0500234, 0.0708378, 0.0453496, 0.0275472, -0.0496934, -0.02519, 0.00341489, 0.00302982, 0.0490352, 0.0100809, 0.0631345, 0.0813624, -0.0147386, 0.0499422, 0.0341477, 0.0412743, -0.0105466, 0.000876123, -0.00202662, 0.0180278, 0.0200179, 0.0722652, 0.00439628, 0.0069596, -0.00582604, 0.0474254, -0.0428377, 0.051287, 0.050009, -0.0382515, 0.0494577, -0.0243328, -0.0482106, 0.0224285, -0.0453874, -0.00420525, 0.0586954, 0.0495546, -0.0406999, 0.037613, 0.0497574, 0.0284184, 0.0173134, -0.00598191, 0.0415879, -0.0178488, 0.0173757, 0.0166205, -0.00193476, 0.0228052, -0.0296728, -0.0093001, -0.0514203, 0.00615829, 0.00483054, -0.0738075, -0.036048, 0.0314767, -0.0108189, 0.0683648, 0.100569, 0.0730397, 0.0310727, -0.00306821, 0.0312734, 0.0312118, -0.00984848, -0.0503106, 0.00150768, 0.00918084, -0.00792401, 0.00502918, 0.0542567, -0.0297909, 0.0556213, -0.040377, -0.0098628, 0.0223416, 0.0298568, -0.0595591, -0.00927376, 0.0163421, 0.0410986, -0.030011, 0.0296402, 0.118764, 0.068256, -0.0033392, 0.0256682, 0.0310821, -0.00988531, -0.00797755, 0.00974755, 0.0293657, -0.0167094, -0.018252, 0.0155941, 0.00279731, 0.0084882, -0.0451158, 0.00237819, -0.0473916, -0.0104649, -0.00788346, 0.00349894, 0.0695254, -0.0042693, 0.0382549, -0.0456907, -0.0257715, -0.0388652, 0.0248183, 0.0173586, 0.0346926, 0.0149672, 0.0496187, 0.0360955, -0.00520861, 0.00137996, -0.0633646, 0.0412774, -0.00550176, -0.00624341, -0.0485612, 0.000236036, 0.021461, -0.0436205, -0.038653, -0.0026359, -0.019011, 0.019699, -0.0196281, 0.0349256, -0.0386317, -0.0268208, 0.0921473, 0.06363, 0.0362011, 0.0234827, -0.0448542, -0.0110654, -0.00628041, 0.036004, -0.0298719, -0.0195183, 0.038112, -0.00251575, 0.0213804, -0.0404849, -0.0378102, 0.0482307, -0.0219124, -0.0421556, 0.0170697, -0.00412086, -0.00790483, 0.0111809, 0.0291011, -0.0528228, 0.0104459, 0.0506348, -0.00177692, 0.0135333, 0.0197653, -0.0123123, -0.06421, -0.0392569, -0.0080699, 0.0362535, 0.000112296, -0.0383397, 0.0342074, -0.0323279, -0.0290683, -0.0664669, 0.0322772, -0.0109534, -0.0145069, -0.053137, -0.0358222, 0.0344886, 0.0641681, 0.0982135, -0.0146809, -0.0133965, 0.0275969, 0.0082998, -0.0213409, -0.0416162, -0.00214101, 0.048468, 0.0384702, 0.0774322, -0.0306106, -0.00540994, -0.00775299, -0.0195944, 0.0190164, -0.0234878, 0.0479418, -0.0496037, 0.0293015, 0.0296441, -0.00465397, 0.0315533, 0.030198, 0.0429919, 0.0255678, -0.015621, -0.0306728, -0.0092181, -0.038116, -0.0417031, -0.0314099, -0.0208117, -0.00973427, 0.0318089, 0.0220076, 0.0620276, -0.0172454, -0.0372614, 0.0586322, -0.0300497, -0.00448738, 0.0103672, -0.0489356, -0.0211899, 0.0501114, 0.0468832, 0.0157704, 0.00574349, -0.0124824, 0.0312821, -0.0194447, -0.0501772, -0.0472196, 0.072962, 0.0114879, 0.0256365, 0.0159086, -0.0499069, 0.0248115, 0.024176, 0.058616, 0.0194275, -0.0451918, 0.0198057, -0.0096999, 0.0329629, 0.0333425, -0.00427439, 0.0186702, 0.0224503, 0.0317484, 0.0289004, 0.0362448, -0.0439436, 0.0038547, -0.0157363, 0.0364195, -0.0358112, 0.0325245, -0.0124749, -0.0127514, 0.0165602, 0.0182536, 0.0107098, 0.000992363, -0.0177311, -0.0598906, 0.0433687, 0.0314232, -0.0238143, -0.0450966, 0.0420126, -0.000194603, 0.0108772, -0.0601231, 0.00428692, -0.00529712, -0.0171411, -0.01255, -0.0147039, -0.0268649, 0.0362308, -0.0376239, -0.0520131, -0.038003, -0.0211054, -0.0171333, 0.00876802, -0.0942176, -0.0875352, -0.0590648, 0.035331, -0.0477803, -0.0265068, 0.0577078, 0.056411, 0.00971531, 0.00360136, 0.0514407, 0.0910607, -0.0210902, 0.01355, 0.0352708, 0.0260298, 0.0130245, -0.0416046, 0.0339513, -0.0479546, 0.0454735, 0.0289431, -0.112226, -0.0292568, 0.0203209, -0.0157905, -0.0855188, 0.0125224, -0.0280044, -0.0311494, -0.058111, -0.0430455, 0.0220259, -0.0448403, -0.000982323, -0.00429327, 0.022951, -0.0283321, 0.0245159, -0.0421715, 0.0210982, 4.58337e-05, 0.0674103, 0.00423311, 0.0258827, -0.0410217, 0.0226864, 0.0469586, 0.0418007, 0.0153284, 0.0222019, 0.0541719, 0.031599, 0.019363, 0.0388459, -0.0319442, -0.00778901, 0.00760957, -0.0309404, -0.021773, -0.0670142, -0.0254874, 0.0120809, -0.0641848, 0.0348874, 0.0143587, -0.0316532, -0.0608614, -0.0207244, -0.0290771, -0.053822, -0.0111511, 0.0568116, -0.0291414, -0.0322426, 0.0834728, 0.102568, -0.0125894, 0.0100605, 0.0755875, 0.0680131, 0.013901, -0.0609475, 0.0689701, 0.0783431, 0.0637366, -0.0395985, -0.0259401, -0.0480683, 0.00740945, -0.000442423, -0.0673106, -0.108114, -0.0611696, -0.0566253, -0.0501421, -0.0880675, 0.0407983, -0.0772133, -0.0503962, 0.05163, 0.11567, 0.0903201, -0.0270076, -9.68091e-05, 0.0998446, 0.125835, 0.00432424, 0.0378897, 0.0522697, 0.0282909, 0.00341299, 0.0615105, 0.0153945, 0.0182942, 0.0332669, -0.0321622, -0.0377632, -0.0019647, -0.026723, 0.00983666, -0.0829679, 0.00997854, 0.00125421, -0.019249, 0.00632756, 0.0145914, 0.045015, 0.0117048, -0.0287155, 0.0524098, 0.0129346, -0.000245752, -0.0294891, -0.0503237, -0.0210955, 0.00816104, -0.0027862, -0.0271917, 0.0503574, -0.0226184, -0.0731378, -0.0712986, 0.0129519, -0.0194348, -0.0930949, -0.00813773, -0.0271144, -0.0413915, -0.0399261, -0.0409837, 0.00953351, -0.0697077, -0.0446752, -0.0201234, -0.0188567, 0.00930175, 0.00896235, -0.05265, 0.000642799, 0.0133851, 0.043775, 0.0667376, 0.0358464, -0.0471324, 0.0264921, 0.018431, -0.0326567, -0.00827239, 0.0249047, -0.074436, 0.00805117, 0.0569049, -0.0186647, -0.0328446, 0.0180343, 0.116987, 0.0606864, 0.0314238, -0.00292682, 0.102618, -0.00402723, 0.0315977, 0.0855887, 0.0362321, 0.0602891, -0.0088571, 0.0474537, 0.016264, 0.0277317, -0.00619322, 0.0780899, 0.0653643, -0.0113253, -0.0119932, -0.0249592, 0.0499909, -0.0509435, 0.0303639, 0.0343302, 0.0648508, -0.0494313, -0.0710061, 0.0424658, 0.0082643, -0.04798, -0.0911412, 0.0442857, 0.0497527, -0.0329875, -0.0542795, 0.0499487, -0.0343554, -0.0304923, 0.0140832, -0.0168167, -0.0278883, 0.0358552, -0.0178882, -0.0278862, -0.0138516, 0.0400975, -0.0540827, -0.0305912, -0.00285277, -0.00485962, 0.0441119, 0.0224525, 0.0470092, -0.045389, 0.0226233, 0.0465321, -0.00383473, 0.0210854, 0.000666891, 0.0471812, 0.0181448, 0.0294085, 0.00958536, 0.0773086, -0.0339925, -0.0812196, -0.0227152, -0.014059, -0.00590573, -0.0225053, -0.0292098, 0.0100544, 0.019206, -0.0320593, -0.00378157, -0.000146907, 0.00276658, -0.0321353, 0.0165701, -0.0629017, -0.063412, 0.048756, -0.0046445, -0.0107714, -0.0189598, 0.0679386, 0.016354, 0.0439737, -0.060456, -0.0233981, -0.0135601, -0.0397316, -0.0230862, -0.059748, 0.0450891, 0.00110965, 0.00816791, 0.0229209, -0.00859247, 0.0560125, -0.0492999, 0.0194282, 0.0520917, -0.0450335, -0.0387743, 0.0408587, -0.0109317, -0.066658, -0.0552937, 0.0179357, 0.0458755, -0.00788723, 0.069676, -0.0528205, -0.0515866, -0.0468172, -0.00865599, 0.00728486, -0.0314666, -0.0370047, -0.00698536, -0.0669724, -0.0356488, 0.0510581, -0.0581644, -0.0548136, 0.00811575, -0.0439315, -0.0566093, 0.0242928, 0.0827637, 0.0331473, -0.0432604, 0.00551092, 0.0023614, 0.0176012, -0.0450628, 0.0354561, 0.00620903, 0.0445194, -0.0608332, -0.0384224, 0.00372884, -0.0249582, -0.0831613, -0.0299156, 0.0438376, -0.0275571, 0.00347381, -0.0130453, -0.0126951, 0.0185003, -0.0319238, -0.0136927, 0.075747, -0.0192144, -0.0113861, 0.0108984, -0.0290591, 0.0388364, -0.0442087, 0.0432886, 0.05507, -0.035815, 0.0414845, 0.0551957, 0.0240415, -0.0342419, 0.00810689, 0.0239982, -0.0444582, -0.0578905, -0.0140049, -0.00424444, 0.00275618, -0.0394523, 0.0332096, -0.0108483, -0.020689, 0.0148634, 0.0420817, -0.036443, -0.0119389, 0.0398583, 0.030431, -0.00625792, 0.00177767, 0.041301, -0.00289654, -0.0532518, -0.0630051, -0.0881491, 0.0400212, 0.00307582, -0.0989015, -0.0495523, -0.069237, -0.0616818, -0.0290865, -0.0831759, 0.0296115, 0.0042217, 0.0192371, -0.0215294, 0.0687763, 0.0484262, 0.0325415, 0.0450132, -0.0371687, -0.0481637, 0.0519116, 0.0166813, -0.0164841, -0.0195473, -0.0422923, 0.0060745, -0.081205, -0.0425532, -0.0665372, -0.0423677, -0.0547833, 0.0239119, -0.0484657, -0.0349635, -0.000972591, -0.00162819, 0.0407444, -0.0425051, -0.0219736, 0.0439424, -0.0148128, 0.0532863, -0.0128235, 0.0831326, 0.0315072, 0.0403384, 0.0367903, -0.0289979, 0.0120857, -0.0147489, 0.027367, 0.0394695, 0.0132193, -0.0581797, -0.0537808, -0.0260124, 0.00827631, 0.023261, -0.0310284, 0.0345686, -0.0170981, -0.0298215, 0.000582378, -0.0141739, -0.00520637, -0.064143, 0.0244136, 0.0144574, 0.0571434, 0.0438448, -0.0486789, 0.0380907, -0.0110693, 0.015856, 0.0268277, -0.022229, -0.0358942, 0.00562646, -0.0481894, -0.0735159, -0.0301845, 0.00505643, -0.041857, -0.0299045, 0.0330264, -0.0320034, -0.0320376, -0.0300907, 0.0385899, 0.0563865, -0.00467917, -0.0756172, 0.0137305, -0.0400717, -0.00383987, -0.0257698, 0.0308365, 0.0279839, -0.019841, -0.0419119, -0.0250028, 0.0235473, 0.0180326, 0.0140097, -0.0333972, 0.0494202, -0.05607, -0.0245779, -0.0155337, 0.0650316, 0.0303662, -0.0740975, 0.0594412, 0.027016, 0.0330621, -0.0757459, 0.0430898, 0.0585725, 0.0104723, -0.0669048, 0.0655211, -0.0467712, -0.0332873, -0.0429443, 0.00375289, 0.00869799, 0.0497326, -0.0429514, 0.0302398, -0.0524083, 0.00536756, 0.0416261, -0.0949469, 0.014631, 0.0407935, -0.0250301, 0.0490412, -0.084195, -0.0753082, 0.0534131, 0.039755, 0.0472692, -0.00419469, 0.0252199, 0.0171064, 0.0958539, 0.0288849, 0.0486763, 0.0318487, 0.00485163, -0.00787291, -0.00853919, 0.018955, -0.0101878, -0.0381422, -0.00681531, -0.0140156, 0.00996811, -0.0182531, -0.0300448, 0.0200762, 0.0545644, 0.0289686, 0.0251517, 0.0259128, 0.0163827, 0.0250107, -0.0697025, -0.0424453, -0.052598, 0.00400138, 0.0639355, -0.0611389, 0.0108139, -0.0452828, -0.0418087, 0.0205676, -0.00833359, -0.0179727, 0.012697, -0.0256113, 0.033764, -0.0437066, 0.0181044, -0.0073131, -0.000469656, 0.0323008, -0.0179829, -0.079325, 0.0236613, -0.0489035, 0.0348014, -0.0381767, -0.0689208, -0.0262625, 0.0560683, 0.0483583, 0.0357789, 0.0072465, -0.0157672, -0.0185536, 0.0265002, -0.0456187, 0.0410153, -0.0591898, 0.0282452, -0.0375973, 0.00721971, -0.00764975, 0.0186174, 0.0118888, 0.0228628, -0.0142146, 0.0721408, 0.0230546, 0.033178, -0.0186242, 0.0709769, -0.00904384, -0.0258175, 0.0351849, -0.0383893, 0.00759331, -0.0665996, -0.0349574, -0.0443019, 4.84692e-05, -0.0299179, -0.0312482, -0.0620815, -0.0483754, -0.0110047, -0.029506, -0.0841029, -0.0552189, 0.0330526, -0.0103342, -0.0308646, -0.00194902, 0.0142677, 0.00139952, -0.0222924, -0.00616308, 0.0755935, -0.032425, -0.0378219, -0.0235028, 0.0266419, -0.0351406, -0.00926441, -0.0182551, 0.028971, -0.024256, -0.0251777, 0.0190734, 0.0158685, 0.00700607, -0.0351532, -0.0510491, -0.0373365, 0.0259227, 0.00366719, -0.0461893, -0.0196234, -0.0472025, 0.0230781, 0.00736204, 0.00936869, 0.0499967, 0.0353354, 0.0589301, -0.0700118, 0.0258928, -0.0346952, -0.00246768, -0.0120213, 0.0355172, -0.032156, -0.00483696, -0.0382302, -0.0277112, 0.0360064, -0.0593689, -0.0280698, 0.0166138, -0.0193639, -0.0065798, -0.0728692, -0.0767882, -0.0277231, -0.00369379, -0.000557335, -0.0422212, -0.0295808, 0.00864323, 0.0478631, -0.028991, -0.0191558, 0.0100808, -0.0228191, -0.0322886, 0.0307941, 0.00750018, -0.0182139, -0.0163727, -0.0292416, -0.0142377, 0.00805771, 0.00334899, -0.018034, -0.00302596, -0.0360186, 0.0287259, 0.0341878, 0.00885147, 0.0270354, -0.049192, 0.00798764, 0.0443358, 0.00447202, -0.00259567, -0.0449378, 0.0683302, 0.0179211, -0.0247609, -0.0313228, -0.0183833, 0.0290328, 0.00363421, 0.00371681, 0.0549669, 0.0248562, 0.0867061, -0.0566978, 0.00187358, 0.0430133, -0.00966046, 0.0581155, 0.0132886, -0.0397616, -0.0116036, 0.0493036, -0.0249868, -0.0623163, -0.0406767, 0.0356006, 0.00197499, 0.00183225, -0.0512214, 0.0120982, -0.00138061, -0.0411439, 0.0205015, 0.0265124, 0.0247664, -0.00162885, -0.0610956, -0.051549, -0.0127672, -0.0399671, -0.0607986, -0.024979, 0.0325848, -0.00371865, -0.0314981, 0.0134761, -0.00324173, 0.0189453, -0.0356302, 0.0286619, -0.00533705, 0.00823058, 0.0309526, -0.0206743, 0.0238335, 0.0504769, 0.00042673, -0.0261038, -0.00907764, -0.0498715, -0.0267723, 0.0191697, -0.0201734, -0.00197323, -0.0231045, -0.00741153, -0.00157466, -0.0128816, -0.0140606, -0.00210634, -0.00463441, 0.0198827, 0.00544561, 0.00371793, -0.038807, 0.0131114, -0.0188525, -0.0461056, -0.0116427, 0.0408749, 0.00752314, -0.0399505, -0.0291613, -0.0352389, -0.0222815, -0.00387335, -0.00654964, 0.0646893, -0.0155081, 0.00952595, 0.0342521, 0.040828, -0.0546223, -0.0457288, 0.00509172, 0.0368733, -0.052059, -0.00842909, -0.0298226, -0.0210769, -0.027612, -0.0485475, 0.013356, -0.00551106, -0.0133779, 0.0183647, 0.0142144, -0.0119021, 0.0163514, -0.0547712, 0.0248567, -0.01811, 0.00382945, -0.00111328, 0.0137225, -0.0382507, -0.0159533, -0.0612165, -0.0669024, -0.0549706, -0.0356815, 0.0881789, -0.0177685, -0.0690793, -0.0676212, 0.0455569, 0.0430858, 0.00793041, 0.00700565, 0.00682216, 0.0287096, 0.00328222, -0.0356159, -0.0239195, -0.0502423, -0.0532304, 0.0398226, -0.0435424, 0.0260974, -0.029672, 0.00899198, 0.033473, -0.0327425, 0.00993926, 0.00378442, 0.0495739, -0.0265083, -0.00513113, -0.0154106, -0.0256722, 0.034063, 0.0145632, 0.0202809, 0.0271454, -0.0108334, 0.0307436, 0.0246836, -0.0467522, 0.0362724, -0.0623204, -0.0110185, 0.00528809, 0.0425722, 0.029386, 0.0275142, -0.0496816, 0.0580459, -0.0945871, -0.0584938, -0.071024, 0.0493207, 0.0010187, -0.0433096, -0.0416431, -0.0314214, -0.0249538, -0.0207156, -0.00758072, 0.0123783, -0.0310297, 0.0259973, 0.0163035, -0.0305494, -0.0620742, -0.0731173, -0.046756, 0.0207295, -0.0365973, -0.0282231, -0.0169758, 0.0509205, 0.0411749, -0.0220847, -0.106625, -0.0247387, -0.0165257, -0.0296091, 0.0310073, -0.0121827, -0.0107238, -0.026556, 0.0217756, -0.0297654, -0.0645111, -0.072155, -0.0576449, 0.00626901, -0.0609099, -0.0635552, -0.0226683, 0.0318983, 0.00220857, -0.082246, -0.0674093, -0.0269057, -0.0165491, -0.0400128, -0.0545105, -0.0260801, -0.0269515, 0.0427524, -0.00108782, -0.0576148, -0.00016379, -0.0667967, 0.0365473, 0.0373752, -0.0248596, -0.0535115, -0.00209863, -0.0254878, 0.0180213, 0.00376719, 0.00681819, -0.02738, -0.0350005, 0.0311157, 0.00482673, 0.027742, -0.0416095, 0.00520507, -0.00642383, 0.0214201, 0.0213815, -0.0609411, 0.0274107, 0.0174334, -0.00810174, 0.0339027, -0.0453606, 0.0119064, -0.00580943, -0.0239275, 0.0247687, -0.00102381, 0.00493868, -0.0307337, -0.0145685, 0.0174178, -0.0535912, -0.00106198, 0.0223285, -0.0155771, -0.0170056, -0.0468533, 0.0345388, -0.00398385, -0.0454662, -0.0343133, -0.0498311, 0.0131937, -0.0470516, 0.0148808, 0.050929, -0.0358922, -0.00076855, -0.0154421, 0.00808281, -0.0424839, 0.0487552, -0.0215562, -0.0351844, -0.0202858, -0.0278783, 0.010266, -0.0242378, -0.0122157, -0.0111553, -0.033571, -0.0592152, 0.00912638, 0.0334373, -0.0304096, -0.0534571, -0.0294103, -0.0718755, -0.0178986, -0.023168, 0.000750441, -0.0298341, 0.0139435, 0.0429505, 0.0134857, 0.00290512, -0.00283794, -0.0237897, 0.0501371, -0.0610969, -0.0325922, 0.0671976, -0.0124726, -0.00964699, -0.0506855, 0.0159738, 0.0214817, -0.0241878, 0.0446383, -0.0125225, -0.00505897, -0.0735049, 0.0098822, 0.0195137, -0.0430652, -0.000571768, 0.0411945, 0.029417, 0.016602, 0.034795, 0.0475258, 0.0109973, -0.0367547, 0.0423182, 0.0268217, -0.0530752, 0.0411539, 0.0586303, -0.0118348, -0.0236046, 0.00433325, 0.000255028, 0.0045606, -0.0540439, 0.0184515, 0.0195193, -0.0420372, 0.00947438, -0.0536395, -0.0584577, -0.0282978, -0.0214507, 0.00187636, 0.000325492, -0.00980165, -0.0395442, -0.0406224, -0.0111192, 0.0529456, -0.0233121, -0.0180203, -0.00487228, -0.00113348, -0.0124178, 0.020339, 0.0344329, 0.0385076, 0.0464739, -0.0115326, 0.00976085, -0.0459635, 0.0042757, 0.0188799, 0.0288513, -0.0394945, -0.0612267, -0.0456228, 0.0392217, 0.0359707, -0.0229016, 0.046185, 0.0472336, -0.00629977, -0.0156, 0.0181825, 0.0890866, 0.0253306, -0.0540595, -0.00802329, 0.0234513, 0.0326939, -0.00151549, 0.0689066, 0.0675578, 0.0249046, -0.0457486, -0.00230634, -0.0410672, 0.0122378, 0.0110041, 0.0558477, 0.0744321, 0.0367813, -0.0412537, -0.00375704, -0.00593494, -0.00754094, 0.0129359, 0.00576795, 0.0934691, 0.100349, 0.0786906, -0.0548286, -0.0204144, -0.0384099, 0.0504326, -0.0156468, -0.0290925, 0.00971259, -0.0661052, 0.0317632, -0.0480618, -0.0588805, -0.00993307, 0.0253613, 0.0631094, 0.0886195, 0.033227, -0.0238842, -0.0419436, -0.0480069, 0.015456, 0.038942, -0.0266759, 0.0160333, -0.000244511, 0.0417293, 0.026001, -0.0206895, -0.0514022, 0.0216161, -0.0124677, 0.0111303, 0.0323316, -0.04092, -0.023581, -0.0196265, -0.0292514, 0.0306299, -0.011186, 0.0155968, -0.0288492, -0.0481253, 0.0247059, 0.0175894, 0.0341352, 0.00846365, -0.0104922, -0.032804, -0.0126493, -0.00869552, -0.0357971, 0.00652011, 0.00627834, -0.0302514, -0.0258718, 0.00951024, -0.0495932, 0.00199578, -0.0868266, -0.0712803, -0.0657136, -0.0066614, -0.0466543, -0.078485, -0.047521, -0.0342871, 0.0135424, 0.000486292, 0.0113006, 0.0601098, -0.00849279, -0.0505956, -0.0788313, 0.0526535, -0.0105483, 0.0336175, -0.0561857, 0.0281934, 0.0516868, 0.0193303, -0.0447076, 0.0265573, 0.0262577, 0.0259535, 0.0448611, 0.00770496, 0.0447255, -0.0532351, 0.059025, 0.0534629, -0.0281431, 0.0436839, 0.0268257, 0.0571964, 0.060933, 0.0315146, 0.0168512, 0.0222413, 0.0472455, -0.0560056, -0.0346599, 0.0719999, -0.0225475, -0.043004, -0.062852, -0.00235151, 0.0796517, -0.0150412, 0.0380616, -0.0489154, 0.0150591, -0.036576, 0.00562777, -0.054712, -0.0667068, 0.0118108, -0.0569752, -0.0558556, -0.0487874, -0.0510137, 0.038882, 0.0252014, -0.0397249, 0.0118923, 0.0333254, -0.0439345, -0.051117, -0.0332779, 6.62853e-05, 0.00716356, 0.0351062, 0.0213682, -0.0429456, -0.0239497, -0.0133256, 0.0518916, -0.00179634, -0.00597165, 0.0289242, 0.0388516, -0.0302285, -0.0414538, 0.00565864, 0.0161204, 0.0131093, -0.00650677, 0.00367368, -0.0322005, -0.0128606, 0.0208379, 0.000689509, -0.040602, 0.00359884, -0.0141239, 0.0496576, 0.00431021, -0.0378389, -0.011721, 0.0281377, -0.0135201, 2.01617e-05, 0.0164943, -0.073318, 0.0185224, -0.00521147, -0.0251976, -0.0470996, -0.0219151, 0.0370242, -0.0624441, -0.0234016, -0.0285671, 0.0174226, 0.00269395, 0.00496665, 0.0310276, 0.0097207, 0.0366718, 0.00138323, 0.100098, 0.0501974, -0.0121074, -0.0132023, 0.0917158, -0.00927989, -0.0510487, -0.0617297, -0.0606738, 0.0312365, 0.00641549, -0.0383168, -0.0138955, 0.00990968, 0.0154397, -0.0272783, -0.0495089, 0.00789994, -0.0335208, -0.033081, 0.00329067, -0.000918522, -0.00411246, 0.0330347, -0.00511978, 0.101609, 0.029212, 0.00678801, 0.0106758, 0.0143317, -0.00821985, -0.0394916, -0.0575629, -0.0122245, -0.0713422, -0.0631762, -0.0292852, -0.0490199, -0.0522855, 0.0238983, 0.0486297, 0.0573664, -0.0483076, 0.00734767, 0.0346765, 0.0391234, -0.00668526, -0.0200018, 0.0064807, -0.0343384, -0.0372781, -0.0394309, -0.0136135, -0.046618, -0.00563241, -0.0387519, -0.0175985, 0.0259714, -0.0250236, -0.0255074, 0.0625546, 0.0023426, 0.0451658, -0.0269498, -0.0194431, 0.0123303, -0.0543426, 0.0530995, -0.00195313, -0.0569998, -0.0263331, 0.000308238, -0.0219177, 0.0158402, 0.0207048, 0.0844421, 0.00842554, -0.013116, -0.00369019, 0.034978, 0.0404695, -0.0235308, -0.0119665, 0.00772267, -0.061606, -0.0429713, -0.062129, 0.0332201, 0.0260305, -0.00234554, -0.0553438, -0.0321954, -0.0246908, -0.0353359, 0.0444201, 0.022146, 0.0450731, -0.0416835, -0.0518012, -0.00173313, -0.0774568, -0.0197213, -0.0344197, 0.00286477, -0.0317871, -0.0548994, -0.0545164, -0.0595191, 0.0249738, -0.0112281, 0.0144127, 0.0292101, 0.0324847, 0.0248187, -0.027638, -0.0545382, -0.00529429, -0.00811597, 0.0119208, 0.0174073, 0.0679499, -0.023834, 0.0102411, -0.0215686, 0.0538694, 0.00757878, 0.0307511, -0.0339212, 0.0100219, -0.0386436, -0.0518345, -0.0337545, -0.057369, -0.01377, 0.0518388, 0.0584767, 0.000334226, 0.0178489, -0.0168844, 0.0561365, -0.0198163, 0.0200715, 0.0128218, -0.0172522, 0.043672, -0.0442184, -0.0135976, 0.0440053, 0.0277878, 0.0366962, -0.0292126, 0.0125377, -0.0216556, -0.0483899, -0.0640517, 0.00930928, -0.0494356, -0.053262, -0.0128574, 0.0287467, -0.0351622, -0.026077, -0.0387809, 0.0085264, -0.0421178, 0.00819916, -0.00244811, -0.0584295, 0.049839, 0.0451023, 0.0141007, -0.0620806, -0.0643995, 0.0380272, -0.0641936, -0.0468126, 0.00441312, -0.0540702, 0.0400851, -0.0249414, 0.00942406, 0.0377499, 0.0135821, -0.0457222, 0.013909, -0.0302467, -0.0238876, -3.82334e-05, -0.0199853, 0.0651331, -0.00583618, -0.0605142, 0.0471929, 0.0149202, 0.0198255, -0.047267, -0.0634107, 0.0491448, -0.0172276, 0.0442684, -0.00602676, 0.00956676, -0.0291014, -0.00558289, 0.044802, 0.00938699, -0.0250536, 0.0232925, -0.0734306, -0.0514557, -0.00706043, 0.024121, 0.0156986, 0.000530677, -0.0467075, 0.0372893, -0.0565912, -0.0910676, -0.0421567, 0.0327516, 0.0753784, 0.0455312, -0.0335119, -0.0597201, -0.0342869, 0.0375149, 0.0346261, -0.0700874, -0.0922131, -0.0824839, 0.00961113, 0.0895715, -0.0253739, -0.0349598, -0.037136, 0.0213336, 0.0397238, -0.0235429, -0.087795, -0.0490088, -0.0739082, -0.023952, 0.0111891, -0.0696886, -0.0327566, -0.0554582, 0.0522118, 0.0377585, 0.017321, -0.0490228, -0.0657412, 0.0240801, 0.039851, 0.00753867, -0.0288841, -0.0698294, -0.0198393, -0.0364859, 0.014516, -0.060698, 0.00787544, -0.0651936, -0.0430362, 0.0239048, -0.0402801, 0.0375922, -0.0437959, -0.00531991, -0.0110914, -0.0257632, -0.0322882, -0.00304426, -0.0108644, 0.00451817, 0.04388, -0.0580158, 0.0241187, -0.0111864, 0.0457082, 0.0466488, -0.0631862, 0.0333069, 0.058852, -0.0399059, -0.030658, -0.0484077, -0.0055197, 0.0637881, 0.0395234, 0.031164, -0.00571394, 0.0487691, -0.00347792, 0.0195878, -0.057395, 0.0250077, 0.0137305, -0.00409441, 0.0297134, 0.0140667, 0.0138411, -0.0444763, -0.0623102, -0.00231157, -0.0258464, -0.0188736, -0.0459106, 0.0146356, 0.0182838, 0.00966038, -0.0529339, -0.0559495, 0.00644615, 0.0233591, -0.0331845, -0.0490896, 0.0431334, 0.0830161, -0.0174798, 0.00705727, -0.0263165, -0.0286582, -0.000815953, -0.0124075, -0.076825, -0.112983, -0.101024, 0.0338162, 0.0274047, -0.0445265, -0.00486758, -0.118407, -0.0305032, 0.0673317, -0.019354, -0.0527999, -0.086721, -0.0679196, -0.103933, -0.00958827, -0.00631668, -0.0488964, -0.0846046, -0.014409, 0.0150448, -0.0236653, -0.0623917, -0.0154948, -0.0186817, -0.068608, 0.000203325, 0.0232089, 0.00523227, -0.0604186, -0.0524589, 0.0710868, -0.0203664, 0.00518319, -0.0150942, -0.0502713, -0.0332657, 0.0444964, 0.0180381, -0.0349532, -0.0166913, 0.0469898, 0.0383291, -0.092004, -0.0673591, -0.0549537, -0.0311634, 0.0672117, -0.0358379, -0.108563, -0.0705422, -0.0340131, 0.0880619, 0.123096, 0.0267297, -0.0738685, -0.0211869, 0.0408939, 0.0914495, 0.0636865, -0.0673693, -0.0648339, -0.0328044, 0.0249694, 0.0311974, 0.0217776, -0.04244, 0.00456586, 0.0338608, -0.00687691, 0.0251787, -0.0556899, -0.038717, -0.0373824, -0.0280286, -0.0531167, -0.109624, -0.0355637, 0.000942362, 0.000219851, -0.00643047, -0.0505211, -0.0272144, 0.00545865, 0.0191798, 0.0456908, 0.0181704, 0.0153495, -0.0260308, 0.00661135, -0.0448246, -0.0460533, -0.00437955, 0.0641104, 0.0145268, -0.0191437, -0.0169594, 0.0463532, 0.0963074, 0.0647986, 0.00987514, -0.09103, 0.0263722, 0.000122972, 0.0354135, -0.0051179, -0.0123006, -0.0296358, -0.00196283, 0.00704831, -0.00458332, -0.0540292, -0.0540168, -0.0563645, -0.0141958, -0.0301525, -0.00409645, 0.0495916, 0.0471271, -0.0250931, -0.0372371, -0.00105193, 0.0410153, 0.0628549, -0.00241494, 0.0400728, 0.00426076, -0.00111525, -0.0107807, 0.0490903, -0.0147771, -0.0528977, -0.0270008, -0.01629, -0.0331268, -0.0378506, 0.0222038, 0.0549359, 0.00915056, 0.0456896, -0.0203715, 0.00582184, 0.0162589, -0.0500969, -0.086964, -0.0632208, 0.0101896, 0.0933321, -0.0402992, -0.0546697, -0.0341478, 0.0143539, 0.037678, 0.0626048, -0.00226983, -0.0457948, -0.0771887, 0.0903825, 0.0505872, 0.0698689, 0.0400582, -0.0355717, -0.015709, -0.0126525, 0.0101081, 0.0599978, 0.0186753, -0.0271257, -0.0732957, 0.0132105, 0.042621, -0.0119278, -0.023613, -0.040416, -0.0709361, 0.0470443, 0.050111, -0.0227741, -0.0987186, -0.0504743, -0.0265002, -0.0159527, 0.0521094, -0.0378478, 0.0105249, -0.041516, 0.0498371, -0.000974981, 0.0347435, 0.0760462, 0.0217988, 0.0193089, -0.0437554, 0.0112122, 0.0152156, 0.0395854, -0.038284, -0.0226942, -0.0290951, -0.00858701, 0.056407, 0.0280462, -0.0209838, -0.0172288, -0.0670887, -0.0369637, 0.0172666, 0.0219121, 0.0191812, -0.00663429, 0.0461639, 0.0689571, 0.0454086, 0.0292938, 0.0317761, 0.0415094, 0.0477822, 0.0498189, 0.0232525, -0.0349141, -0.0467641, -0.0161252, 0.00673442, -0.00221447, 0.0169356, 0.0162162, 0.00132015, 0.00532453, -0.0100308, 0.0337874, 0.0501114, -0.0170175, -0.0032262, -0.0297826, -0.0199288, -0.0341048, -0.0407894, -0.0329277, -0.0478078, -0.0276033, -0.0217369, -0.0365058, 0.0111573, -0.0504218, -0.0181873, -0.00466984, -0.0117112, 0.0215468, -0.017292, -0.0402825, 0.0162617, 0.0552321, 0.0138574, -0.0423103, -0.00381403, 0.0260466, -0.0156439, 0.077103, 0.0760955, -0.0667806, -0.0071663, 0.0179909, 0.0772528, 0.105353, -0.0499491, 0.0215054, 0.0077157, -0.0133192, 0.0135417, -0.132008, 0.019241, 0.000423833, 0.0278788, 0.0828989, -0.0744718, -0.0279779, -0.026157, 0.0726525, 0.0796674, 0.0445587, -0.071064, -0.0419197, 0.0413689, 0.0286099, 0.0299623, -0.0406204, -0.0270972, -0.0548266, 0.0388302, 0.00533259, -0.0291431, 0.0163039, 0.066126, -0.0399988, 0.0246955, -0.05387, 0.0112597, -0.0447204, 0.0434112, -0.0309714, -0.035701, 0.00629188, -0.0183411, 0.00115991, -0.0353336, -0.0379196, 0.0242362, 0.0104924, 0.0584001, 0.0780851, -0.0348382, 0.0241372, -0.0736555, 0.0321946, 0.0336427, -0.0578188, -0.0131576, 0.0802475, 0.0841895, 0.0495535, 0.0102166, -0.053462, 0.0212515, 0.021284, 0.104186, 0.00981251, 0.003546, 0.00494859, 0.0936119, 0.114369, 0.0568899, -0.0269746, -0.0473987, -0.00563668, 0.0768775, 0.049952, -0.040766, -0.0475642, -0.00658615, -0.00592043, -0.0627591, 0.0238895, -0.0447619, -0.0410201, 0.0173923, -0.0269012, 0.0271302, -0.00341139, 0.0240134, 0.0297072, 0.022885, 0.00697041, 0.075004, 0.0171124, 0.0284902, 0.0300071, 0.0046521, 0.0480639, -0.0108621, 0.0320951, -0.0537295, -0.00367011, 0.00085739, 0.016549, 0.0284222, 0.00644746, 0.0355169, -0.0259272, 0.0316102, 0.035741, 0.00726012, -0.0753524, -0.00983091, 0.0106065, -0.0211553, -0.0524468, 0.0100744, 0.0598815, 0.0415502, 0.0669661, -0.0483334, -0.0140106, -0.0480035, 0.0222499, 0.100295, -0.0384257, -0.0395843, -0.0233108, -0.0297041, -0.0195781, 0.0364373, -0.00513161, -0.0169611, -0.0424198, -0.0997784, 0.01568, 0.00785054, 0.00463993, -0.0273986, -0.109926, -0.0703526, 0.00484316, 0.0364206, 0.0295407, -0.0458351, -0.0842017, -0.0265583, -0.0437762, 0.0287922, 0.0268669, -0.0283889, -0.0160177, 0.0723593, 0.0190165, -0.0169574, 0.00117397, 0.00152169, -0.0233135, -0.0306923, -0.0394583, -0.0612404, -0.0718082, 0.0121263, 0.00224778, -0.014426, -0.0175208, 0.0134136, -0.0047183, -0.00619838, 0.0304176, -0.033485, -0.027982, 0.0296908, 0.0392205, 0.00467692, 0.0229376, -0.0300272, -0.0133501, -0.0309388, -0.00748483, -0.0284919, 0.0623087, -0.0220587, -0.00805889, -0.0375471, -0.042091, -0.043427, 0.018691, 0.00761263, -0.0118945, 0.00894373, 0.016382, 0.019095, -0.00482647, -0.0332704, 0.0617811, 0.0113743, -0.0522815, 0.0619049, -0.0297405, -0.023115, 0.0250537, -3.1006e-05, 0.0100631, -0.0660167, 0.0230925, 0.0518867, -0.0421687, -0.00666297, -0.0055336, -0.0339265, -0.0521245, -0.0196723, -0.0386619, -0.000446028, 0.0333411, 0.029711, -0.0104365, -0.0818352, 0.000854895, 0.0339633, 0.0430553, 0.0566112, -0.0387011, 0.0249497, 0.0245319, 0.0367591, -0.02242, -0.0296496, 0.0160667, -0.062606, -0.0182075, 0.0701375, 0.0742766, -0.00970465, -0.0281981, -0.0433883, -0.0134715, 0.0289909, 0.0815678, 